{"learner":{"attributes":{},"feature_names":["cart_size","hour_of_day","is_complement_to_any_cart_item","candidate_popularity_rank","cuisine_encoded","area_encoded","candidate_category_encoded","meal_time_encoded"],"feature_types":["float","float","int","float","int","int","int","int"],"gradient_booster":{"model":{"gbtree_model_param":{"num_parallel_tree":"1","num_trees":"100"},"iteration_indptr":[0,1,2,3,4,5,6,7,8,9,10,11,12,13,14,15,16,17,18,19,20,21,22,23,24,25,26,27,28,29,30,31,32,33,34,35,36,37,38,39,40,41,42,43,44,45,46,47,48,49,50,51,52,53,54,55,56,57,58,59,60,61,62,63,64,65,66,67,68,69,70,71,72,73,74,75,76,77,78,79,80,81,82,83,84,85,86,87,88,89,90,91,92,93,94,95,96,97,98,99,100],"tree_info":[0,0,0,0,0,0,0,0,0,0,0,0,0,0,0,0,0,0,0,0,0,0,0,0,0,0,0,0,0,0,0,0,0,0,0,0,0,0,0,0,0,0,0,0,0,0,0,0,0,0,0,0,0,0,0,0,0,0,0,0,0,0,0,0,0,0,0,0,0,0,0,0,0,0,0,0,0,0,0,0,0,0,0,0,0,0,0,0,0,0,0,0,0,0,0,0,0,0,0,0],"trees":[{"base_weights":[-7.5263245E-9,-3.0151597E-1,6.0113716E-1,-3.1585544E-1,-2.799359E-1,5.5092466E-1,9.7300164E-2,-3.312516E-1,-3.0749965E-1,-2.8683954E-1,-2.764717E-1,-2.3672199E-1,5.7480615E-1,-3.408104E-1,-3.1212205E-1,-3.0192438E-1,-3.1903398E-1,-2.9797456E-1,-2.6615632E-1,-2.6390538E-1,-2.8481716E-1,-2.500304E-1,-2.0516695E-2,6.0047913E-2,-2.1673883E-1,-3.3725113E-1,-3.771184E-2,-3.6211306E-1,-3.0093437E-1,-2.875251E-1,-3.0794936E-1,-3.494768E-1,-3.0640334E-1,-2.9514775E-1,-3.3117317E-2,-2.0917743E-2,-2.75448E-1,-2.8159508E-1,-2.4573576E-1,-2.966404E-1,-2.7880535E-1,-2.1461144E-2,-2.893271E-2,-2.6280507E-2,-1.8882348E-1,-3.642221E-2,-3.3414766E-2,-3.8391884E-2,-3.395913E-2,-2.7553782E-2,-3.1327333E-2,-2.6557142E-2,-3.0941376E-2,-3.2284107E-2,-2.996011E-2,-3.421371E-2,-3.854223E-2,-2.7529627E-2,-3.2326397E-2,-3.0529037E-2,-2.8482437E-2,-3.2423344E-2,-2.6604539E-2,-3.3479985E-2,-2.5124256E-2,-1.7343514E-2,-2.7169297E-2,-2.7597312E-2,-3.18401E-2,-2.5334332E-2,-2.823396E-2,-1.6576616E-2,-2.1182531E-2],"categories":[],"categories_nodes":[],"categories_segments":[],"categories_sizes":[],"default_left":[0,0,0,0,0,0,0,0,0,0,0,0,0,0,0,0,0,0,0,0,0,0,0,0,0,0,0,0,0,0,0,0,0,0,0,0,0,0,0,0,0,0,0,0,0,0,0,0,0,0,0,0,0,0,0,0,0,0,0,0,0,0,0,0,0,0,0,0,0,0,0,0,0],"id":0,"left_children":[1,3,5,7,9,11,-1,13,15,17,19,21,23,25,27,29,31,33,35,37,39,41,-1,-1,43,45,-1,47,49,51,53,55,57,59,-1,-1,61,63,65,67,69,-1,-1,-1,71,-1,-1,-1,-1,-1,-1,-1,-1,-1,-1,-1,-1,-1,-1,-1,-1,-1,-1,-1,-1,-1,-1,-1,-1,-1,-1,-1,-1],"loss_changes":[6.8087354E3,7.652832E0,2.3376172E2,1.8306885E0,1.5985107E-1,2.081294E2,0E0,8.5754395E-1,5.307007E-1,6.8374634E-1,6.2576294E-1,8.564949E-2,2.1822559E2,3.257141E-1,8.800659E-1,4.8339844E-1,1.1079407E0,1.0359192E-1,5.6121826E-1,7.9248047E-1,2.0187378E-1,2.507887E-1,0E0,0E0,3.8489056E-1,1.4624023E-1,0E0,2.602768E-2,3.6836243E-1,8.5957336E-1,4.793396E-1,1.107254E-1,1.0865784E0,1.21017456E-1,0E0,0E0,3.732834E-1,2.0984955E0,2.4496078E0,5.120392E-1,1.6880798E-1,0E0,0E0,0E0,7.8356266E-2,0E0,0E0,0E0,0E0,0E0,0E0,0E0,0E0,0E0,0E0,0E0,0E0,0E0,0E0,0E0,0E0,0E0,0E0,0E0,0E0,0E0,0E0,0E0,0E0,0E0,0E0,0E0,0E0],"parents":[2147483647,0,0,1,1,2,2,3,3,4,4,5,5,7,7,8,8,9,9,10,10,11,11,12,12,13,13,14,14,15,15,16,16,17,17,18,18,19,19,20,20,21,21,24,24,25,25,27,27,28,28,29,29,30,30,31,31,32,32,33,33,36,36,37,37,38,38,39,39,40,40,44,44],"right_children":[2,4,6,8,10,12,-1,14,16,18,20,22,24,26,28,30,32,34,36,38,40,42,-1,-1,44,46,-1,48,50,52,54,56,58,60,-1,-1,62,64,66,68,70,-1,-1,-1,72,-1,-1,-1,-1,-1,-1,-1,-1,-1,-1,-1,-1,-1,-1,-1,-1,-1,-1,-1,-1,-1,-1,-1,-1,-1,-1,-1,-1],"split_conditions":[2.0039487E0,-4.5200402E-1,1E0,-4.8140627E-1,6.501125E-3,2.1077213E0,9.7300164E-2,1.2331285E0,1.2331285E0,-4.3297902E-1,-4.4162676E-1,1.2331285E0,2.2512734E0,-4.831358E-1,-5.0734943E-1,-4.7448808E-1,-4.7448808E-1,-4.364381E-1,-4.277904E-1,1.2331285E0,-4.364381E-1,6.501125E-3,-2.0516695E-2,6.0047913E-2,6.501125E-3,-5.159971E-1,-3.771184E-2,-5.159971E-1,-4.9524263E-1,6.501125E-3,2E0,-4.7621763E-1,2E0,2E0,-3.3117317E-2,-2.0917743E-2,-4.2606086E-1,-4.4854492E-1,-4.5027447E-1,1.2331285E0,-4.3297902E-1,-2.1461144E-2,-2.893271E-2,-2.6280507E-2,1.2331285E0,-3.642221E-2,-3.3414766E-2,-3.8391884E-2,-3.395913E-2,-2.7553782E-2,-3.1327333E-2,-2.6557142E-2,-3.0941376E-2,-3.2284107E-2,-2.996011E-2,-3.421371E-2,-3.854223E-2,-2.7529627E-2,-3.2326397E-2,-3.0529037E-2,-2.8482437E-2,-3.2423344E-2,-2.6604539E-2,-3.3479985E-2,-2.5124256E-2,-1.7343514E-2,-2.7169297E-2,-2.7597312E-2,-3.18401E-2,-2.5334332E-2,-2.823396E-2,-1.6576616E-2,-2.1182531E-2],"split_indices":[3,3,2,3,0,3,0,0,0,3,3,0,3,3,3,3,3,3,3,0,3,0,0,0,0,3,0,3,3,0,6,3,6,6,0,0,3,3,3,0,3,0,0,0,0,0,0,0,0,0,0,0,0,0,0,0,0,0,0,0,0,0,0,0,0,0,0,0,0,0,0,0,0],"split_type":[0,0,0,0,0,0,0,0,0,0,0,0,0,0,0,0,0,0,0,0,0,0,0,0,0,0,0,0,0,0,0,0,0,0,0,0,0,0,0,0,0,0,0,0,0,0,0,0,0,0,0,0,0,0,0,0,0,0,0,0,0,0,0,0,0,0,0,0,0,0,0,0,0],"sum_hessian":[3.756293E4,2.5016002E4,1.2546928E4,1.5021138E4,9.994865E3,1.1056466E4,1.4904614E3,5.2707593E3,9.750378E3,3.3122466E3,6.682618E3,3.2510553E2,1.073136E4,3.5033562E3,1.7674034E3,6.591471E3,3.158907E3,2.1443865E3,1.1678604E3,2.6799148E3,4.0027034E3,2.2379565E2,1.0130988E2,1.0394468E4,3.3689255E2,3.199954E3,3.0340198E2,3.1746713E2,1.4499363E3,1.9588033E3,4.632668E3,9.184824E2,2.2404246E3,1.9852363E3,1.5915001E2,1.6704015E2,1.0008202E3,1.350544E3,1.3293708E3,1.3329346E3,2.6697688E3,1.2110362E2,1.02692024E2,1.23944145E2,2.1294841E2,3.182051E2,2.881749E3,1.5314456E2,1.6432256E2,4.8173645E2,9.681998E2,9.845061E2,9.7429724E2,1.6506122E3,2.9820557E3,7.7147345E2,1.4700896E2,7.9359875E2,1.4468258E3,9.8697156E2,9.9826483E2,1.5631209E2,8.445081E2,4.8694733E2,8.635966E2,3.532148E2,9.76156E2,6.906595E2,6.4227515E2,3.3426755E2,2.3355012E3,1.1044432E2,1.0250408E2],"tree_param":{"num_deleted":"0","num_feature":"8","num_nodes":"73","size_leaf_vector":"1"}},{"base_weights":[-7.100345E-11,-2.1461532E-1,3.2572106E-1,-2.190462E-1,-1.8294182E-1,2.6359004E-1,9.0699846E-1,-2.1366912E-1,-2.314069E-1,-1.890565E-1,-1.6887498E-1,2.812685E-1,-2.8823173E-1,9.2864734E-1,8.642485E-2,-2.2598237E-1,-2.0078833E-1,-2.0553452E-1,-2.424386E-1,-1.9408077E-1,-1.6544731E-1,-1.5544136E-1,-1.9648619E-2,-2.3690608E-1,2.959274E-1,-3.2994363E-2,-2.5936934E-1,9.47121E-2,9.116569E-2,-2.4422173E-1,-2.1529016E-1,-1.963691E-1,-2.1002546E-1,-1.7878154E-1,-2.3106925E-1,-2.6993263E-1,-2.0975858E-1,-1.814833E-1,-2.0283017E-2,-1.4573032E-2,-1.863303E-2,-2.0071995E-2,-1.4014721E-1,-2.6637455E-2,-2.161171E-1,2.831053E-1,3.2054836E-1,-2.4902752E-2,-2.7032986E-2,-2.2334347E-2,-2.6609896E-2,-2.7004836E-2,-2.12097E-2,-1.9337205E-2,-2.0433074E-2,-2.3864836E-2,-2.0309921E-2,-1.40318265E-2,-1.8615559E-2,-2.222382E-2,-2.606977E-2,-2.5107184E-2,-2.7858382E-2,-1.8487975E-2,-2.2195717E-2,-1.8778898E-2,-1.7486794E-2,-1.7670762E-2,-1.2271299E-2,-1.7964236E-2,-2.4268879E-2,2.7025191E-2,3.066668E-2,3.2825466E-2,3.0454366E-2],"categories":[],"categories_nodes":[],"categories_segments":[],"categories_sizes":[],"default_left":[0,0,0,0,0,0,0,0,0,0,0,0,0,0,0,0,0,0,0,0,0,0,0,0,0,0,0,0,0,0,0,0,0,0,0,0,0,0,0,0,0,0,0,0,0,0,0,0,0,0,0,0,0,0,0,0,0,0,0,0,0,0,0,0,0,0,0,0,0,0,0,0,0,0,0],"id":1,"left_children":[1,3,5,7,9,11,13,15,17,19,21,23,25,27,-1,29,31,33,35,37,39,41,-1,43,45,-1,47,-1,-1,49,51,53,55,57,59,61,63,65,-1,-1,-1,-1,67,-1,69,71,73,-1,-1,-1,-1,-1,-1,-1,-1,-1,-1,-1,-1,-1,-1,-1,-1,-1,-1,-1,-1,-1,-1,-1,-1,-1,-1,-1,-1],"loss_changes":[1.0373543E4,1.251416E1,2.128434E3,5.1660156E0,9.1290283E-1,5.195615E2,4.4643555E0,8.629639E0,6.736206E0,8.7509155E-1,1.2073822E0,3.9200244E2,1.9050751E0,3.1835938E-1,0E0,5.399414E0,1.050293E0,4.81839E0,1.4915222E1,6.575775E-1,5.281868E-1,1.5299301E0,0E0,8.124008E-1,1.5750488E1,0E0,4.397583E-2,0E0,0E0,4.656311E0,3.02594E0,3.9239502E-1,1.6642151E0,9.6048737E-1,8.9352417E-1,1.406189E0,2.270935E0,7.5279236E-2,0E0,0E0,0E0,0E0,1.0524292E0,0E0,7.685547E-1,9.912109E0,2.0184326E0,0E0,0E0,0E0,0E0,0E0,0E0,0E0,0E0,0E0,0E0,0E0,0E0,0E0,0E0,0E0,0E0,0E0,0E0,0E0,0E0,0E0,0E0,0E0,0E0,0E0,0E0,0E0,0E0],"parents":[2147483647,0,0,1,1,2,2,3,3,4,4,5,5,6,6,7,7,8,8,9,9,10,10,11,11,12,12,13,13,15,15,16,16,17,17,18,18,19,19,20,20,21,21,23,23,24,24,26,26,29,29,30,30,31,31,32,32,33,33,34,34,35,35,36,36,37,37,42,42,44,44,45,45,46,46],"right_children":[2,4,6,8,10,12,14,16,18,20,22,24,26,28,-1,30,32,34,36,38,40,42,-1,44,46,-1,48,-1,-1,50,52,54,56,58,60,62,64,66,-1,-1,-1,-1,68,-1,70,72,74,-1,-1,-1,-1,-1,-1,-1,-1,-1,-1,-1,-1,-1,-1,-1,-1,-1,-1,-1,-1,-1,-1,-1,-1,-1,-1,-1,-1],"split_conditions":[2.0039487E0,-4.277904E-1,1E0,-4.5027447E-1,1.2331285E0,2.2512734E0,1.2331285E0,-4.7448808E-1,6.501125E-3,-4.1395405E-1,-4.1914266E-1,2.1077213E0,6.501125E-3,6.501125E-3,8.642485E-2,6.501125E-3,-4.6238127E-1,-4.4162676E-1,-4.4162676E-1,1E0,6.501125E-3,-4.2606086E-1,-1.9648619E-2,6.501125E-3,2.176903E0,-3.2994363E-2,1.2331285E0,9.47121E-2,9.116569E-2,-4.831358E-1,-5.159971E-1,3E0,-4.6065173E-1,-4.4854492E-1,-4.3297902E-1,1E0,2E0,6.501125E-3,-2.0283017E-2,-1.4573032E-2,-1.863303E-2,-2.0071995E-2,1E0,-2.6637455E-2,1.2331285E0,2E0,1.2331285E0,-2.4902752E-2,-2.7032986E-2,-2.2334347E-2,-2.6609896E-2,-2.7004836E-2,-2.12097E-2,-1.9337205E-2,-2.0433074E-2,-2.3864836E-2,-2.0309921E-2,-1.40318265E-2,-1.8615559E-2,-2.222382E-2,-2.606977E-2,-2.5107184E-2,-2.7858382E-2,-1.8487975E-2,-2.2195717E-2,-1.8778898E-2,-1.7486794E-2,-1.7670762E-2,-1.2271299E-2,-1.7964236E-2,-2.4268879E-2,2.7025191E-2,3.066668E-2,3.2825466E-2,3.0454366E-2],"split_indices":[3,3,2,3,0,3,0,3,0,3,3,3,0,0,0,0,3,3,3,6,0,3,0,0,3,0,0,0,0,3,3,6,3,3,3,6,6,0,0,0,0,0,6,0,0,6,0,0,0,0,0,0,0,0,0,0,0,0,0,0,0,0,0,0,0,0,0,0,0,0,0,0,0,0,0],"split_type":[0,0,0,0,0,0,0,0,0,0,0,0,0,0,0,0,0,0,0,0,0,0,0,0,0,0,0,0,0,0,0,0,0,0,0,0,0,0,0,0,0,0,0,0,0,0,0,0,0,0,0,0,0,0,0,0,0,0,0,0,0,0,0,0,0,0,0,0,0,0,0,0,0,0,0],"sum_hessian":[1.4839345E5,8.94535E4,5.893994E4,7.847016E4,1.0983346E4,5.3249695E4,5.690249E3,5.4695188E4,2.3774969E4,7.6468955E3,3.33645E3,5.1597184E4,1.6525079E3,3.763609E3,1.9266401E3,2.795517E4,2.674002E4,7.112889E3,1.666208E4,6.299155E3,1.3477405E3,2.2489182E3,1.0875317E3,1.4190826E3,5.01781E4,6.715514E2,9.809566E2,1.776875E3,1.9867339E3,1.0323282E4,1.7631889E4,1.810193E4,8.63809E3,3.4774912E3,3.635398E3,9.045092E3,7.6169883E3,2.5907349E3,3.70842E3,6.97327E2,6.504135E2,5.647732E2,1.684145E3,5.8211676E2,8.369659E2,3.300321E4,1.717489E4,5.169284E2,4.640282E2,5.28797E3,5.0353115E3,9.6692957E2,1.6664959E4,1.316967E4,4.93226E3,1.6764912E3,6.9615986E3,5.626609E2,2.9148303E3,2.8071892E3,8.282088E2,2.8536902E3,6.191401E3,2.5113276E3,5.1056606E3,1.312393E3,1.2783419E3,5.408407E2,1.1433043E3,3.5602017E2,4.8094568E2,2.1362096E4,1.1641115E4,1.1579705E4,5.5951855E3],"tree_param":{"num_deleted":"0","num_feature":"8","num_nodes":"75","size_leaf_vector":"1"}},{"base_weights":[9.937074E-10,-1.8907943E-1,3.0906513E-1,-1.8067957E-1,-2.4563147E-1,2.563607E-1,8.7001264E-1,-1.9274384E-1,-1.7874634E-1,-2.5517502E-1,-2.2314191E-1,-2.130392E-1,2.7017334E-1,8.870267E-2,8.364569E-2,-2.0838833E-1,-1.8501854E-1,-1.6540113E-1,-1.8334325E-1,-2.624656E-1,-2.2716625E-2,-2.3872454E-1,-2.1294744E-1,-1.5122282E-2,-2.434039E-1,2.8377476E-1,-2.0470548E-1,-1.9681495E-1,-2.370974E-1,-2.0614912E-1,-1.7732228E-1,-1.3795385E-1,-1.7917956E-1,-1.954771E-1,-1.7724922E-1,-2.7071896E-1,-2.5295815E-1,-2.4970977E-2,-2.2597631E-2,-2.0210907E-2,-2.1856815E-2,-2.604196E-2,-2.2663955E-2,3.328248E-1,2.7856538E-1,-1.1054655E-2,-2.4154699E-1,-2.06143E-2,-1.6195124E-2,-2.0322261E-2,-2.694557E-2,-1.9373156E-2,-2.1891767E-2,-1.9420145E-2,-1.6636902E-2,-1.1524545E-2,-1.66698E-2,-2.1078577E-2,-1.7602643E-2,-1.8361375E-2,-2.0773588E-2,-1.8919874E-2,-1.6166108E-2,-2.6020447E-2,-2.8026594E-2,-2.6593884E-2,-2.384114E-2,3.516629E-2,2.9431468E-2,2.7543385E-2,2.9966353E-2,-2.7815124E-2,-1.8619398E-2],"categories":[],"categories_nodes":[],"categories_segments":[],"categories_sizes":[],"default_left":[0,0,0,0,0,0,0,0,0,0,0,0,0,0,0,0,0,0,0,0,0,0,0,0,0,0,0,0,0,0,0,0,0,0,0,0,0,0,0,0,0,0,0,0,0,0,0,0,0,0,0,0,0,0,0,0,0,0,0,0,0,0,0,0,0,0,0,0,0,0,0,0,0],"id":2,"left_children":[1,3,5,7,9,11,13,15,17,19,21,23,25,-1,-1,27,29,31,33,35,-1,37,39,-1,41,43,45,47,49,51,53,55,57,59,61,63,65,-1,-1,-1,-1,-1,-1,67,69,-1,71,-1,-1,-1,-1,-1,-1,-1,-1,-1,-1,-1,-1,-1,-1,-1,-1,-1,-1,-1,-1,-1,-1,-1,-1,-1,-1],"loss_changes":[8.230518E3,4.1465332E1,1.5802651E3,1.7399902E0,2.367859E0,3.1690747E2,1.8791504E0,1.2299194E0,3.9934082E0,1.5587158E0,4.8513794E-1,2.586319E0,3.066858E2,0E0,0E0,1.1035004E0,1.1075287E0,6.334442E0,3.5721436E0,4.2443848E-1,0E0,1.2927246E-1,8.063507E-2,0E0,2.0783997E-1,1.1699951E1,4.5607452E0,7.708359E-1,1.0300293E0,2.5441742E-1,9.2240906E-1,3.6519852E0,1.0782776E0,2.3320923E0,6.0195923E0,2.632141E-1,4.9067688E-1,0E0,0E0,0E0,0E0,0E0,0E0,3.1072083E0,2.6738281E0,0E0,1.8723984E0,0E0,0E0,0E0,0E0,0E0,0E0,0E0,0E0,0E0,0E0,0E0,0E0,0E0,0E0,0E0,0E0,0E0,0E0,0E0,0E0,0E0,0E0,0E0,0E0,0E0,0E0],"parents":[2147483647,0,0,1,1,2,2,3,3,4,4,5,5,6,6,7,7,8,8,9,9,10,10,11,11,12,12,15,15,16,16,17,17,18,18,19,19,21,21,22,22,24,24,25,25,26,26,27,27,28,28,29,29,30,30,31,31,32,32,33,33,34,34,35,35,36,36,43,43,44,44,46,46],"right_children":[2,4,6,8,10,12,14,16,18,20,22,24,26,-1,-1,28,30,32,34,36,-1,38,40,-1,42,44,46,48,50,52,54,56,58,60,62,64,66,-1,-1,-1,-1,-1,-1,68,70,-1,72,-1,-1,-1,-1,-1,-1,-1,-1,-1,-1,-1,-1,-1,-1,-1,-1,-1,-1,-1,-1,-1,-1,-1,-1,-1,-1],"split_conditions":[2.0039487E0,-4.2606086E-1,1E0,-4.9005398E-1,1.2331285E0,2.1077213E0,1.2331285E0,6.501125E-3,-4.7275853E-1,-4.1395405E-1,1E0,6.501125E-3,2.2512734E0,8.870267E-2,8.364569E-2,-4.9524263E-1,-5.0734943E-1,6.501125E-3,6.501125E-3,1E0,-2.2716625E-2,-4.208722E-1,-4.2260176E-1,-1.5122282E-2,1.2331285E0,2.1405826E0,6.501125E-3,-4.9697214E-1,1E0,1.2331285E0,1E0,3E0,-4.8832443E-1,-4.5027447E-1,-4.4854492E-1,6.501125E-3,6.501125E-3,-2.4970977E-2,-2.2597631E-2,-2.0210907E-2,-2.1856815E-2,-2.604196E-2,-2.2663955E-2,1.2331285E0,2.2080348E0,-1.1054655E-2,1.2331285E0,-2.06143E-2,-1.6195124E-2,-2.0322261E-2,-2.694557E-2,-1.9373156E-2,-2.1891767E-2,-1.9420145E-2,-1.6636902E-2,-1.1524545E-2,-1.66698E-2,-2.1078577E-2,-1.7602643E-2,-1.8361375E-2,-2.0773588E-2,-1.8919874E-2,-1.6166108E-2,-2.6020447E-2,-2.8026594E-2,-2.6593884E-2,-2.384114E-2,3.516629E-2,2.9431468E-2,2.7543385E-2,2.9966353E-2,-2.7815124E-2,-1.8619398E-2],"split_indices":[3,3,2,3,0,3,0,0,3,3,6,0,3,0,0,3,3,0,0,6,0,3,3,0,0,3,0,3,6,0,6,6,3,3,3,0,0,0,0,0,0,0,0,0,3,0,0,0,0,0,0,0,0,0,0,0,0,0,0,0,0,0,0,0,0,0,0,0,0,0,0,0,0],"split_type":[0,0,0,0,0,0,0,0,0,0,0,0,0,0,0,0,0,0,0,0,0,0,0,0,0,0,0,0,0,0,0,0,0,0,0,0,0,0,0,0,0,0,0,0,0,0,0,0,0,0,0,0,0,0,0,0,0,0,0,0,0,0,0,0,0,0,0,0,0,0,0,0,0],"sum_hessian":[1.4084022E5,8.73821E4,5.345811E4,7.608511E4,1.1296992E4,4.886811E4,4.59E3,1.0494656E4,6.559045E4,7.924046E3,3.3729468E3,1.3964817E3,4.747163E4,3.0288347E3,1.5611652E3,3.4606082E3,7.0340483E3,1.6814256E4,4.8776195E4,6.280803E3,1.6432424E3,1.3250854E3,2.0478613E3,4.6197467E2,9.34507E2,4.61502E4,1.3214287E3,2.471954E3,9.886541E2,1.871083E3,5.1629653E3,5.6233325E3,1.1190925E4,1.6296699E4,3.2479496E4,3.347439E3,2.9333645E3,7.017744E2,6.233111E2,7.119577E2,1.3359037E3,4.565639E2,4.7794315E2,4.4247925E3,4.1725406E4,3.7275308E2,9.4867566E2,1.9462957E3,5.256584E2,4.8656567E2,5.0208844E2,9.567788E2,9.143042E2,2.0252671E3,3.1376982E3,3.1442937E3,2.4790388E3,1.00919586E3,1.0181729E4,8.290041E3,8.0066577E3,1.8379244E4,1.4100253E4,1.6064464E3,1.7409924E3,1.54099E3,1.3923745E3,2.9658494E3,1.4589432E3,3.6344883E4,5.380524E3,5.686257E2,3.8005E2],"tree_param":{"num_deleted":"0","num_feature":"8","num_nodes":"73","size_leaf_vector":"1"}},{"base_weights":[-4.2925466E-10,-1.681584E-1,2.8619453E-1,-1.7159952E-1,-1.3726161E-1,2.3937555E-1,8.350184E-1,-1.6780314E-1,-1.9817656E-1,-9.516819E-2,-1.6056642E-1,-1.9312946E-1,2.522161E-1,8.497713E-2,8.057642E-2,-1.7571433E-1,-1.4966884E-1,-1.2690513E-1,-2.2430977E-1,-7.950432E-2,-1.2803105E-1,-1.3691092E-1,-2.0162772E-1,-3.0459343E-2,-8.624232E-2,2.6157445E-1,-1.09100945E-1,-1.922246E-1,-1.6676822E-1,-1.438669E-1,-1.7616348E-1,-1.3496573E-1,-9.423289E-3,-2.1719396E-1,-2.4999528E-1,-7.119592E-3,-8.751933E-2,-1.1389359E-2,-1.4163387E-2,-1.08032145E-1,-1.7672622E-1,-2.109146E-2,-1.7502777E-2,-9.630795E-3,-7.723015E-3,2.6788536E-1,2.4882855E-1,-8.7916434E-2,-1.5276382E-2,-1.5379264E-2,-2.0337803E-2,-1.8116286E-2,-1.645379E-2,-1.5617658E-2,-1.3086093E-2,-1.4450359E-2,-1.8784966E-2,-1.5375333E-2,-1.1756975E-2,-2.355814E-2,-1.9311978E-2,-2.3792053E-2,-2.6320672E-2,-9.894265E-3,-7.637184E-3,-9.624049E-3,-1.1945698E-2,-2.3702605E-2,-8.082587E-3,2.6305461E-2,2.7746165E-2,2.7993131E-2,2.3536071E-2,-9.662626E-3,-7.893651E-3],"categories":[],"categories_nodes":[],"categories_segments":[],"categories_sizes":[],"default_left":[0,0,0,0,0,0,0,0,0,0,0,0,0,0,0,0,0,0,0,0,0,0,0,0,0,0,0,0,0,0,0,0,0,0,0,0,0,0,0,0,0,0,0,0,0,0,0,0,0,0,0,0,0,0,0,0,0,0,0,0,0,0,0,0,0,0,0,0,0,0,0,0,0,0,0],"id":3,"left_children":[1,3,5,7,9,11,13,15,17,19,21,23,25,-1,-1,27,29,31,33,35,37,39,41,-1,43,45,47,49,51,53,55,57,-1,59,61,-1,63,-1,-1,65,67,-1,-1,-1,-1,69,71,73,-1,-1,-1,-1,-1,-1,-1,-1,-1,-1,-1,-1,-1,-1,-1,-1,-1,-1,-1,-1,-1,-1,-1,-1,-1,-1,-1],"loss_changes":[6.6174336E3,9.185059E0,1.3074458E3,7.8293457E0,8.504211E0,2.6046606E2,1.0415039E0,9.757202E0,1.8102997E1,1.5841694E0,5.400589E0,1.6088467E1,1.5401416E2,0E0,0E0,6.9801025E0,3.159851E0,6.75724E-1,1.2473755E0,1.3362026E-1,1.7581749E-1,4.061432E0,4.671631E-1,0E0,5.5322647E-2,3.5043945E0,1.050703E0,7.1174316E0,9.5892334E-1,2.7018433E0,1.3484116E0,6.6646194E-1,0E0,2.4264526E0,1.827774E-1,0E0,1.280098E-1,0E0,0E0,2.6595497E-1,8.599201E0,0E0,0E0,0E0,0E0,1.2998047E0,6.0978394E0,5.314207E-2,0E0,0E0,0E0,0E0,0E0,0E0,0E0,0E0,0E0,0E0,0E0,0E0,0E0,0E0,0E0,0E0,0E0,0E0,0E0,0E0,0E0,0E0,0E0,0E0,0E0,0E0,0E0],"parents":[2147483647,0,0,1,1,2,2,3,3,4,4,5,5,6,6,7,7,8,8,9,9,10,10,11,11,12,12,15,15,16,16,17,17,18,18,19,19,20,20,21,21,22,22,24,24,25,25,26,26,27,27,28,28,29,29,30,30,31,31,33,33,34,34,36,36,39,39,40,40,45,45,46,46,47,47],"right_children":[2,4,6,8,10,12,14,16,18,20,22,24,26,-1,-1,28,30,32,34,36,38,40,42,-1,44,46,48,50,52,54,56,58,-1,60,62,-1,64,-1,-1,66,68,-1,-1,-1,-1,70,72,74,-1,-1,-1,-1,-1,-1,-1,-1,-1,-1,-1,-1,-1,-1,-1,-1,-1,-1,-1,-1,-1,-1,-1,-1,-1,-1,-1],"split_conditions":[2.0039487E0,-4.2606086E-1,1E0,-4.398972E-1,1E0,2.1077213E0,1.2331285E0,-4.6065173E-1,6.501125E-3,1.2331285E0,1.2331285E0,6.501125E-3,2.2512734E0,8.497713E-2,8.057642E-2,6.501125E-3,-4.4162676E-1,3E0,-4.277904E-1,6.501125E-3,-4.208722E-1,-4.1914266E-1,-4.1914266E-1,-3.0459343E-2,1.2331285E0,1.2331285E0,1.2331285E0,-4.8832443E-1,-4.9697214E-1,2E0,6.501125E-3,-4.3297902E-1,-9.423289E-3,1.2331285E0,1.2331285E0,-7.119592E-3,-4.208722E-1,-1.1389359E-2,-1.4163387E-2,6.501125E-3,6.501125E-3,-2.109146E-2,-1.7502777E-2,-9.630795E-3,-7.723015E-3,2E0,2.154419E0,6.501125E-3,-1.5276382E-2,-1.5379264E-2,-2.0337803E-2,-1.8116286E-2,-1.645379E-2,-1.5617658E-2,-1.3086093E-2,-1.4450359E-2,-1.8784966E-2,-1.5375333E-2,-1.1756975E-2,-2.355814E-2,-1.9311978E-2,-2.3792053E-2,-2.6320672E-2,-9.894265E-3,-7.637184E-3,-9.624049E-3,-1.1945698E-2,-2.3702605E-2,-8.082587E-3,2.6305461E-2,2.7746165E-2,2.7993131E-2,2.3536071E-2,-9.662626E-3,-7.893651E-3],"split_indices":[3,3,2,3,6,3,0,3,0,0,0,0,3,0,0,0,3,6,3,0,3,3,3,0,0,0,0,3,3,6,0,3,0,0,0,0,3,0,0,0,0,0,0,0,0,6,3,0,0,0,0,0,0,0,0,0,0,0,0,0,0,0,0,0,0,0,0,0,0,0,0,0,0,0,0],"split_type":[0,0,0,0,0,0,0,0,0,0,0,0,0,0,0,0,0,0,0,0,0,0,0,0,0,0,0,0,0,0,0,0,0,0,0,0,0,0,0,0,0,0,0,0,0,0,0,0,0,0,0,0,0,0,0,0,0,0,0,0,0,0,0,0,0,0,0,0,0,0,0,0,0,0,0],"sum_hessian":[1.375002E5,8.661092E4,5.0889285E4,7.792723E4,8.683694E3,4.6890586E4,3.9986997E3,6.819347E4,9.733763E3,3.0962651E3,5.5874297E3,1.3515808E3,4.5539004E4,2.6395376E3,1.359162E3,4.747397E4,2.0719498E4,2.613095E3,7.120668E3,2.0991416E3,9.9712335E2,3.5478438E3,2.0395858E3,6.607199E2,6.9086096E2,4.4389562E4,1.1494434E3,1.6676512E4,3.0797457E4,1.7002604E4,3.7168936E3,2.0934788E3,5.196162E2,5.583338E3,1.5373298E3,1.0355583E3,1.0635834E3,4.935492E2,5.0357413E2,2.0584937E3,1.4893501E3,1.5066416E3,5.329443E2,3.2178058E2,3.6908038E2,2.9676014E4,1.4713548E4,7.7596924E2,3.734741E2,3.7544329E3,1.292208E4,4.1208965E3,2.667656E4,8.729475E3,8.273129E3,1.005684E3,2.7112095E3,1.00271375E3,1.090765E3,3.1605693E3,2.4227686E3,8.131505E2,7.241794E2,5.2140314E2,5.421802E2,1.0176223E3,1.0408713E3,9.1349493E2,5.7585516E2,1.9744447E4,9.931566E3,4.4399946E3,1.0273554E4,3.8895392E2,3.8701532E2],"tree_param":{"num_deleted":"0","num_feature":"8","num_nodes":"75","size_leaf_vector":"1"}},{"base_weights":[5.0008917E-11,-1.4985968E-1,2.5171316E-1,-1.3372223E-1,-1.661607E-1,2.0924E-1,8.041628E-1,-1.4882302E-1,-1.2932895E-1,-1.5739617E-1,-1.934923E-1,2.2796234E-1,-2.8520033E-2,8.178349E-2,7.768176E-2,-1.3066557E-1,-1.7867021E-1,-1.4504778E-1,-1.2501994E-1,-1.7068237E-1,-1.3493279E-1,-2.1637009E-1,-1.5456487E-1,-1.5160128E-1,2.3847863E-1,-1.5232287E-1,-1.2041701E-1,-1.2913626E-1,-2.1096489E-1,-1.7089705E-1,-1.3265172E-1,-1.1218495E-1,-1.3140057E-1,-1.8169715E-1,-1.4756972E-1,-1.8026738E-1,-1.1081691E-1,-2.4394469E-1,-2.0076627E-1,-9.677018E-2,-1.797778E-1,-2.1163009E-3,-2.0454774E-2,2.4597697E-1,2.235001E-1,-1.29839275E-2,-1.754549E-2,-1.3616539E-2,-1.0437846E-2,-1.0691545E-2,-1.4126276E-2,-1.8894851E-2,-2.2133619E-2,-1.4593911E-2,-2.0972418E-2,-1.1067905E-2,-1.5352191E-2,-5.1003466E-3,-1.15883695E-2,-1.4131561E-2,-1.2073399E-2,-1.6362622E-2,-1.9956594E-2,-1.773972E-2,-1.3773479E-2,-1.2383969E-2,-1.9839047E-2,-1.4394321E-2,-9.584232E-3,-1.7043065E-2,-2.7134357E-2,-2.1408422E-2,-1.9371806E-2,-1.5964672E-2,-2.8876031E-3,-2.175342E-2,-1.30277965E-2,2.4251875E-2,2.5278214E-2,1.8247742E-2,2.366404E-2],"categories":[],"categories_nodes":[],"categories_segments":[],"categories_sizes":[],"default_left":[0,0,0,0,0,0,0,0,0,0,0,0,0,0,0,0,0,0,0,0,0,0,0,0,0,0,0,0,0,0,0,0,0,0,0,0,0,0,0,0,0,0,0,0,0,0,0,0,0,0,0,0,0,0,0,0,0,0,0,0,0,0,0,0,0,0,0,0,0,0,0,0,0,0,0,0,0,0,0,0,0],"id":4,"left_children":[1,3,5,7,9,11,13,15,17,19,21,23,-1,-1,-1,25,27,29,31,33,35,37,39,41,43,45,47,49,51,53,55,57,59,61,63,65,67,69,71,73,75,-1,-1,77,79,-1,-1,-1,-1,-1,-1,-1,-1,-1,-1,-1,-1,-1,-1,-1,-1,-1,-1,-1,-1,-1,-1,-1,-1,-1,-1,-1,-1,-1,-1,-1,-1,-1,-1,-1,-1],"loss_changes":[5.0910205E3,2.223169E1,1.1816257E3,2.8015137E0,1.0049927E1,4.3303064E2,7.0874023E-1,5.1659546E0,2.2131348E0,9.488281E0,9.062347E0,1.7991919E2,0E0,0E0,0E0,1.3038864E0,5.762085E0,2.2464294E0,2.103241E0,5.0701294E0,1.2934006E1,2.717743E0,5.496689E0,8.390512E0,4.870117E0,9.70459E-1,1.0083427E0,3.7046242E-1,4.5804596E-1,2.190216E0,2.1798706E0,1.9389801E0,1.8092957E0,4.3442993E0,1.8727264E0,4.1812744E0,3.8241348E0,4.6249847E0,3.445282E-1,4.9113216E0,4.89357E0,0E0,0E0,6.263428E-1,7.8483276E0,0E0,0E0,0E0,0E0,0E0,0E0,0E0,0E0,0E0,0E0,0E0,0E0,0E0,0E0,0E0,0E0,0E0,0E0,0E0,0E0,0E0,0E0,0E0,0E0,0E0,0E0,0E0,0E0,0E0,0E0,0E0,0E0,0E0,0E0,0E0,0E0],"parents":[2147483647,0,0,1,1,2,2,3,3,4,4,5,5,6,6,7,7,8,8,9,9,10,10,11,11,15,15,16,16,17,17,18,18,19,19,20,20,21,21,22,22,23,23,24,24,25,25,26,26,27,27,28,28,29,29,30,30,31,31,32,32,33,33,34,34,35,35,36,36,37,37,38,38,39,39,40,40,43,43,44,44],"right_children":[2,4,6,8,10,12,14,16,18,20,22,24,-1,-1,-1,26,28,30,32,34,36,38,40,42,44,46,48,50,52,54,56,58,60,62,64,66,68,70,72,74,76,-1,-1,78,80,-1,-1,-1,-1,-1,-1,-1,-1,-1,-1,-1,-1,-1,-1,-1,-1,-1,-1,-1,-1,-1,-1,-1,-1,-1,-1,-1,-1,-1,-1,-1,-1,-1,-1,-1,-1],"split_conditions":[2.0039487E0,-4.6238127E-1,1E0,2E0,-4.2606086E-1,2.2512734E0,1.2331285E0,1.2331285E0,-4.9005398E-1,-4.4162676E-1,2E0,2.1077213E0,-2.8520033E-2,8.178349E-2,7.768176E-2,-4.9005398E-1,-4.7448808E-1,6.501125E-3,6.501125E-3,1.2331285E0,6.501125E-3,6.501125E-3,6.501125E-3,6.501125E-3,1.2331285E0,6.501125E-3,6.501125E-3,-4.9524263E-1,-4.7102898E-1,-5.0389034E-1,1.2331285E0,-4.8832443E-1,1.2331285E0,2E0,-4.5200402E-1,2E0,-4.398972E-1,-4.2260176E-1,-4.2260176E-1,-4.1914266E-1,1.2331285E0,-2.1163009E-3,-2.0454774E-2,2E0,2.142312E0,-1.29839275E-2,-1.754549E-2,-1.3616539E-2,-1.0437846E-2,-1.0691545E-2,-1.4126276E-2,-1.8894851E-2,-2.2133619E-2,-1.4593911E-2,-2.0972418E-2,-1.1067905E-2,-1.5352191E-2,-5.1003466E-3,-1.15883695E-2,-1.4131561E-2,-1.2073399E-2,-1.6362622E-2,-1.9956594E-2,-1.773972E-2,-1.3773479E-2,-1.2383969E-2,-1.9839047E-2,-1.4394321E-2,-9.584232E-3,-1.7043065E-2,-2.7134357E-2,-2.1408422E-2,-1.9371806E-2,-1.5964672E-2,-2.8876031E-3,-2.175342E-2,-1.30277965E-2,2.4251875E-2,2.5278214E-2,1.8247742E-2,2.366404E-2],"split_indices":[3,3,2,6,3,3,0,0,3,3,6,3,0,0,0,3,3,0,0,0,0,0,0,0,0,0,0,3,3,3,0,3,0,6,3,6,3,3,3,3,0,0,0,6,3,0,0,0,0,0,0,0,0,0,0,0,0,0,0,0,0,0,0,0,0,0,0,0,0,0,0,0,0,0,0,0,0,0,0,0,0],"split_type":[0,0,0,0,0,0,0,0,0,0,0,0,0,0,0,0,0,0,0,0,0,0,0,0,0,0,0,0,0,0,0,0,0,0,0,0,0,0,0,0,0,0,0,0,0,0,0,0,0,0,0,0,0,0,0,0,0,0,0,0,0,0,0,0,0,0,0,0,0,0,0,0,0,0,0,0,0,0,0,0,0],"sum_hessian":[1.3496083E5,8.459616E4,5.0364676E4,4.251601E4,4.208014E4,4.6770285E4,3.5943896E3,9.574225E3,3.2941785E4,3.186773E4,1.0212412E4,4.5064426E4,1.7058588E3,2.3770222E3,1.2173676E3,5.956177E3,3.6180476E3,7.080422E3,2.5861365E4,2.0020055E4,1.1847676E4,6.429319E3,3.7830935E3,1.2145441E3,4.3849883E4,1.9087444E3,4.0474326E3,1.4298801E3,2.1881675E3,2.29076E3,4.7896616E3,8.593542E3,1.7267822E4,1.3553848E4,6.466207E3,4.11172E3,7.735955E3,2.3181418E3,4.1111772E3,1.1505554E3,2.632538E3,3.5106467E2,8.6347943E2,2.9211168E4,1.4638715E4,9.71292E2,9.374524E2,2.0384114E3,2.0090212E3,5.0829208E2,9.215881E2,7.0685675E2,1.4813108E3,1.3973239E3,8.934362E2,2.336275E3,2.453387E3,4.9075015E2,8.102792E3,8.942834E3,8.324989E3,6.7438584E3,6.809989E3,1.5991735E3,4.8670337E3,1.0014525E3,3.1102678E3,2.4056492E3,5.330306E3,6.313595E2,1.6867823E3,1.4126064E3,2.6985708E3,5.9664923E2,5.539062E2,1.4914945E3,1.1410436E3,1.9392809E4,9.818358E3,3.555056E3,1.1083659E4],"tree_param":{"num_deleted":"0","num_feature":"8","num_nodes":"81","size_leaf_vector":"1"}},{"base_weights":[-5.103794E-11,-1.4047955E-1,2.4445555E-1,-1.4509368E-1,-9.8155804E-2,2.0581794E-1,7.7703965E-1,-1.4092895E-1,-1.7441502E-1,-6.26761E-2,-1.4103693E-1,-1.9800115E-1,2.1855918E-1,7.89921E-2,7.513477E-2,-1.5220024E-1,-1.2170764E-1,-1.0962043E-1,-1.9881569E-1,-5.9573334E-2,-6.911313E-2,-1.965319E-2,-1.05585925E-1,-2.7422978E-2,-1.371249E-1,2.240439E-1,-2.7600758E-2,-1.6527021E-1,-1.23171546E-1,-1.10311165E-1,-1.428837E-1,-1.1265475E-1,-9.7850785E-3,-2.5984985E-1,-1.7822173E-1,-8.890898E-2,-4.465453E-2,-1.8980562E-3,-9.440668E-2,-5.6946672E-2,-1.4930153E-1,-5.781051E-3,-1.9135302E-2,2.2942103E-1,2.1322979E-1,-5.7101413E-3,-1.0437075E-2,-1.2896204E-2,-1.7590366E-2,-1.3933967E-2,-1.004556E-2,-1.35891205E-2,-8.70624E-3,-1.197889E-2,-1.671072E-2,-1.1813068E-2,-1.1078325E-2,-2.916488E-2,-2.198827E-2,-1.5750276E-2,-2.0055927E-2,-8.344091E-3,-9.534372E-3,-5.026867E-3,-3.932303E-3,-7.478581E-3,-1.1386542E-2,-5.997013E-3,-5.4208827E-3,-1.8056143E-2,-1.02502005E-2,2.2478765E-2,2.4406767E-2,2.4309315E-2,2.0602291E-2,-2.3131438E-4,-1.9777666E-3],"categories":[],"categories_nodes":[],"categories_segments":[],"categories_sizes":[],"default_left":[0,0,0,0,0,0,0,0,0,0,0,0,0,0,0,0,0,0,0,0,0,0,0,0,0,0,0,0,0,0,0,0,0,0,0,0,0,0,0,0,0,0,0,0,0,0,0,0,0,0,0,0,0,0,0,0,0,0,0,0,0,0,0,0,0,0,0,0,0,0,0,0,0,0,0,0,0],"id":5,"left_children":[1,3,5,7,9,11,13,15,17,19,21,23,25,-1,-1,27,29,31,33,35,37,-1,39,-1,41,43,45,47,49,51,53,55,-1,57,59,61,63,-1,65,67,69,-1,-1,71,73,-1,75,-1,-1,-1,-1,-1,-1,-1,-1,-1,-1,-1,-1,-1,-1,-1,-1,-1,-1,-1,-1,-1,-1,-1,-1,-1,-1,-1,-1,-1,-1],"loss_changes":[4.5869023E3,1.6550903E1,1.0029082E3,9.315063E0,1.2682053E1,2.3388782E2,4.9768066E-1,1.4491943E1,1.5010925E1,8.7085724E-2,7.40802E0,6.4158516E0,5.949243E1,0E0,0E0,1.5996277E1,5.960144E0,8.194733E-2,8.633881E0,1.3477306E0,1.8736105E0,0E0,4.8953285E0,0E0,3.3231258E0,2.4570312E0,4.8609704E-1,1.12146E1,4.8009644E0,9.564529E0,4.824936E0,8.056641E-3,0E0,2.1473846E0,2.3596344E0,2.8643608E-2,5.9363842E-2,0E0,3.6670303E-1,5.7992935E-3,1.7575111E0,0E0,0E0,1.8977051E0,3.0335693E0,0E0,4.615763E-2,0E0,0E0,0E0,0E0,0E0,0E0,0E0,0E0,0E0,0E0,0E0,0E0,0E0,0E0,0E0,0E0,0E0,0E0,0E0,0E0,0E0,0E0,0E0,0E0,0E0,0E0,0E0,0E0,0E0,0E0],"parents":[2147483647,0,0,1,1,2,2,3,3,4,4,5,5,6,6,7,7,8,8,9,9,10,10,11,11,12,12,15,15,16,16,17,17,18,18,19,19,20,20,22,22,24,24,25,25,26,26,27,27,28,28,29,29,30,30,31,31,33,33,34,34,35,35,36,36,38,38,39,39,40,40,43,43,44,44,46,46],"right_children":[2,4,6,8,10,12,14,16,18,20,22,24,26,-1,-1,28,30,32,34,36,38,-1,40,-1,42,44,46,48,50,52,54,56,-1,58,60,62,64,-1,66,68,70,-1,-1,72,74,-1,76,-1,-1,-1,-1,-1,-1,-1,-1,-1,-1,-1,-1,-1,-1,-1,-1,-1,-1,-1,-1,-1,-1,-1,-1,-1,-1,-1,-1,-1,-1],"split_conditions":[2.0039487E0,-4.2606086E-1,1E0,-4.398972E-1,2E0,2.1077213E0,1.2331285E0,-4.6411082E-1,6.501125E-3,1.2331285E0,6.501125E-3,6.501125E-3,2.2512734E0,7.89921E-2,7.513477E-2,1.2331285E0,1.2331285E0,3E0,1E0,-4.2260176E-1,-4.2260176E-1,-1.965319E-2,1.2331285E0,-2.7422978E-2,1.2331285E0,1.2331285E0,6.501125E-3,-4.9005398E-1,-4.7794718E-1,2E0,-4.4854492E-1,-4.364381E-1,-9.7850785E-3,1.2331285E0,1.2331285E0,6.501125E-3,-4.208722E-1,-1.8980562E-3,-4.208722E-1,-4.1914266E-1,-4.1914266E-1,-5.781051E-3,-1.9135302E-2,2.1803622E0,2.142312E0,-5.7101413E-3,1.2331285E0,-1.2896204E-2,-1.7590366E-2,-1.3933967E-2,-1.004556E-2,-1.35891205E-2,-8.70624E-3,-1.197889E-2,-1.671072E-2,-1.1813068E-2,-1.1078325E-2,-2.916488E-2,-2.198827E-2,-1.5750276E-2,-2.0055927E-2,-8.344091E-3,-9.534372E-3,-5.026867E-3,-3.932303E-3,-7.478581E-3,-1.1386542E-2,-5.997013E-3,-5.4208827E-3,-1.8056143E-2,-1.02502005E-2,2.2478765E-2,2.4406767E-2,2.4309315E-2,2.0602291E-2,-2.3131438E-4,-1.9777666E-3],"split_indices":[3,3,2,3,6,3,0,3,0,0,0,0,3,0,0,0,0,6,6,3,3,0,0,0,0,0,0,3,3,6,3,3,0,0,0,0,3,0,3,3,3,0,0,3,3,0,0,0,0,0,0,0,0,0,0,0,0,0,0,0,0,0,0,0,0,0,0,0,0,0,0,0,0,0,0,0,0],"split_type":[0,0,0,0,0,0,0,0,0,0,0,0,0,0,0,0,0,0,0,0,0,0,0,0,0,0,0,0,0,0,0,0,0,0,0,0,0,0,0,0,0,0,0,0,0,0,0,0,0,0,0,0,0,0,0,0,0,0,0,0,0,0,0,0,0,0,0,0,0,0,0,0,0,0,0,0,0],"sum_hessian":[1.3356725E5,8.482302E4,4.8744227E4,7.6482484E4,8.340533E3,4.544844E4,3.295782E3,6.697531E4,9.507178E3,4.565508E3,3.7750251E3,1.3896768E3,4.4058766E4,2.175362E3,1.1204197E3,4.2214203E4,2.4761107E4,2.6023306E3,6.904847E3,3.0875198E3,1.4779883E3,1.4697449E3,2.3052803E3,6.154775E2,7.741992E2,4.3098566E4,9.601983E2,2.9105125E4,1.3109077E4,1.6101729E4,8.659379E3,2.0621238E3,5.4020685E2,1.739093E3,5.1657544E3,1.0391747E3,2.048345E3,4.9621866E2,9.817696E2,1.0922802E3,1.2130001E3,3.152211E2,4.5897815E2,2.8772004E4,1.4326563E4,3.523162E2,6.078821E2,6.59601E3,2.2509115E4,7.6552812E3,5.4537964E3,7.664179E3,8.43755E3,4.43601E3,4.223369E3,5.0943207E2,1.5526918E3,9.650086E2,7.740845E2,2.6841492E3,2.481605E3,5.6933527E2,4.6983945E2,9.936208E2,1.0547241E3,4.9125986E2,4.9050977E2,5.091321E2,5.8314795E2,7.2552496E2,4.8747513E2,2.186993E4,6.902075E3,2.7788838E3,1.154768E4,3.257823E2,2.8209982E2],"tree_param":{"num_deleted":"0","num_feature":"8","num_nodes":"77","size_leaf_vector":"1"}},{"base_weights":[1.848331E-10,-1.3332231E-1,2.2773431E-1,-1.2724742E-1,-1.7771125E-1,1.9223826E-1,7.5299174E-1,-1.0394108E-1,-1.3706951E-1,-2.0177671E-1,-1.3618618E-1,2.0213568E-1,-1.5248083E-1,7.651433E-2,7.285102E-2,-1.4963044E-1,-1.0031891E-1,-1.0675303E-1,-1.5645456E-1,-2.0999241E-1,-1.8350075E-1,-7.7109285E-2,-1.806551E-1,-8.459972E-2,2.0936018E-1,-1.8199883E-1,-6.642051E-3,-1.35412915E-2,-1.5720405E-2,-1.0670421E-1,-8.020568E-2,-1.1388416E-1,-9.753628E-2,-1.70688E-1,-7.549908E-2,-1.8007651E-1,-2.5692636E-2,-2.170863E-1,-7.749104E-3,-1.0337729E-1,-2.2532623E-3,-1.1234376E-2,-2.1480909E-1,-1.2779975E-1,2.3787634E-3,2.1713927E-1,1.9406241E-1,-8.3758E-3,-2.5197139E-2,-9.17653E-3,-1.2031096E-2,-1.2114353E-2,-6.0092895E-3,-1.254133E-2,-9.0489555E-3,-8.717321E-3,-1.1795002E-2,-1.8832602E-2,-1.5025312E-2,-1.0443904E-2,-6.071613E-3,-2.1428537E-2,-1.4405695E-2,-2.0264309E-2,-2.3141809E-2,-6.779533E-3,-1.3173637E-2,-2.3616513E-2,-1.8499449E-2,2.1867089E-4,-2.297545E-2,2.2453563E-2,2.0892743E-2,1.493187E-2,1.9996924E-2],"categories":[],"categories_nodes":[],"categories_segments":[],"categories_sizes":[],"default_left":[0,0,0,0,0,0,0,0,0,0,0,0,0,0,0,0,0,0,0,0,0,0,0,0,0,0,0,0,0,0,0,0,0,0,0,0,0,0,0,0,0,0,0,0,0,0,0,0,0,0,0,0,0,0,0,0,0,0,0,0,0,0,0,0,0,0,0,0,0,0,0,0,0,0,0],"id":6,"left_children":[1,3,5,7,9,11,13,15,17,19,21,23,25,-1,-1,27,29,31,33,35,37,39,41,43,45,47,-1,-1,-1,49,51,53,55,57,59,61,-1,63,-1,65,-1,-1,67,69,-1,71,73,-1,-1,-1,-1,-1,-1,-1,-1,-1,-1,-1,-1,-1,-1,-1,-1,-1,-1,-1,-1,-1,-1,-1,-1,-1,-1,-1,-1],"loss_changes":[3.9788901E3,2.2266602E1,9.0207104E2,1.6630493E1,9.913666E0,1.5468396E2,3.5375977E-1,3.5533447E0,3.004358E1,9.067993E-1,9.582848E0,9.129675E1,3.2031994E0,0E0,0E0,1.4903641E-1,2.5575867E0,1.3003387E0,3.593567E1,6.0424347E0,6.9631042E0,2.2492743E0,4.836754E0,5.07704E0,5.072876E0,6.4534664E0,0E0,0E0,0E0,3.0711975E0,3.9604053E0,3.0212097E0,1.8324738E0,9.534668E0,1.9901829E0,3.2365494E0,0E0,2.611618E-1,0E0,1.060667E0,0E0,0E0,8.4000397E-1,1.0271133E1,0E0,1.6831055E0,3.80188E0,0E0,0E0,0E0,0E0,0E0,0E0,0E0,0E0,0E0,0E0,0E0,0E0,0E0,0E0,0E0,0E0,0E0,0E0,0E0,0E0,0E0,0E0,0E0,0E0,0E0,0E0,0E0,0E0],"parents":[2147483647,0,0,1,1,2,2,3,3,4,4,5,5,6,6,7,7,8,8,9,9,10,10,11,11,12,12,15,15,16,16,17,17,18,18,19,19,20,20,21,21,22,22,23,23,24,24,25,25,29,29,30,30,31,31,32,32,33,33,34,34,35,35,37,37,39,39,42,42,43,43,45,45,46,46],"right_children":[2,4,6,8,10,12,14,16,18,20,22,24,26,-1,-1,28,30,32,34,36,38,40,42,44,46,48,-1,-1,-1,50,52,54,56,58,60,62,-1,64,-1,66,-1,-1,68,70,-1,72,74,-1,-1,-1,-1,-1,-1,-1,-1,-1,-1,-1,-1,-1,-1,-1,-1,-1,-1,-1,-1,-1,-1,-1,-1,-1,-1,-1,-1],"split_conditions":[2.0039487E0,-4.2606086E-1,1E0,2E0,2E0,2.2512734E0,1.2331285E0,-4.9524263E-1,-4.7621763E-1,1.2331285E0,-4.1914266E-1,2.1077213E0,1.2331285E0,7.651433E-2,7.285102E-2,6.501125E-3,-4.4854492E-1,-4.831358E-1,-4.364381E-1,-4.208722E-1,-4.208722E-1,1.2331285E0,6.501125E-3,1.2331285E0,1.2331285E0,6.501125E-3,-6.642051E-3,-1.35412915E-2,-1.5720405E-2,-4.6411082E-1,6.501125E-3,1.2331285E0,1.2331285E0,-4.6238127E-1,6.501125E-3,-4.2260176E-1,-2.5692636E-2,-4.2260176E-1,-7.749104E-3,6.501125E-3,-2.2532623E-3,-1.1234376E-2,1.2331285E0,6.501125E-3,2.3787634E-3,2.1596076E0,2.1405826E0,-8.3758E-3,-2.5197139E-2,-9.17653E-3,-1.2031096E-2,-1.2114353E-2,-6.0092895E-3,-1.254133E-2,-9.0489555E-3,-8.717321E-3,-1.1795002E-2,-1.8832602E-2,-1.5025312E-2,-1.0443904E-2,-6.071613E-3,-2.1428537E-2,-1.4405695E-2,-2.0264309E-2,-2.3141809E-2,-6.779533E-3,-1.3173637E-2,-2.3616513E-2,-1.8499449E-2,2.1867089E-4,-2.297545E-2,2.2453563E-2,2.0892743E-2,1.493187E-2,1.9996924E-2],"split_indices":[3,3,2,6,6,3,0,3,3,0,3,3,0,0,0,0,3,3,3,3,3,0,0,0,0,0,0,0,0,3,0,0,0,3,0,3,0,3,0,0,0,0,0,0,0,3,3,0,0,0,0,0,0,0,0,0,0,0,0,0,0,0,0,0,0,0,0,0,0,0,0,0,0,0,0],"split_type":[0,0,0,0,0,0,0,0,0,0,0,0,0,0,0,0,0,0,0,0,0,0,0,0,0,0,0,0,0,0,0,0,0,0,0,0,0,0,0,0,0,0,0,0,0,0,0,0,0,0,0,0,0,0,0,0,0,0,0,0,0,0,0,0,0,0,0,0,0,0,0,0,0,0,0],"sum_hessian":[1.3104608E5,8.265679E4,4.838929E4,7.270988E4,9.946914E3,4.5327496E4,3.0617922E3,2.156081E4,5.114907E4,6.294903E3,3.6520112E3,4.4062797E4,1.2646968E3,2.0259465E3,1.0358458E3,1.5807877E3,1.9980023E4,1.995218E4,3.1196889E4,4.3354663E3,1.9594363E3,1.5695718E3,2.0824395E3,1.0826472E3,4.2980152E4,9.408707E2,3.2382608E2,5.5597095E2,1.0248168E3,1.5162206E4,4.8178164E3,1.1242411E4,8.709769E3,2.6531127E4,4.6657603E3,2.6507222E3,1.6847443E3,1.4872153E3,4.7222095E2,1.0589838E3,5.1058798E2,6.955532E2,1.3868862E3,7.739817E2,3.0866556E2,2.8483027E4,1.4497124E4,3.9229254E2,5.485782E2,7.231E3,7.931206E3,1.5855479E3,3.2322688E3,7.528108E3,3.7143037E3,5.7805366E3,2.9292322E3,1.4235652E4,1.2295476E4,1.5754679E3,3.0902925E3,1.3569949E3,1.2937273E3,7.4826825E2,7.389471E2,4.7118353E2,5.878003E2,8.040373E2,5.828489E2,3.4065048E2,4.3333118E2,1.4971741E4,1.3511286E4,1.6937085E3,1.2803416E4],"tree_param":{"num_deleted":"0","num_feature":"8","num_nodes":"75","size_leaf_vector":"1"}},{"base_weights":[3.1296982E-10,-1.2321069E-1,2.0778242E-1,-1.3528009E-1,-1.1649447E-1,1.7483512E-1,7.311517E-1,-1.4507052E-1,-1.0557004E-1,-9.7671635E-2,-1.3484234E-1,1.8768048E-1,-2.1946096E-1,7.430466E-2,7.0734575E-2,-1.2583594E-1,-1.6646124E-1,-1.376471E-1,-8.194272E-2,-1.1508582E-1,-8.435336E-2,-1.4692229E-1,-1.0945973E-1,-1.5337528E-1,1.9739468E-1,-3.1316485E-2,-1.4022912E-1,-9.610619E-2,-1.393309E-1,-1.9484523E-1,-1.482804E-1,-1.3284029E-1,-1.4581674E-1,-9.846984E-2,-7.384264E-2,-1.0789694E-1,-1.2376382E-1,-7.7845424E-2,-9.77774E-2,-1.2680471E-1,-1.8712293E-1,-4.3386724E-2,-1.22939974E-1,-1.2163367E-1,-2.075182E-2,2.0292653E-1,1.864017E-1,-5.9518573E-4,-2.3572413E-2,-1.0821534E-2,-2.0663063E-3,-1.08559E-2,-1.4837933E-2,-2.4161866E-2,-6.3126893E-3,-1.100144E-2,-2.1126738E-2,-1.4568493E-2,-1.1719322E-2,-1.3005802E-2,-1.5760807E-2,-1.2368302E-2,-5.8739926E-3,-6.6721784E-3,-8.891857E-3,-1.1587003E-2,-8.200145E-3,-1.1130842E-2,-1.4259872E-2,-5.8327555E-3,-8.746727E-3,-1.3999659E-2,-7.4346485E-3,-1.3703878E-2,-9.799483E-3,-2.0460939E-2,-1.44936815E-2,-6.2142047E-3,-7.731211E-4,-1.4412748E-2,-1.0032216E-2,-1.601055E-2,-5.985863E-3,2.0656873E-2,1.9930445E-2,2.1171838E-2,1.8011693E-2],"categories":[],"categories_nodes":[],"categories_segments":[],"categories_sizes":[],"default_left":[0,0,0,0,0,0,0,0,0,0,0,0,0,0,0,0,0,0,0,0,0,0,0,0,0,0,0,0,0,0,0,0,0,0,0,0,0,0,0,0,0,0,0,0,0,0,0,0,0,0,0,0,0,0,0,0,0,0,0,0,0,0,0,0,0,0,0,0,0,0,0,0,0,0,0,0,0,0,0,0,0,0,0,0,0,0,0],"id":7,"left_children":[1,3,5,7,9,11,13,15,17,19,21,23,25,-1,-1,27,29,31,33,35,37,39,41,43,45,-1,47,49,51,53,55,57,59,61,63,65,67,69,71,73,75,77,79,81,-1,83,85,-1,-1,-1,-1,-1,-1,-1,-1,-1,-1,-1,-1,-1,-1,-1,-1,-1,-1,-1,-1,-1,-1,-1,-1,-1,-1,-1,-1,-1,-1,-1,-1,-1,-1,-1,-1,-1,-1,-1,-1],"loss_changes":[3.319142E3,6.581543E0,8.3206885E2,8.446716E0,1.8048096E1,2.300083E2,2.8393555E-1,8.980682E0,5.456299E0,5.978195E0,8.103241E0,1.4571411E2,1.0594933E1,0E0,0E0,4.6099854E0,5.3150024E0,1.0073471E-1,5.491924E-1,6.8447876E-1,1.2707977E0,1.4483917E1,7.603325E0,2.0685596E0,2.562378E0,0E0,9.97802E0,3.2874832E0,2.1901703E0,2.4875E1,1.520105E1,3.7218094E-1,1.8811798E-1,1.3592558E0,2.9396343E-1,1.2552414E0,1.1714706E0,1.8466454E0,4.7121506E0,3.512497E0,4.382309E0,9.685569E-1,3.3853073E0,1.8215132E0,0E0,3.3398438E-1,2.2410278E0,0E0,0E0,0E0,0E0,0E0,0E0,0E0,0E0,0E0,0E0,0E0,0E0,0E0,0E0,0E0,0E0,0E0,0E0,0E0,0E0,0E0,0E0,0E0,0E0,0E0,0E0,0E0,0E0,0E0,0E0,0E0,0E0,0E0,0E0,0E0,0E0,0E0,0E0,0E0,0E0],"parents":[2147483647,0,0,1,1,2,2,3,3,4,4,5,5,6,6,7,7,8,8,9,9,10,10,11,11,12,12,15,15,16,16,17,17,18,18,19,19,20,20,21,21,22,22,23,23,24,24,26,26,27,27,28,28,29,29,30,30,31,31,32,32,33,33,34,34,35,35,36,36,37,37,38,38,39,39,40,40,41,41,42,42,43,43,45,45,46,46],"right_children":[2,4,6,8,10,12,14,16,18,20,22,24,26,-1,-1,28,30,32,34,36,38,40,42,44,46,-1,48,50,52,54,56,58,60,62,64,66,68,70,72,74,76,78,80,82,-1,84,86,-1,-1,-1,-1,-1,-1,-1,-1,-1,-1,-1,-1,-1,-1,-1,-1,-1,-1,-1,-1,-1,-1,-1,-1,-1,-1,-1,-1,-1,-1,-1,-1,-1,-1,-1,-1,-1,-1,-1,-1],"split_conditions":[2.0039487E0,-4.7102898E-1,1E0,3E0,-4.4681537E-1,2.2512734E0,1.2331285E0,-4.831358E-1,-4.831358E-1,2E0,-4.2606086E-1,2.1077213E0,6.501125E-3,7.430466E-2,7.0734575E-2,6.501125E-3,6.501125E-3,1.2331285E0,-4.8140627E-1,-4.5200402E-1,-4.6238127E-1,-4.364381E-1,-4.2260176E-1,1.2331285E0,1.2331285E0,-3.1316485E-2,1.2331285E0,-4.9005398E-1,1E0,-4.7621763E-1,-4.7621763E-1,-4.8832443E-1,-4.8832443E-1,1.2331285E0,1.2331285E0,-4.6065173E-1,1.2331285E0,6.501125E-3,6.501125E-3,-4.398972E-1,-4.277904E-1,1.2331285E0,-4.1914266E-1,6.501125E-3,-2.075182E-2,6.501125E-3,2.142312E0,-5.9518573E-4,-2.3572413E-2,-1.0821534E-2,-2.0663063E-3,-1.08559E-2,-1.4837933E-2,-2.4161866E-2,-6.3126893E-3,-1.100144E-2,-2.1126738E-2,-1.4568493E-2,-1.1719322E-2,-1.3005802E-2,-1.5760807E-2,-1.2368302E-2,-5.8739926E-3,-6.6721784E-3,-8.891857E-3,-1.1587003E-2,-8.200145E-3,-1.1130842E-2,-1.4259872E-2,-5.8327555E-3,-8.746727E-3,-1.3999659E-2,-7.4346485E-3,-1.3703878E-2,-9.799483E-3,-2.0460939E-2,-1.44936815E-2,-6.2142047E-3,-7.731211E-4,-1.4412748E-2,-1.0032216E-2,-1.601055E-2,-5.985863E-3,2.0656873E-2,1.9930445E-2,2.1171838E-2,1.8011693E-2],"split_indices":[3,3,2,6,3,3,0,3,3,6,3,3,0,0,0,0,0,0,3,3,3,3,3,0,0,0,0,3,6,3,3,3,3,0,0,3,0,0,0,3,3,0,3,0,0,0,3,0,0,0,0,0,0,0,0,0,0,0,0,0,0,0,0,0,0,0,0,0,0,0,0,0,0,0,0,0,0,0,0,0,0,0,0,0,0,0,0],"split_type":[0,0,0,0,0,0,0,0,0,0,0,0,0,0,0,0,0,0,0,0,0,0,0,0,0,0,0,0,0,0,0,0,0,0,0,0,0,0,0,0,0,0,0,0,0,0,0,0,0,0,0,0,0,0,0,0,0,0,0,0,0,0,0,0,0,0,0,0,0,0,0,0,0,0,0,0,0,0,0,0,0,0,0,0,0,0,0],"sum_hessian":[1.2964685E5,8.138665E4,4.82602E4,2.9090482E4,5.2296168E4,4.5403293E4,2.856907E3,2.1877305E4,7.2131763E3,2.5817092E4,2.6479074E4,4.397132E4,1.4319722E3,1.8848904E3,9.720165E2,1.1522833E4,1.0354473E4,3.0574617E3,4.155715E3,1.1184838E4,1.4632255E4,1.793755E4,8.541524E3,1.2173297E3,4.2753992E4,6.547165E2,7.7725574E2,3.6000186E3,7.922814E3,4.0390227E3,6.31545E3,1.9357644E3,1.1216973E3,1.3631776E3,2.7925374E3,6.1246235E3,5.0602144E3,9.859297E3,4.772958E3,1.1957716E4,5.9798345E3,1.4480701E3,7.093454E3,7.694699E2,4.4785983E2,2.8430078E4,1.4323913E4,3.2347455E2,4.5378116E2,3.101734E3,4.982846E2,1.8032645E3,6.11955E3,2.9799888E3,1.059034E3,3.930394E3,2.385056E3,1.0585189E3,8.772454E2,4.852312E2,6.36466E2,8.326518E2,5.305258E2,1.90036E3,8.921773E2,4.680154E3,1.4444696E3,3.0501067E3,2.0101075E3,3.2578423E3,6.6014546E3,1.7017213E3,3.0712368E3,8.820629E3,3.137087E3,4.2247803E3,1.7550542E3,9.484361E2,4.9963403E2,3.6597593E3,3.4336948E3,4.7318887E2,2.96281E2,1.4147804E4,1.4282274E4,2.8421802E3,1.1481733E4],"tree_param":{"num_deleted":"0","num_feature":"8","num_nodes":"87","size_leaf_vector":"1"}},{"base_weights":[-8.232623E-11,-1.18232265E-1,2.0222174E-1,-1.2311764E-1,-9.295371E-2,1.7189226E-1,7.1162224E-1,-1.3770959E-1,-1.1531752E-1,-2.3222419E-2,-1.12496704E-1,1.797741E-1,-1.2465511E-1,7.236315E-2,6.875683E-2,-1.2718599E-1,-1.4682381E-1,-1.1960019E-1,-8.8688605E-2,-1.1905662E-2,-4.7416355E-2,-9.7087525E-2,-1.4242624E-1,-1.0562751E-1,1.8761241E-1,-5.212598E-4,-1.6879956E-1,-1.4091367E-1,-9.8851874E-2,-1.8259071E-1,-1.4073211E-1,-1.0951952E-1,-1.5343454E-1,-7.219087E-2,-1.3548625E-1,-2.1462984E-2,-3.4658378E-3,-1.4986702E-3,-8.318987E-3,-4.602271E-2,-1.19828366E-1,-1.013383E-1,-1.7717709E-1,-5.6319755E-2,-1.8369285E-2,1.5862478E-1,1.9118905E-1,-2.4803752E-2,-2.1889508E-3,-1.5522348E-2,-1.2140943E-2,-1.27931805E-2,-8.625065E-3,-1.4942192E-2,-2.4147725E-2,-1.2910728E-2,-1.5139346E-2,-1.2164894E-2,-8.041589E-3,-1.884622E-2,-6.0878447E-3,-5.556362E-3,-8.085991E-3,-1.8550826E-2,-9.932855E-3,-5.8503076E-3,9.636506E-4,9.5426844E-4,-1.7233518E-3,-7.919712E-3,-9.737657E-4,-1.4375779E-2,-9.36675E-3,-1.2842484E-2,-2.6757487E-3,-2.1465464E-2,-6.1865957E-3,-2.278759E-3,-9.340195E-3,2.2903686E-2,1.2827739E-2,1.8636731E-2,1.992664E-2],"categories":[],"categories_nodes":[],"categories_segments":[],"categories_sizes":[],"default_left":[0,0,0,0,0,0,0,0,0,0,0,0,0,0,0,0,0,0,0,0,0,0,0,0,0,0,0,0,0,0,0,0,0,0,0,0,0,0,0,0,0,0,0,0,0,0,0,0,0,0,0,0,0,0,0,0,0,0,0,0,0,0,0,0,0,0,0,0,0,0,0,0,0,0,0,0,0,0,0,0,0,0,0],"id":8,"left_children":[1,3,5,7,9,11,13,15,17,19,21,23,25,-1,-1,27,29,31,33,35,37,39,41,43,45,-1,47,49,51,53,55,57,59,61,63,65,67,-1,-1,69,71,73,75,77,-1,79,81,-1,-1,-1,-1,-1,-1,-1,-1,-1,-1,-1,-1,-1,-1,-1,-1,-1,-1,-1,-1,-1,-1,-1,-1,-1,-1,-1,-1,-1,-1,-1,-1,-1,-1,-1,-1],"loss_changes":[3.0821443E3,1.0034668E1,7.347024E2,7.743164E0,1.7957748E1,1.0494702E2,2.7441406E-1,2.2584534E0,5.0563354E0,7.8971183E-1,4.733673E0,9.784387E1,6.130419E0,0E0,0E0,4.274872E0,2.7449036E0,1.3036499E1,4.7456436E0,1.5865678E-1,1.0654933E0,7.889374E0,4.974457E0,4.491357E0,4.38208E0,0E0,9.877743E0,2.0535736E0,1.3088875E0,3.5719337E0,1.3276367E0,1.0400391E1,2.846225E1,6.5224075E-1,2.883234E0,1.0633768E0,1.875384E-1,0E0,0E0,2.5227227E0,2.9307938E0,3.2378597E0,8.167412E0,8.909383E-1,0E0,9.971771E0,1.4382324E0,0E0,0E0,0E0,0E0,0E0,0E0,0E0,0E0,0E0,0E0,0E0,0E0,0E0,0E0,0E0,0E0,0E0,0E0,0E0,0E0,0E0,0E0,0E0,0E0,0E0,0E0,0E0,0E0,0E0,0E0,0E0,0E0,0E0,0E0,0E0,0E0],"parents":[2147483647,0,0,1,1,2,2,3,3,4,4,5,5,6,6,7,7,8,8,9,9,10,10,11,11,12,12,15,15,16,16,17,17,18,18,19,19,20,20,21,21,22,22,23,23,24,24,26,26,27,27,28,28,29,29,30,30,31,31,32,32,33,33,34,34,35,35,36,36,39,39,40,40,41,41,42,42,43,43,45,45,46,46],"right_children":[2,4,6,8,10,12,14,16,18,20,22,24,26,-1,-1,28,30,32,34,36,38,40,42,44,46,-1,48,50,52,54,56,58,60,62,64,66,68,-1,-1,70,72,74,76,78,-1,80,82,-1,-1,-1,-1,-1,-1,-1,-1,-1,-1,-1,-1,-1,-1,-1,-1,-1,-1,-1,-1,-1,-1,-1,-1,-1,-1,-1,-1,-1,-1,-1,-1,-1,-1,-1,-1],"split_conditions":[2.0039487E0,-4.364381E-1,1E0,2E0,-4.277904E-1,2.2512734E0,1.2331285E0,-4.6065173E-1,-4.4681537E-1,1.2331285E0,1.2331285E0,2.1077213E0,6.501125E-3,7.236315E-2,6.875683E-2,1.2331285E0,-4.5200402E-1,-4.6411082E-1,-4.398972E-1,6.501125E-3,-4.3297902E-1,1E0,-4.208722E-1,1.2331285E0,1E0,-5.212598E-4,1.2331285E0,-4.7102898E-1,-4.9005398E-1,1.2331285E0,-4.4854492E-1,-4.7621763E-1,1.2331285E0,3E0,6.501125E-3,-4.3297902E-1,-4.3297902E-1,-1.4986702E-3,-8.318987E-3,-4.208722E-1,6.501125E-3,-4.2260176E-1,-4.1395405E-1,6.501125E-3,-1.8369285E-2,6.501125E-3,2E0,-2.4803752E-2,-2.1889508E-3,-1.5522348E-2,-1.2140943E-2,-1.27931805E-2,-8.625065E-3,-1.4942192E-2,-2.4147725E-2,-1.2910728E-2,-1.5139346E-2,-1.2164894E-2,-8.041589E-3,-1.884622E-2,-6.0878447E-3,-5.556362E-3,-8.085991E-3,-1.8550826E-2,-9.932855E-3,-5.8503076E-3,9.636506E-4,9.5426844E-4,-1.7233518E-3,-7.919712E-3,-9.737657E-4,-1.4375779E-2,-9.36675E-3,-1.2842484E-2,-2.6757487E-3,-2.1465464E-2,-6.1865957E-3,-2.278759E-3,-9.340195E-3,2.2903686E-2,1.2827739E-2,1.8636731E-2,1.992664E-2],"split_indices":[3,3,2,6,3,3,0,3,3,0,0,3,0,0,0,0,3,3,3,0,3,6,3,0,6,0,0,3,3,0,3,3,0,6,0,3,3,0,0,3,0,3,3,0,0,0,6,0,0,0,0,0,0,0,0,0,0,0,0,0,0,0,0,0,0,0,0,0,0,0,0,0,0,0,0,0,0,0,0,0,0,0,0],"split_type":[0,0,0,0,0,0,0,0,0,0,0,0,0,0,0,0,0,0,0,0,0,0,0,0,0,0,0,0,0,0,0,0,0,0,0,0,0,0,0,0,0,0,0,0,0,0,0,0,0,0,0,0,0,0,0,0,0,0,0,0,0,0,0,0,0,0,0,0,0,0,0,0,0,0,0,0,0,0,0,0,0,0,0],"sum_hessian":[1.2890875E5,8.134782E4,4.756093E4,6.8169414E4,1.3178412E4,4.4889562E4,2.6713667E3,2.374053E4,4.4428883E4,2.885359E3,1.0293054E4,4.3727727E4,1.1618335E3,1.7623868E3,9.0897974E2,1.1025291E4,1.2715238E4,3.827044E4,6.15844E3,1.9668524E3,9.185065E2,6.797575E3,3.4954785E3,1.1685084E3,4.255922E4,3.1382608E2,8.480074E2,7.4243E3,3.6009912E3,1.8462358E3,1.0869002E4,2.9488742E4,8.781701E3,4.5551426E3,1.6032974E3,9.216385E2,1.0452139E3,4.8251373E2,4.3599277E2,2.0953862E3,4.702189E3,1.6034926E3,1.8919861E3,7.1721893E2,4.5128946E2,4.6793887E3,3.7879832E4,5.504346E2,2.975728E2,4.2783877E3,3.1459124E3,1.0859E3,2.5150913E3,1.1832745E3,6.6296124E2,5.2058276E3,5.663175E3,2.0811873E4,8.676869E3,6.3699653E3,2.411735E3,1.5635862E3,2.9915564E3,6.7094885E2,9.323485E2,4.2024158E2,5.013969E2,5.375816E2,5.0763223E2,1.0939948E3,1.0013914E3,2.4534844E3,2.2487046E3,1.1757552E3,4.2773734E2,1.4272504E3,4.6473575E2,3.7748587E2,3.397331E2,1.4073965E3,3.2719922E3,2.373523E4,1.4144601E4],"tree_param":{"num_deleted":"0","num_feature":"8","num_nodes":"83","size_leaf_vector":"1"}},{"base_weights":[-4.3594361E-10,-1.1326611E-1,1.9462378E-1,-1.0706973E-1,-1.4110099E-1,1.6629227E-1,6.942988E-1,-1.0069774E-1,-1.274681E-1,-1.55643E-1,-9.3702234E-2,-1.5413389E-1,1.757044E-1,7.059004E-2,6.7114316E-2,-7.410321E-2,-1.0463987E-1,-9.623104E-2,-1.3436282E-1,-1.8091173E-1,-1.4180596E-1,-5.450404E-2,-1.2510347E-1,-2.0719208E-1,1.2632497E-3,1.8100356E-1,-4.3785952E-2,-8.984367E-2,-4.162239E-2,-9.669847E-2,-1.197667E-1,-1.2282525E-1,-4.17091E-2,-1.6128764E-1,-1.1726703E-1,-1.6693267E-1,-1.872378E-1,-1.5869357E-1,-1.0102698E-1,-8.253869E-2,6.360637E-4,-1.5074029E-2,-1.0747957E-2,-2.4046237E-2,-1.6015008E-2,1.8950243E-1,1.743801E-1,-2.1383015E-2,-8.742937E-3,-1.0818687E-2,-8.540424E-3,-6.6217477E-3,-1.0996229E-3,-1.407063E-2,-9.161014E-3,-1.3264543E-2,-3.1814096E-3,-1.3450995E-2,-1.0795634E-2,-8.177627E-3,-3.4211684E-4,-1.4857935E-2,-1.8350525E-2,-1.2511975E-2,-9.899675E-3,-6.4205574E-3,-2.2533534E-2,-2.0718098E-2,-1.6266804E-2,-1.1402691E-2,-1.9565443E-2,-1.4101393E-2,-4.8114685E-3,-4.4262684E-3,-1.1317636E-2,1.9916758E-2,1.8449288E-2,1.8449783E-2,1.54103255E-2,-5.176851E-3,1.3452561E-3],"categories":[],"categories_nodes":[],"categories_segments":[],"categories_sizes":[],"default_left":[0,0,0,0,0,0,0,0,0,0,0,0,0,0,0,0,0,0,0,0,0,0,0,0,0,0,0,0,0,0,0,0,0,0,0,0,0,0,0,0,0,0,0,0,0,0,0,0,0,0,0,0,0,0,0,0,0,0,0,0,0,0,0,0,0,0,0,0,0,0,0,0,0,0,0,0,0,0,0,0,0],"id":9,"left_children":[1,3,5,7,9,11,13,15,17,19,21,23,25,-1,-1,27,29,31,33,35,37,39,41,43,-1,45,47,49,51,53,55,57,59,61,63,65,67,69,71,73,-1,-1,-1,-1,-1,75,77,79,-1,-1,-1,-1,-1,-1,-1,-1,-1,-1,-1,-1,-1,-1,-1,-1,-1,-1,-1,-1,-1,-1,-1,-1,-1,-1,-1,-1,-1,-1,-1,-1,-1],"loss_changes":[2.8119763E3,1.3892212E1,6.642052E2,8.560059E0,1.0102997E1,1.3396326E2,2.0251465E-1,5.261688E0,3.3674011E0,3.901123E0,4.238016E0,1.122053E1,5.0188232E1,0E0,0E0,3.3153648E0,5.2465515E0,4.114891E0,5.8981934E0,3.1987E-1,4.9847717E0,2.62085E0,8.485756E-1,1.4668884E0,0E0,2.338501E0,9.933313E-1,3.4678268E-1,1.5969062E0,6.4154663E0,1.7059265E1,3.1720734E-1,1.4311695E0,1.3815613E0,1.1161957E0,7.461937E0,1.3016052E0,8.452377E0,4.4984207E0,1.2280211E0,0E0,0E0,0E0,0E0,0E0,8.560791E-1,4.831299E0,7.140423E-1,0E0,0E0,0E0,0E0,0E0,0E0,0E0,0E0,0E0,0E0,0E0,0E0,0E0,0E0,0E0,0E0,0E0,0E0,0E0,0E0,0E0,0E0,0E0,0E0,0E0,0E0,0E0,0E0,0E0,0E0,0E0,0E0,0E0],"parents":[2147483647,0,0,1,1,2,2,3,3,4,4,5,5,6,6,7,7,8,8,9,9,10,10,11,11,12,12,15,15,16,16,17,17,18,18,19,19,20,20,21,21,22,22,23,23,25,25,26,26,27,27,28,28,29,29,30,30,31,31,32,32,33,33,34,34,35,35,36,36,37,37,38,38,39,39,45,45,46,46,47,47],"right_children":[2,4,6,8,10,12,14,16,18,20,22,24,26,-1,-1,28,30,32,34,36,38,40,42,44,-1,46,48,50,52,54,56,58,60,62,64,66,68,70,72,74,-1,-1,-1,-1,-1,76,78,80,-1,-1,-1,-1,-1,-1,-1,-1,-1,-1,-1,-1,-1,-1,-1,-1,-1,-1,-1,-1,-1,-1,-1,-1,-1,-1,-1,-1,-1,-1,-1,-1,-1],"split_conditions":[2.0039487E0,-4.364381E-1,1E0,3E0,3E0,2.1077213E0,1.2331285E0,-4.9524263E-1,-4.831358E-1,-4.277904E-1,-4.1914266E-1,1.2331285E0,2.2512734E0,7.059004E-2,6.7114316E-2,1.2331285E0,1.2331285E0,1.2331285E0,-4.7275853E-1,6.501125E-3,1.2331285E0,1.2331285E0,6.501125E-3,6.501125E-3,1.2632497E-3,2.1578782E0,1.2331285E0,-5.159971E-1,-5.0389034E-1,-4.831358E-1,-4.4681537E-1,6.501125E-3,-4.8832443E-1,1.2331285E0,1.2331285E0,-4.3297902E-1,-4.3297902E-1,6.501125E-3,-4.2260176E-1,6.501125E-3,6.360637E-4,-1.5074029E-2,-1.0747957E-2,-2.4046237E-2,-1.6015008E-2,6.501125E-3,1.2331285E0,6.501125E-3,-8.742937E-3,-1.0818687E-2,-8.540424E-3,-6.6217477E-3,-1.0996229E-3,-1.407063E-2,-9.161014E-3,-1.3264543E-2,-3.1814096E-3,-1.3450995E-2,-1.0795634E-2,-8.177627E-3,-3.4211684E-4,-1.4857935E-2,-1.8350525E-2,-1.2511975E-2,-9.899675E-3,-6.4205574E-3,-2.2533534E-2,-2.0718098E-2,-1.6266804E-2,-1.1402691E-2,-1.9565443E-2,-1.4101393E-2,-4.8114685E-3,-4.4262684E-3,-1.1317636E-2,1.9916758E-2,1.8449288E-2,1.8449783E-2,1.54103255E-2,-5.176851E-3,1.3452561E-3],"split_indices":[3,3,2,6,6,3,0,3,3,3,3,0,3,0,0,0,0,0,3,0,0,0,0,0,0,3,0,3,3,3,3,0,3,0,0,3,3,0,3,0,0,0,0,0,0,0,0,0,0,0,0,0,0,0,0,0,0,0,0,0,0,0,0,0,0,0,0,0,0,0,0,0,0,0,0,0,0,0,0,0,0],"split_type":[0,0,0,0,0,0,0,0,0,0,0,0,0,0,0,0,0,0,0,0,0,0,0,0,0,0,0,0,0,0,0,0,0,0,0,0,0,0,0,0,0,0,0,0,0,0,0,0,0,0,0,0,0,0,0,0,0,0,0,0,0,0,0,0,0,0,0,0,0,0,0,0,0,0,0,0,0,0,0,0,0],"sum_hessian":[1.2755836E5,8.063263E4,4.6925727E4,6.595508E4,1.4677555E4,4.440907E4,2.5166567E3,5.0260703E4,1.5694372E4,1.1229914E4,3.4476404E3,1.2668009E3,4.314227E4,1.6569785E3,8.596782E2,6.4909653E3,4.376974E4,2.8404521E3,1.285392E4,3.9692808E3,7.2606333E3,1.5346594E3,1.9129808E3,9.6085425E2,3.0594666E2,4.2125414E4,1.0168578E3,4.3709854E3,2.11998E3,2.8706531E4,1.5063207E4,1.9083583E3,9.320939E2,4.988659E3,7.865261E3,1.2451637E3,2.724117E3,5.132319E3,2.1283145E3,1.0504567E3,4.8420288E2,7.7624927E2,1.1367316E3,5.60401E2,4.0045325E2,1.843851E4,2.3686902E4,6.7292395E2,3.4393384E2,8.471778E2,3.5238076E3,1.1751139E3,9.448663E2,2.9723833E3,2.5734146E4,1.3138808E4,1.9243994E3,1.0640953E3,8.44263E2,4.549092E2,4.771847E2,3.1783538E3,1.8103053E3,5.49683E3,2.3684314E3,4.5207962E2,7.930841E2,1.4995262E3,1.2245907E3,2.3257588E3,2.8065598E3,1.2112684E3,9.17046E2,4.6809927E2,5.823573E2,6.2811924E3,1.2157317E4,1.5796607E4,7.8902954E3,3.591594E2,3.137646E2],"tree_param":{"num_deleted":"0","num_feature":"8","num_nodes":"81","size_leaf_vector":"1"}},{"base_weights":[1.00698255E-10,-1.0608791E-1,1.8277606E-1,-1.284275E-1,-1.00789346E-1,1.5632232E-1,6.782337E-1,-1.6256072E-1,-1.0838189E-1,-1.051034E-1,-8.029213E-2,1.6725549E-1,-1.8286358E-1,6.902932E-2,6.543933E-2,-7.6582492E-3,-1.7975345E-1,-2.1584746E-1,-9.34207E-2,-9.540135E-2,-1.648513E-1,-5.3067137E-2,-1.3394623E-1,-9.7439565E-2,1.7445849E-1,-1.2442836E-2,-2.0919105E-1,-2.0568512E-1,-1.5627924E-1,-9.508702E-3,-2.767375E-2,-7.5047985E-2,-1.10762045E-1,-1.0008958E-1,-2.6597075E-2,-1.970352E-1,-1.2433604E-1,-2.1852737E-2,-6.78433E-2,-1.6382924E-1,-1.01546355E-1,-2.7615284E-3,-2.2217127E-2,1.6619635E-1,1.902336E-1,-2.4831606E-2,-1.5262696E-2,-1.7256645E-2,-2.5975084E-2,-3.832705E-3,-1.8272914E-2,-1.0750121E-2,-2.1777097E-3,-8.406469E-3,-1.3400555E-2,-1.1561322E-2,-9.4430465E-3,-4.4370978E-4,-3.6077988E-3,-2.4340315E-2,-1.3841353E-2,-1.4614749E-2,-6.1926064E-3,-9.2058734E-4,-4.0918635E-3,-8.068989E-3,-4.763095E-3,-2.334487E-2,-1.2393543E-2,-1.5013492E-3,-1.4233491E-2,3.5230585E-3,-4.5580524E-3,1.7190216E-2,1.5518555E-2,1.9507766E-2,1.8075395E-2],"categories":[],"categories_nodes":[],"categories_segments":[],"categories_sizes":[],"default_left":[0,0,0,0,0,0,0,0,0,0,0,0,0,0,0,0,0,0,0,0,0,0,0,0,0,0,0,0,0,0,0,0,0,0,0,0,0,0,0,0,0,0,0,0,0,0,0,0,0,0,0,0,0,0,0,0,0,0,0,0,0,0,0,0,0,0,0,0,0,0,0,0,0,0,0,0,0],"id":10,"left_children":[1,3,5,7,9,11,13,15,17,19,21,23,25,-1,-1,-1,27,29,31,33,35,37,39,41,43,-1,45,47,49,-1,-1,51,53,55,57,59,61,63,65,67,69,71,-1,73,75,-1,-1,-1,-1,-1,-1,-1,-1,-1,-1,-1,-1,-1,-1,-1,-1,-1,-1,-1,-1,-1,-1,-1,-1,-1,-1,-1,-1,-1,-1,-1,-1],"loss_changes":[2.4656418E3,9.510803E0,6.11978E2,1.05338745E1,5.7426147E0,1.6443896E2,2.2875977E-1,8.417404E0,1.5605354E1,3.1128235E1,1.6517784E1,8.190625E1,2.10458E0,0E0,0E0,0E0,2.860794E0,8.700985E0,2.7102356E0,1.4907623E1,9.7604065E0,3.4606762E0,3.66967E0,1.34439125E1,5.4179688E0,0E0,2.071785E0,3.992714E0,7.7881393E0,0E0,0E0,7.165653E0,2.711296E0,3.790741E0,6.196327E-1,1.1329178E1,4.516819E0,5.8149743E-1,1.3189163E0,5.4674606E0,6.454769E0,1.0561123E0,0E0,1.697815E0,6.2438965E-1,0E0,0E0,0E0,0E0,0E0,0E0,0E0,0E0,0E0,0E0,0E0,0E0,0E0,0E0,0E0,0E0,0E0,0E0,0E0,0E0,0E0,0E0,0E0,0E0,0E0,0E0,0E0,0E0,0E0,0E0,0E0,0E0],"parents":[2147483647,0,0,1,1,2,2,3,3,4,4,5,5,6,6,7,7,8,8,9,9,10,10,11,11,12,12,16,16,17,17,18,18,19,19,20,20,21,21,22,22,23,23,24,24,26,26,27,27,28,28,31,31,32,32,33,33,34,34,35,35,36,36,37,37,38,38,39,39,40,40,41,41,43,43,44,44],"right_children":[2,4,6,8,10,12,14,16,18,20,22,24,26,-1,-1,-1,28,30,32,34,36,38,40,42,44,-1,46,48,50,-1,-1,52,54,56,58,60,62,64,66,68,70,72,-1,74,76,-1,-1,-1,-1,-1,-1,-1,-1,-1,-1,-1,-1,-1,-1,-1,-1,-1,-1,-1,-1,-1,-1,-1,-1,-1,-1,-1,-1,-1,-1,-1,-1],"split_conditions":[2.0039487E0,1E0,1E0,6.501125E-3,-4.398972E-1,2.2512734E0,1.2331285E0,-4.9005398E-1,-4.9524263E-1,-4.4681537E-1,-4.2260176E-1,2.1077213E0,6.501125E-3,6.902932E-2,6.543933E-2,-7.6582492E-3,-4.4854492E-1,1.2331285E0,1.2331285E0,-4.5027447E-1,3E0,6.501125E-3,-4.1914266E-1,1.2331285E0,2.176903E0,-1.2442836E-2,1.2331285E0,-4.5027447E-1,-4.4162676E-1,-9.508702E-3,-2.767375E-2,-4.4162676E-1,-4.4854492E-1,-4.831358E-1,6.501125E-3,-4.4162676E-1,1.2331285E0,-4.277904E-1,-4.277904E-1,6.501125E-3,6.501125E-3,6.501125E-3,-2.2217127E-2,1.2331285E0,2.2080348E0,-2.4831606E-2,-1.5262696E-2,-1.7256645E-2,-2.5975084E-2,-3.832705E-3,-1.8272914E-2,-1.0750121E-2,-2.1777097E-3,-8.406469E-3,-1.3400555E-2,-1.1561322E-2,-9.4430465E-3,-4.4370978E-4,-3.6077988E-3,-2.4340315E-2,-1.3841353E-2,-1.4614749E-2,-6.1926064E-3,-9.2058734E-4,-4.0918635E-3,-8.068989E-3,-4.763095E-3,-2.334487E-2,-1.2393543E-2,-1.5013492E-3,-1.4233491E-2,3.5230585E-3,-4.5580524E-3,1.7190216E-2,1.5518555E-2,1.9507766E-2,1.8075395E-2],"split_indices":[3,6,2,0,3,3,0,3,3,3,3,3,0,0,0,0,3,0,0,3,6,0,3,0,3,0,0,3,3,0,0,3,3,3,0,3,0,3,3,0,0,0,0,0,3,0,0,0,0,0,0,0,0,0,0,0,0,0,0,0,0,0,0,0,0,0,0,0,0,0,0,0,0,0,0,0,0],"split_type":[0,0,0,0,0,0,0,0,0,0,0,0,0,0,0,0,0,0,0,0,0,0,0,0,0,0,0,0,0,0,0,0,0,0,0,0,0,0,0,0,0,0,0,0,0,0,0,0,0,0,0,0,0,0,0,0,0,0,0,0,0,0,0,0,0,0,0,0,0,0,0,0,0,0,0,0,0],"sum_hessian":[1.27156336E5,8.045728E4,4.669905E4,1.5420161E4,6.503712E4,4.4333297E4,2.3657522E3,5.7026743E3,9.717487E3,5.372538E4,1.131174E4,4.294939E4,1.3839059E3,1.5524858E3,8.132665E2,9.512208E2,4.7514536E3,1.1858866E3,8.531601E3,4.6222254E4,7.503125E3,7.505375E3,3.806365E3,1.1374644E3,4.1811926E4,4.3162253E2,9.522833E2,2.2538696E3,2.497584E3,3.9837296E2,7.875137E2,4.145197E3,4.386404E3,4.327322E4,2.949036E3,4.1793413E3,3.323784E3,2.4121753E3,5.0931997E3,1.97798E3,1.8283851E3,6.4721533E2,4.9024896E2,2.7447809E4,1.4364119E4,5.609133E2,3.9137E2,1.4002933E3,8.535763E2,4.579272E2,2.0396567E3,2.575286E3,1.5699111E3,2.0436709E3,2.3427327E3,1.1555547E4,3.1717672E4,8.8409247E2,2.0649436E3,2.3318035E3,1.8475378E3,2.4620044E3,8.6177936E2,1.4511052E3,9.6107E2,3.1121711E3,1.9810289E3,7.187768E2,1.2592031E3,5.861778E2,1.2422074E3,3.4303082E2,3.0418454E2,1.8069545E4,9.378263E3,9.493448E3,4.870671E3],"tree_param":{"num_deleted":"0","num_feature":"8","num_nodes":"77","size_leaf_vector":"1"}},{"base_weights":[1.1185415E-10,-1.03924334E-1,1.8051808E-1,-7.173552E-2,-1.1950854E-1,1.5571323E-1,6.639993E-1,-7.668462E-2,-4.4920366E-2,-1.2569582E-1,-9.541338E-2,-1.6599743E-1,1.6552332E-1,6.7599155E-2,6.402706E-2,-6.253727E-2,-8.3586186E-2,-2.1662507E-2,-5.5999056E-2,-1.077957E-1,-1.4261067E-1,-7.7545054E-2,-1.3015993E-1,-2.2495078E-1,2.9806006E-3,1.701104E-1,-2.4670012E-2,-8.135408E-2,-2.2357108E-2,-7.782302E-2,-1.2020216E-1,3.6192597E-3,-5.7128754E-2,-7.6859914E-2,-1.2754001E-2,-1.299389E-1,-8.6889476E-2,-2.291047E-1,-1.207349E-1,-1.1184617E-1,-3.8437188E-2,-2.1331021E-1,-8.89256E-2,-2.7231468E-2,-1.529927E-2,1.7848301E-1,1.6358082E-1,-6.272161E-3,-1.1749349E-3,-9.274669E-3,-4.793229E-3,-1.2456379E-3,-5.874859E-3,-6.9345008E-3,-8.572699E-3,-1.506491E-2,-9.236447E-3,-5.179177E-3,-6.2514925E-3,-4.966958E-3,-1.0374359E-2,-3.723798E-3,1.1432234E-3,-1.4060666E-2,-1.05965985E-2,-6.4713135E-3,-1.23627195E-2,-2.3926044E-2,-2.0728491E-2,-7.234628E-3,-1.3927414E-2,-6.3522863E-3,-1.5943022E-2,-4.6476144E-3,7.304428E-4,-1.8064518E-2,-2.4518896E-2,-7.0664906E-3,-1.1088842E-2,1.7495893E-2,1.8692253E-2,1.7213808E-2,1.460464E-2,3.2831065E-3,-3.3750806E-3],"categories":[],"categories_nodes":[],"categories_segments":[],"categories_sizes":[],"default_left":[0,0,0,0,0,0,0,0,0,0,0,0,0,0,0,0,0,0,0,0,0,0,0,0,0,0,0,0,0,0,0,0,0,0,0,0,0,0,0,0,0,0,0,0,0,0,0,0,0,0,0,0,0,0,0,0,0,0,0,0,0,0,0,0,0,0,0,0,0,0,0,0,0,0,0,0,0,0,0,0,0,0,0,0,0],"id":11,"left_children":[1,3,5,7,9,11,13,15,17,19,21,23,25,-1,-1,27,29,31,33,35,37,39,41,43,-1,45,47,49,51,53,55,-1,57,59,61,63,65,67,69,71,73,75,77,-1,-1,79,81,-1,83,-1,-1,-1,-1,-1,-1,-1,-1,-1,-1,-1,-1,-1,-1,-1,-1,-1,-1,-1,-1,-1,-1,-1,-1,-1,-1,-1,-1,-1,-1,-1,-1,-1,-1,-1,-1],"loss_changes":[2.3566738E3,3.9983826E1,5.503248E2,3.4483032E0,7.9960327E0,1.3781421E2,2.0446777E-1,2.138504E0,1.0435925E0,1.29244995E1,6.8065033E0,1.4925301E1,3.696643E1,0E0,0E0,5.4439774E0,3.104042E0,2.6899276E0,2.4762077E0,9.602798E0,4.1542664E1,9.7253E0,1.2760056E1,3.3442192E0,0E0,2.232544E0,8.927153E-1,1.8632431E0,8.274914E-1,8.484421E-1,1.6850796E0,0E0,2.0117998E-2,1.3487434E0,5.3028065E-1,2.563858E0,8.697433E0,9.329376E-1,1.5722458E1,8.873631E0,1.2471151E0,1.2415962E0,9.921074E-1,0E0,0E0,5.060425E-1,3.4641724E0,0E0,6.861785E-1,0E0,0E0,0E0,0E0,0E0,0E0,0E0,0E0,0E0,0E0,0E0,0E0,0E0,0E0,0E0,0E0,0E0,0E0,0E0,0E0,0E0,0E0,0E0,0E0,0E0,0E0,0E0,0E0,0E0,0E0,0E0,0E0,0E0,0E0,0E0,0E0],"parents":[2147483647,0,0,1,1,2,2,3,3,4,4,5,5,6,6,7,7,8,8,9,9,10,10,11,11,12,12,15,15,16,16,17,17,18,18,19,19,20,20,21,21,22,22,23,23,25,25,26,26,27,27,28,28,29,29,30,30,32,32,33,33,34,34,35,35,36,36,37,37,38,38,39,39,40,40,41,41,42,42,45,45,46,46,48,48],"right_children":[2,4,6,8,10,12,14,16,18,20,22,24,26,-1,-1,28,30,32,34,36,38,40,42,44,-1,46,48,50,52,54,56,-1,58,60,62,64,66,68,70,72,74,76,78,-1,-1,80,82,-1,84,-1,-1,-1,-1,-1,-1,-1,-1,-1,-1,-1,-1,-1,-1,-1,-1,-1,-1,-1,-1,-1,-1,-1,-1,-1,-1,-1,-1,-1,-1,-1,-1,-1,-1,-1,-1],"split_conditions":[2.0039487E0,-4.7102898E-1,1E0,-4.7621763E-1,3E0,2.1077213E0,1.2331285E0,6.501125E-3,-4.7448808E-1,-4.4854492E-1,1.2331285E0,1.2331285E0,2.2512734E0,6.7599155E-2,6.402706E-2,-4.8140627E-1,-4.7967672E-1,6.501125E-3,1.2331285E0,-4.6411082E-1,-4.4681537E-1,6.501125E-3,-4.6238127E-1,6.501125E-3,2.9806006E-3,2.1578782E0,6.501125E-3,3E0,3E0,-4.9005398E-1,-4.7794718E-1,3.6192597E-3,1.2331285E0,-4.7275853E-1,-4.7275853E-1,1.2331285E0,1.2331285E0,1.2331285E0,-4.398972E-1,-4.398972E-1,-4.1914266E-1,-4.6411082E-1,-4.364381E-1,-2.7231468E-2,-1.529927E-2,2.154419E0,1.2331285E0,-6.272161E-3,1.2331285E0,-9.274669E-3,-4.793229E-3,-1.2456379E-3,-5.874859E-3,-6.9345008E-3,-8.572699E-3,-1.506491E-2,-9.236447E-3,-5.179177E-3,-6.2514925E-3,-4.966958E-3,-1.0374359E-2,-3.723798E-3,1.1432234E-3,-1.4060666E-2,-1.05965985E-2,-6.4713135E-3,-1.23627195E-2,-2.3926044E-2,-2.0728491E-2,-7.234628E-3,-1.3927414E-2,-6.3522863E-3,-1.5943022E-2,-4.6476144E-3,7.304428E-4,-1.8064518E-2,-2.4518896E-2,-7.0664906E-3,-1.1088842E-2,1.7495893E-2,1.8692253E-2,1.7213808E-2,1.460464E-2,3.2831065E-3,-3.3750806E-3],"split_indices":[3,3,2,3,6,3,0,0,3,3,0,0,3,0,0,3,3,0,0,3,3,0,3,0,0,3,0,6,6,3,3,0,0,3,3,0,0,0,3,3,3,3,3,0,0,3,0,0,0,0,0,0,0,0,0,0,0,0,0,0,0,0,0,0,0,0,0,0,0,0,0,0,0,0,0,0,0,0,0,0,0,0,0,0,0],"split_type":[0,0,0,0,0,0,0,0,0,0,0,0,0,0,0,0,0,0,0,0,0,0,0,0,0,0,0,0,0,0,0,0,0,0,0,0,0,0,0,0,0,0,0,0,0,0,0,0,0,0,0,0,0,0,0,0,0,0,0,0,0,0,0,0,0,0,0,0,0,0,0,0,0,0,0,0,0,0,0,0,0,0,0,0,0],"sum_hessian":[1.25618805E5,7.972279E4,4.589602E4,2.6008488E4,5.37143E4,4.3657508E4,2.2385117E3,2.1954617E4,4.0538708E3,4.2736082E4,1.0978218E4,1.291407E3,4.23661E4,1.4687397E3,7.6977203E2,7.2018354E3,1.4752781E4,1.308935E3,2.7449355E3,2.0766898E4,2.1969184E4,7.252082E3,3.7261353E3,9.924477E2,2.9895926E2,4.1368484E4,9.976174E2,4.9041455E3,2.2976902E3,1.2749241E4,2.0035402E3,4.9744556E2,8.1148956E2,1.8511752E3,8.937605E2,1.008256E4,1.0684339E4,4.4328364E3,1.7536348E4,3.86248E3,3.3896023E3,1.2338552E3,2.49228E3,5.9682446E2,3.9562326E2,1.8114572E4,2.325391E4,3.8019714E2,6.174202E2,3.6561016E3,1.2480438E3,1.8073278E3,4.903624E2,6.1559575E3,6.5932837E3,9.548164E2,1.0487238E3,4.1293796E2,3.985516E2,9.217543E2,9.294209E2,4.4387827E2,4.4988223E2,6.97422E3,3.108339E3,6.664278E3,4.0200605E3,3.018124E3,1.4147123E3,4.8589824E3,1.2677364E4,1.9175123E3,1.9449677E3,2.8829211E3,5.066812E2,6.127046E2,6.211506E2,1.3631361E3,1.1291439E3,1.2793951E4,5.320621E3,1.5621428E4,7.6324824E3,3.020754E2,3.153448E2],"tree_param":{"num_deleted":"0","num_feature":"8","num_nodes":"85","size_leaf_vector":"1"}},{"base_weights":[4.4923731E-10,-9.737204E-2,1.6911812E-1,-1.06787354E-1,-8.092385E-2,1.4577977E-1,6.5075636E-1,-9.963311E-2,-1.5008707E-1,4.5867083E-3,-9.479366E-2,1.5817559E-1,-2.085085E-1,6.633167E-2,6.2600285E-2,-1.1159013E-1,-7.6593354E-2,-7.6970555E-2,-1.7359208E-1,-1.8293137E-2,1.6291084E-2,-1.3308074E-1,-7.33337E-2,-1.0417478E-1,1.6541067E-1,-2.1331297E-1,-1.9616736E-2,-9.780558E-2,-1.279026E-1,-6.579054E-2,-1.00855455E-1,5.292309E-4,-1.0772376E-2,-2.476591E-1,-1.292899E-1,3.2191444E-3,-4.3648895E-2,1.997937E-2,9.342885E-4,-2.3562922E-1,-9.7100146E-2,-4.2700984E-2,-1.3393068E-1,1.6059503E-2,-2.4722336E-2,1.6256632E-1,1.883295E-2,-2.0048022E-2,-2.2585487E-2,-8.075368E-3,-1.2709722E-2,-1.3673569E-2,-1.0655064E-2,-5.040407E-3,-9.470539E-3,-1.6078856E-2,-6.5255226E-3,-3.1011203E-2,-3.2037687E-3,-1.4940666E-2,-1.0655685E-2,-3.2302719E-3,-5.6346143E-3,2.1451178E-3,1.863256E-3,-3.1104354E-2,-1.9563157E-2,-3.7372268E-3,-1.2180131E-2,-1.2436619E-3,-5.4294593E-3,-5.9771976E-3,-1.6555803E-2,6.7437566E-3,-3.908807E-3,1.8393625E-2,1.5970454E-2],"categories":[],"categories_nodes":[],"categories_segments":[],"categories_sizes":[],"default_left":[0,0,0,0,0,0,0,0,0,0,0,0,0,0,0,0,0,0,0,0,0,0,0,0,0,0,0,0,0,0,0,0,0,0,0,0,0,0,0,0,0,0,0,0,0,0,0,0,0,0,0,0,0,0,0,0,0,0,0,0,0,0,0,0,0,0,0,0,0,0,0,0,0,0,0,0,0],"id":12,"left_children":[1,3,5,7,9,11,13,15,17,19,21,23,25,-1,-1,27,29,31,33,35,37,39,41,43,45,47,-1,49,51,53,55,-1,-1,57,59,-1,61,63,-1,65,67,69,71,73,-1,75,-1,-1,-1,-1,-1,-1,-1,-1,-1,-1,-1,-1,-1,-1,-1,-1,-1,-1,-1,-1,-1,-1,-1,-1,-1,-1,-1,-1,-1,-1,-1],"loss_changes":[2.0605044E3,1.2288696E1,5.138225E2,1.5627686E1,3.428969E1,1.9154517E2,2.4157715E-1,1.1930817E1,1.228891E1,1.0810888E0,2.0429642E1,7.999341E1,4.5585632E-2,0E0,0E0,6.4026794E0,3.8751907E0,4.410569E0,1.7740051E1,1.7504287E0,6.825143E-2,3.2940994E1,2.9589424E1,1.946337E1,2.642334E0,1.2370682E-1,0E0,7.7153015E0,2.4492798E0,4.5556717E0,9.7209015E0,0E0,0E0,2.7272606E1,1.5348854E0,0E0,1.2927318E-1,3.056705E-3,0E0,6.9363556E0,9.755112E0,3.7156105E0,1.2545219E1,1.7470341E0,0E0,2.2019043E0,0E0,0E0,0E0,0E0,0E0,0E0,0E0,0E0,0E0,0E0,0E0,0E0,0E0,0E0,0E0,0E0,0E0,0E0,0E0,0E0,0E0,0E0,0E0,0E0,0E0,0E0,0E0,0E0,0E0,0E0,0E0],"parents":[2147483647,0,0,1,1,2,2,3,3,4,4,5,5,6,6,7,7,8,8,9,9,10,10,11,11,12,12,15,15,16,16,17,17,18,18,19,19,20,20,21,21,22,22,23,23,24,24,25,25,27,27,28,28,29,29,30,30,33,33,34,34,36,36,37,37,39,39,40,40,41,41,42,42,43,43,45,45],"right_children":[2,4,6,8,10,12,14,16,18,20,22,24,26,-1,-1,28,30,32,34,36,38,40,42,44,46,48,-1,50,52,54,56,-1,-1,58,60,-1,62,64,-1,66,68,70,72,74,-1,76,-1,-1,-1,-1,-1,-1,-1,-1,-1,-1,-1,-1,-1,-1,-1,-1,-1,-1,-1,-1,-1,-1,-1,-1,-1,-1,-1,-1,-1,-1,-1],"split_conditions":[2.0039487E0,-4.5027447E-1,1E0,-4.6065173E-1,-4.4681537E-1,2.2512734E0,1.2331285E0,-4.7102898E-1,1E0,-4.4854492E-1,-4.398972E-1,2.1077213E0,1.2331285E0,6.633167E-2,6.2600285E-2,-4.8140627E-1,-4.6411082E-1,6.501125E-3,6.501125E-3,6.501125E-3,1.2331285E0,1E0,3E0,1.2331285E0,2.2080348E0,6.501125E-3,-1.9616736E-2,1.2331285E0,1.2331285E0,1.2331285E0,6.501125E-3,5.292309E-4,-1.0772376E-2,2E0,1.2331285E0,3.2191444E-3,1.2331285E0,6.501125E-3,9.342885E-4,6.501125E-3,6.501125E-3,-4.3297902E-1,6.501125E-3,6.501125E-3,-2.4722336E-2,2.1405826E0,1.883295E-2,-2.0048022E-2,-2.2585487E-2,-8.075368E-3,-1.2709722E-2,-1.3673569E-2,-1.0655064E-2,-5.040407E-3,-9.470539E-3,-1.6078856E-2,-6.5255226E-3,-3.1011203E-2,-3.2037687E-3,-1.4940666E-2,-1.0655685E-2,-3.2302719E-3,-5.6346143E-3,2.1451178E-3,1.863256E-3,-3.1104354E-2,-1.9563157E-2,-3.7372268E-3,-1.2180131E-2,-1.2436619E-3,-5.4294593E-3,-5.9771976E-3,-1.6555803E-2,6.7437566E-3,-3.908807E-3,1.8393625E-2,1.5970454E-2],"split_indices":[3,3,2,3,3,3,0,3,6,3,3,3,0,0,0,3,3,0,0,0,0,6,6,0,3,0,0,0,0,0,0,0,0,6,0,0,0,0,0,0,0,3,0,0,0,3,0,0,0,0,0,0,0,0,0,0,0,0,0,0,0,0,0,0,0,0,0,0,0,0,0,0,0,0,0,0,0],"split_type":[0,0,0,0,0,0,0,0,0,0,0,0,0,0,0,0,0,0,0,0,0,0,0,0,0,0,0,0,0,0,0,0,0,0,0,0,0,0,0,0,0,0,0,0,0,0,0,0,0,0,0,0,0,0,0,0,0,0,0,0,0,0,0,0,0,0,0,0,0,0,0,0,0,0,0,0,0],"sum_hessian":[1.2512445E5,7.9405875E4,4.571858E4,5.049557E4,2.8910303E4,4.360686E4,2.1117188E3,4.3338266E4,7.1573037E3,4.0348992E3,2.4875404E4,4.2133258E4,1.4736028E3,1.3837736E3,7.279453E2,2.852876E4,1.4809508E4,1.7421881E3,5.4151157E3,1.3653448E3,2.6695542E3,8.932889E3,1.5942516E4,1.1304038E3,4.1002855E4,1.0489552E3,4.246476E2,1.5466264E4,1.3062496E4,1.0249555E4,4.5599526E3,4.742983E2,1.2678898E3,2.0250033E3,3.3901123E3,4.5638666E2,9.089582E2,1.7426396E3,9.269146E2,2.3187258E3,6.6141626E3,1.0590537E4,5.3519785E3,6.1466077E2,5.1574304E2,3.648319E4,4.5196636E3,5.2686127E2,5.2209393E2,9.777894E3,5.68837E3,9.236172E3,3.8263232E3,6.6915312E3,3.5580237E3,1.6979432E3,2.8620093E3,1.5698665E3,4.551368E2,1.7955948E3,1.5945175E3,4.818892E2,4.27069E2,8.2554767E2,9.17092E2,8.012385E2,1.5174873E3,1.935822E3,4.678341E3,2.933887E3,7.6566504E3,1.6009698E3,3.7510083E3,3.1809018E2,2.965706E2,4.301218E3,3.2181973E4],"tree_param":{"num_deleted":"0","num_feature":"8","num_nodes":"77","size_leaf_vector":"1"}},{"base_weights":[1.4980989E-11,-9.655086E-2,1.7125891E-1,-6.763105E-2,-1.0757412E-1,1.4933826E-1,6.38645E-1,-8.5922696E-2,-3.6278144E-2,-1.116831E-1,-6.2378164E-2,-1.6836388E-1,1.5948485E-1,6.513518E-2,6.1368097E-2,-1.0245506E-1,-7.4618764E-2,-1.3863606E-2,-4.7285073E-2,-1.0175972E-1,-1.4291131E-1,3.3043767E-3,-8.845032E-2,-2.2827357E-1,4.2673787E-3,1.6300862E-1,6.848561E-3,-6.5078564E-2,-1.31747E-1,-6.481669E-2,-9.234474E-2,-5.56951E-3,-6.766251E-3,-3.5425488E-2,-7.1052514E-2,-1.1433565E-1,-2.9895062E-2,-1.5387473E-1,-5.5630658E-2,-7.0047914E-3,2.2636203E-3,-1.05920635E-1,-3.711301E-2,-2.6693353E-2,-1.7149488E-2,1.4814043E-1,1.6492374E-1,2.1560216E-2,-2.4253654E-3,-4.8162597E-3,-7.3990696E-3,-9.272847E-3,-1.4573683E-2,-8.418228E-3,-5.4124305E-3,-1.0655604E-2,-8.441544E-3,-1.660521E-3,6.978276E-4,-3.1463564E-3,-3.956947E-3,-4.6469118E-3,-9.750838E-3,-1.0808756E-2,-1.4658927E-2,5.4124004E-4,-6.17189E-3,-2.1217396E-2,-1.175538E-2,-3.964148E-3,-6.4552575E-3,6.444723E-4,-1.7955153E-3,-6.974364E-3,-1.378943E-2,-4.5964955E-3,-2.762686E-3,1.5608805E-2,1.313884E-2,1.6799023E-2,1.588348E-2,-1.9010912E-4,4.7168075E-3],"categories":[],"categories_nodes":[],"categories_segments":[],"categories_sizes":[],"default_left":[0,0,0,0,0,0,0,0,0,0,0,0,0,0,0,0,0,0,0,0,0,0,0,0,0,0,0,0,0,0,0,0,0,0,0,0,0,0,0,0,0,0,0,0,0,0,0,0,0,0,0,0,0,0,0,0,0,0,0,0,0,0,0,0,0,0,0,0,0,0,0,0,0,0,0,0,0,0,0,0,0,0,0],"id":13,"left_children":[1,3,5,7,9,11,13,15,17,19,21,23,25,-1,-1,27,29,31,33,35,37,39,41,43,-1,45,47,49,51,53,55,-1,57,59,61,63,65,67,69,71,-1,73,75,-1,-1,77,79,81,-1,-1,-1,-1,-1,-1,-1,-1,-1,-1,-1,-1,-1,-1,-1,-1,-1,-1,-1,-1,-1,-1,-1,-1,-1,-1,-1,-1,-1,-1,-1,-1,-1,-1,-1],"loss_changes":[2.0479355E3,2.5241516E1,4.5737805E2,1.2533676E1,1.0642029E1,1.3752112E2,2.3474121E-1,2.5722733E0,1.9869318E0,1.6273987E1,8.187784E0,1.6705574E1,2.222998E1,0E0,0E0,6.1261635E0,1.4192429E0,7.8776157E-1,1.5203209E0,3.60484E1,1.2117676E1,2.7110103E-1,3.0656853E0,2.2123032E0,0E0,1.1259766E0,4.277639E-1,3.6789036E-1,1.7007446E0,1.0898361E0,3.1987E-1,0E0,3.071861E-1,5.796194E-2,1.1644697E0,6.8257446E0,6.6772966E0,2.381314E1,1.9940186E-1,1.3081393E-1,0E0,2.943493E0,7.18292E-2,0E0,0E0,5.9456635E-1,6.415405E-1,3.8124537E-1,0E0,0E0,0E0,0E0,0E0,0E0,0E0,0E0,0E0,0E0,0E0,0E0,0E0,0E0,0E0,0E0,0E0,0E0,0E0,0E0,0E0,0E0,0E0,0E0,0E0,0E0,0E0,0E0,0E0,0E0,0E0,0E0,0E0,0E0,0E0],"parents":[2147483647,0,0,1,1,2,2,3,3,4,4,5,5,6,6,7,7,8,8,9,9,10,10,11,11,12,12,15,15,16,16,17,17,18,18,19,19,20,20,21,21,22,22,23,23,25,25,26,26,27,27,28,28,29,29,30,30,32,32,33,33,34,34,35,35,36,36,37,37,38,38,39,39,41,41,42,42,45,45,46,46,47,47],"right_children":[2,4,6,8,10,12,14,16,18,20,22,24,26,-1,-1,28,30,32,34,36,38,40,42,44,-1,46,48,50,52,54,56,-1,58,60,62,64,66,68,70,72,-1,74,76,-1,-1,78,80,82,-1,-1,-1,-1,-1,-1,-1,-1,-1,-1,-1,-1,-1,-1,-1,-1,-1,-1,-1,-1,-1,-1,-1,-1,-1,-1,-1,-1,-1,-1,-1,-1,-1,-1,-1],"split_conditions":[2.0039487E0,-4.7621763E-1,1E0,-4.831358E-1,-4.208722E-1,2.1077213E0,1.2331285E0,-4.9697214E-1,6.501125E-3,-4.398972E-1,-4.1914266E-1,1.2331285E0,2.2512734E0,6.513518E-2,6.1368097E-2,-5.0734943E-1,-4.8832443E-1,-4.8140627E-1,-4.7967672E-1,-4.4335628E-1,3E0,1.2331285E0,1.2331285E0,6.501125E-3,4.2673787E-3,2.1405826E0,1.2331285E0,6.501125E-3,6.501125E-3,6.501125E-3,6.501125E-3,-5.56951E-3,-4.7967672E-1,1.2331285E0,1.2331285E0,-4.4854492E-1,-4.4162676E-1,-4.3297902E-1,6.501125E-3,6.501125E-3,2.2636203E-3,6.501125E-3,-4.1395405E-1,-2.6693353E-2,-1.7149488E-2,1.2331285E0,1.2331285E0,6.501125E-3,-2.4253654E-3,-4.8162597E-3,-7.3990696E-3,-9.272847E-3,-1.4573683E-2,-8.418228E-3,-5.4124305E-3,-1.0655604E-2,-8.441544E-3,-1.660521E-3,6.978276E-4,-3.1463564E-3,-3.956947E-3,-4.6469118E-3,-9.750838E-3,-1.0808756E-2,-1.4658927E-2,5.4124004E-4,-6.17189E-3,-2.1217396E-2,-1.175538E-2,-3.964148E-3,-6.4552575E-3,6.444723E-4,-1.7955153E-3,-6.974364E-3,-1.378943E-2,-4.5964955E-3,-2.762686E-3,1.5608805E-2,1.313884E-2,1.6799023E-2,1.588348E-2,-1.9010912E-4,4.7168075E-3],"split_indices":[3,3,2,3,3,3,0,3,0,3,3,0,3,0,0,3,3,3,3,3,6,0,0,0,0,3,0,0,0,0,0,0,3,0,0,3,3,3,0,0,0,0,3,0,0,0,0,0,0,0,0,0,0,0,0,0,0,0,0,0,0,0,0,0,0,0,0,0,0,0,0,0,0,0,0,0,0,0,0,0,0,0,0],"split_type":[0,0,0,0,0,0,0,0,0,0,0,0,0,0,0,0,0,0,0,0,0,0,0,0,0,0,0,0,0,0,0,0,0,0,0,0,0,0,0,0,0,0,0,0,0,0,0,0,0,0,0,0,0,0,0,0,0,0,0,0,0,0,0,0,0,0,0,0,0,0,0,0,0,0,0,0,0,0,0,0,0,0,0],"sum_hessian":[1.2385113E5,7.920056E4,4.465057E4,2.1859291E4,5.734127E4,4.265151E4,1.9990577E3,1.3804089E4,8.055203E3,5.256121E4,4.7800566E3,1.3195383E3,4.1331973E4,1.3081226E3,6.9093524E2,5.602373E3,8.201715E3,2.653621E3,5.401582E3,3.988972E4,1.2671493E4,1.3585043E3,3.421552E3,1.0277091E3,2.9182925E2,4.0399246E4,9.3272736E2,2.462916E3,3.139457E3,5.2842812E3,2.917434E3,3.8392673E2,2.2696943E3,3.6051555E3,1.7964263E3,3.3948348E4,5.941373E3,1.1256757E4,1.4147358E3,8.8643097E2,4.7207333E2,2.5520237E3,8.695283E2,6.0920624E2,4.1850287E2,4.618832E3,3.5780414E4,6.3342017E2,2.993072E2,8.52053E2,1.610863E3,8.3057025E2,2.3088867E3,1.8773092E3,3.4069722E3,1.0403776E3,1.8770564E3,1.3226633E3,9.47031E2,1.8474573E3,1.7576982E3,9.325945E2,8.6383185E2,2.844282E4,5.5055264E3,2.816923E3,3.12445E3,4.3191636E3,6.9375933E3,5.0863757E2,9.060982E2,3.9800388E2,4.8842712E2,1.1988037E3,1.3532201E3,4.4781088E2,4.2171747E2,3.1269849E3,1.4918473E3,2.3778541E4,1.2001871E4,3.3104782E2,3.0237234E2],"tree_param":{"num_deleted":"0","num_feature":"8","num_nodes":"83","size_leaf_vector":"1"}},{"base_weights":[6.128951E-10,-9.1166176E-2,1.6202043E-1,-1.17950566E-1,-7.9228066E-2,1.4146066E-1,6.276956E-1,-7.798126E-2,-1.8403223E-1,-5.9579983E-2,-1.0461263E-1,1.5093845E-1,-1.5445438E-1,6.4048715E-2,6.0261637E-2,-6.73098E-2,-1.0376345E-1,-2.1406764E-1,-9.348837E-2,-6.485216E-2,-2.7940324E-2,-1.7178662E-1,-7.152071E-2,-8.3834685E-2,1.5736091E-1,-1.1591566E-3,-2.0755126E-1,-8.20221E-2,-5.988716E-2,-6.78737E-2,-1.55E-1,-2.2681841E-1,-1.9428982E-1,-1.04714766E-1,-4.779708E-3,-6.0173407E-2,-8.813535E-2,4.105326E-3,-8.11861E-2,-1.7655095E-1,-1.5545304E-1,-4.0747277E-2,-1.3168502E-1,2.0962307E-2,-2.1389913E-2,1.6041775E-1,1.5122439E-1,-2.2482496E-2,-1.8496305E-2,-8.930354E-3,-3.888543E-3,-7.667935E-3,-5.4119853E-3,-6.562844E-3,-6.9092507E-3,-1.8638927E-2,-8.724543E-3,-2.0784132E-2,-2.4284584E-2,-2.3498265E-2,-1.3789127E-2,-1.1711117E-2,-6.13263E-3,-5.2789412E-3,-8.611015E-3,-3.987145E-3,-1.1020174E-2,1.7782534E-3,-2.2603562E-3,-1.0728351E-2,-1.067784E-3,-1.6814064E-2,-1.8011192E-2,-2.1291954E-2,-1.2784543E-2,1.1082161E-3,-5.9058135E-3,-1.521521E-2,-8.981384E-3,6.1925077E-3,-2.2592724E-3,1.5069248E-2,1.6480282E-2,1.4770369E-2,1.5786154E-2],"categories":[],"categories_nodes":[],"categories_segments":[],"categories_sizes":[],"default_left":[0,0,0,0,0,0,0,0,0,0,0,0,0,0,0,0,0,0,0,0,0,0,0,0,0,0,0,0,0,0,0,0,0,0,0,0,0,0,0,0,0,0,0,0,0,0,0,0,0,0,0,0,0,0,0,0,0,0,0,0,0,0,0,0,0,0,0,0,0,0,0,0,0,0,0,0,0,0,0,0,0,0,0,0,0],"id":14,"left_children":[1,3,5,7,9,11,13,15,17,19,21,23,25,-1,-1,27,29,31,33,35,37,39,41,43,45,-1,47,49,51,53,55,57,59,61,-1,63,65,67,69,71,73,75,77,79,-1,81,83,-1,-1,-1,-1,-1,-1,-1,-1,-1,-1,-1,-1,-1,-1,-1,-1,-1,-1,-1,-1,-1,-1,-1,-1,-1,-1,-1,-1,-1,-1,-1,-1,-1,-1,-1,-1,-1,-1],"loss_changes":[1.8296016E3,2.533612E1,4.269303E2,6.4525116E1,2.7341034E1,1.1982715E2,2.189331E-1,4.1826553E0,2.5023071E1,5.154297E0,5.3163788E1,6.242389E1,1.0057518E1,0E0,0E0,1.1715202E0,8.183315E0,1.6995544E0,1.1725082E0,2.88089E0,7.536507E0,5.868988E-1,2.9670433E1,1.5036091E1,7.316284E-1,0E0,3.3563995E-1,1.1303501E0,6.896496E-1,2.6407242E-3,3.8857918E0,1.2263184E0,6.203598E0,9.8353577E-1,0E0,4.221138E0,4.7147064E0,1.0079821E0,3.0524406E0,1.5252686E-1,2.8143768E0,1.006595E1,4.6342087E0,1.0926378E0,0E0,1.1212769E0,2.9013062E-1,0E0,0E0,0E0,0E0,0E0,0E0,0E0,0E0,0E0,0E0,0E0,0E0,0E0,0E0,0E0,0E0,0E0,0E0,0E0,0E0,0E0,0E0,0E0,0E0,0E0,0E0,0E0,0E0,0E0,0E0,0E0,0E0,0E0,0E0,0E0,0E0,0E0,0E0],"parents":[2147483647,0,0,1,1,2,2,3,3,4,4,5,5,6,6,7,7,8,8,9,9,10,10,11,11,12,12,15,15,16,16,17,17,18,18,19,19,20,20,21,21,22,22,23,23,24,24,26,26,27,27,28,28,29,29,30,30,31,31,32,32,33,33,35,35,36,36,37,37,38,38,39,39,40,40,41,41,42,42,43,43,45,45,46,46],"right_children":[2,4,6,8,10,12,14,16,18,20,22,24,26,-1,-1,28,30,32,34,36,38,40,42,44,46,-1,48,50,52,54,56,58,60,62,-1,64,66,68,70,72,74,76,78,80,-1,82,84,-1,-1,-1,-1,-1,-1,-1,-1,-1,-1,-1,-1,-1,-1,-1,-1,-1,-1,-1,-1,-1,-1,-1,-1,-1,-1,-1,-1,-1,-1,-1,-1,-1,-1,-1,-1,-1,-1],"split_conditions":[2.0039487E0,-4.7621763E-1,1E0,-4.8140627E-1,-4.4335628E-1,2.2512734E0,1.2331285E0,3E0,1.2331285E0,-4.4854492E-1,-4.398972E-1,2.1077213E0,6.501125E-3,6.4048715E-2,6.0261637E-2,6.501125E-3,1.2331285E0,-4.7967672E-1,-4.7794718E-1,3E0,1.2331285E0,3E0,3E0,1.2331285E0,1.2331285E0,-1.1591566E-3,1.2331285E0,-4.9005398E-1,1E0,-4.8832443E-1,-4.831358E-1,6.501125E-3,6.501125E-3,3E0,-4.779708E-3,-4.5200402E-1,-4.7275853E-1,-4.4681537E-1,-4.4681537E-1,6.501125E-3,6.501125E-3,-4.3297902E-1,-4.1914266E-1,6.501125E-3,-2.1389913E-2,2.154419E0,2.176903E0,-2.2482496E-2,-1.8496305E-2,-8.930354E-3,-3.888543E-3,-7.667935E-3,-5.4119853E-3,-6.562844E-3,-6.9092507E-3,-1.8638927E-2,-8.724543E-3,-2.0784132E-2,-2.4284584E-2,-2.3498265E-2,-1.3789127E-2,-1.1711117E-2,-6.13263E-3,-5.2789412E-3,-8.611015E-3,-3.987145E-3,-1.1020174E-2,1.7782534E-3,-2.2603562E-3,-1.0728351E-2,-1.067784E-3,-1.6814064E-2,-1.8011192E-2,-2.1291954E-2,-1.2784543E-2,1.1082161E-3,-5.9058135E-3,-1.521521E-2,-8.981384E-3,6.1925077E-3,-2.2592724E-3,1.5069248E-2,1.6480282E-2,1.4770369E-2,1.5786154E-2],"split_indices":[3,3,2,3,3,3,0,6,0,3,3,3,0,0,0,0,0,3,3,6,0,6,6,0,0,0,0,3,6,3,3,0,0,6,0,3,3,3,3,0,0,3,3,0,0,3,3,0,0,0,0,0,0,0,0,0,0,0,0,0,0,0,0,0,0,0,0,0,0,0,0,0,0,0,0,0,0,0,0,0,0,0,0,0,0],"split_type":[0,0,0,0,0,0,0,0,0,0,0,0,0,0,0,0,0,0,0,0,0,0,0,0,0,0,0,0,0,0,0,0,0,0,0,0,0,0,0,0,0,0,0,0,0,0,0,0,0,0,0,0,0,0,0,0,0,0,0,0,0,0,0,0,0,0,0,0,0,0,0,0,0,0,0,0,0,0,0,0,0,0,0,0,0],"sum_hessian":[1.2386426E5,7.926411E4,4.460015E4,2.4434312E4,5.4829797E4,4.2715543E4,1.8846067E3,1.5226681E4,9.207633E3,3.0909031E4,2.3920766E4,4.139035E4,1.3251925E3,1.2317977E3,6.528089E2,1.0771768E4,4.4549136E3,6.913055E3,2.294578E3,2.6493344E4,4.415687E3,7.8934644E3,1.6027302E4,1.1018033E3,4.0288547E4,3.5940176E2,9.657907E2,3.6087883E3,7.1629785E3,2.6211775E3,1.833736E3,4.1968633E3,2.7161917E3,1.8409604E3,4.5361746E2,2.2063307E4,4.430037E3,2.7572039E3,1.6584835E3,6.103367E3,1.7900972E3,1.0604754E4,5.422547E3,6.1063464E2,4.9116864E2,2.68756E4,1.3412946E4,5.4220294E2,4.2358774E2,3.0866875E3,5.221009E2,1.8280634E3,5.3349155E3,9.415392E2,1.6796383E3,1.2519725E3,5.817634E2,1.9280005E3,2.2688628E3,1.5759453E3,1.1402462E3,1.4305443E3,4.1041605E2,1.7176361E4,4.886946E3,1.3908215E3,3.0392153E3,1.8236665E3,9.3353723E2,1.2100741E3,4.4840942E2,1.8298431E3,4.273524E3,5.787304E2,1.2113668E3,2.7685845E3,7.83617E3,3.6404312E3,1.782116E3,3.1446442E2,2.9617023E2,8.363126E3,1.8512475E4,8.779225E3,4.633721E3],"tree_param":{"num_deleted":"0","num_feature":"8","num_nodes":"85","size_leaf_vector":"1"}},{"base_weights":[7.453718E-10,-8.913479E-2,1.5895022E-1,-6.44835E-2,-9.8639585E-2,1.3958572E-1,6.176251E-1,-8.360829E-2,-1.901854E-2,-1.1941343E-1,-6.6142246E-2,1.4890184E-1,-1.6087702E-1,6.309294E-2,5.916219E-2,-9.414459E-2,-6.2809765E-2,2.5295233E-3,-6.2125254E-2,-1.086732E-1,-1.7221633E-1,1.0886076E-2,-9.1535635E-2,-3.6280476E-2,1.5376568E-1,-3.2526653E-2,3.1294156E-2,-8.528718E-2,-1.1730687E-1,-9.2412554E-2,-9.251751E-3,1.6577842E-2,-1.0812244E-2,-3.9289758E-2,-9.619446E-2,-1.2169989E-1,-7.234871E-2,-2.1340646E-1,-6.426953E-2,-1.7000267E-2,2.4057066E-2,-1.10603996E-1,-3.9431147E-2,-7.342912E-2,6.2665357E-3,1.7724515E-1,1.510879E-1,5.461085E-3,6.926467E-4,-7.4070464E-3,-9.56878E-3,-1.7264554E-2,-8.022479E-3,-4.341168E-3,-1.2057132E-2,-3.6952451E-3,-1.1233638E-4,4.1783374E-4,3.375984E-3,1.2150205E-3,-4.32373E-3,-3.1836927E-3,-5.499595E-3,-8.55952E-3,-1.03657255E-2,-9.11928E-3,-1.355145E-2,-5.937382E-3,-9.390621E-3,-2.3270657E-2,-1.6692843E-2,1.5759341E-3,-1.81709E-2,-1.2392964E-4,-3.045708E-3,5.1977756E-3,-8.0627966E-4,-1.8425224E-2,-9.614474E-3,-9.7654415E-3,-2.5712687E-4,-9.178163E-3,-4.9837693E-3,1.8590523E-2,1.5924023E-2,1.5367381E-2,1.4592721E-2],"categories":[],"categories_nodes":[],"categories_segments":[],"categories_sizes":[],"default_left":[0,0,0,0,0,0,0,0,0,0,0,0,0,0,0,0,0,0,0,0,0,0,0,0,0,0,0,0,0,0,0,0,0,0,0,0,0,0,0,0,0,0,0,0,0,0,0,0,0,0,0,0,0,0,0,0,0,0,0,0,0,0,0,0,0,0,0,0,0,0,0,0,0,0,0,0,0,0,0,0,0,0,0,0,0,0,0],"id":15,"left_children":[1,3,5,7,9,11,13,15,17,19,21,23,25,-1,-1,27,29,31,33,35,37,39,41,43,45,-1,47,49,51,53,55,57,59,61,63,65,67,69,71,73,75,77,79,81,-1,83,85,-1,-1,-1,-1,-1,-1,-1,-1,-1,-1,-1,-1,-1,-1,-1,-1,-1,-1,-1,-1,-1,-1,-1,-1,-1,-1,-1,-1,-1,-1,-1,-1,-1,-1,-1,-1,-1,-1,-1,-1],"loss_changes":[1.7402712E3,1.8433289E1,3.9189612E2,1.9043129E1,3.833551E1,1.18555786E2,2.4511719E-1,3.3726044E0,6.0253916E0,1.9630157E1,4.3328728E1,3.6999695E1,4.0255817E1,0E0,0E0,2.0890045E0,8.222998E0,8.109523E-1,1.678154E0,1.3615997E1,2.6017044E1,2.0178652E0,1.6547394E1,3.871386E0,2.489502E0,0E0,3.3385706E-1,8.567505E-1,5.7884445E0,4.603979E0,4.1595393E-1,4.4885325E-1,1.6529056E0,1.4995742E-1,5.9698105E-2,8.918793E0,2.1209793E0,3.7619476E0,1.5213146E1,3.73807E-1,3.3465497E0,1.2969177E1,9.581757E0,3.267684E-1,0E0,6.083374E-1,4.570923E-1,0E0,0E0,0E0,0E0,0E0,0E0,0E0,0E0,0E0,0E0,0E0,0E0,0E0,0E0,0E0,0E0,0E0,0E0,0E0,0E0,0E0,0E0,0E0,0E0,0E0,0E0,0E0,0E0,0E0,0E0,0E0,0E0,0E0,0E0,0E0,0E0,0E0,0E0,0E0,0E0],"parents":[2147483647,0,0,1,1,2,2,3,3,4,4,5,5,6,6,7,7,8,8,9,9,10,10,11,11,12,12,15,15,16,16,17,17,18,18,19,19,20,20,21,21,22,22,23,23,24,24,26,26,27,27,28,28,29,29,30,30,31,31,32,32,33,33,34,34,35,35,36,36,37,37,38,38,39,39,40,40,41,41,42,42,43,43,45,45,46,46],"right_children":[2,4,6,8,10,12,14,16,18,20,22,24,26,-1,-1,28,30,32,34,36,38,40,42,44,46,-1,48,50,52,54,56,58,60,62,64,66,68,70,72,74,76,78,80,82,-1,84,86,-1,-1,-1,-1,-1,-1,-1,-1,-1,-1,-1,-1,-1,-1,-1,-1,-1,-1,-1,-1,-1,-1,-1,-1,-1,-1,-1,-1,-1,-1,-1,-1,-1,-1,-1,-1,-1,-1,-1,-1],"split_conditions":[2.0039487E0,-4.7621763E-1,1E0,-4.8140627E-1,-4.4335628E-1,2.2512734E0,1.2331285E0,1.2331285E0,1.2331285E0,-4.4854492E-1,-4.398972E-1,2.1077213E0,6.501125E-3,6.309294E-2,5.916219E-2,-4.8832443E-1,-4.9005398E-1,6.501125E-3,-4.7967672E-1,-4.6065173E-1,1.2331285E0,6.501125E-3,3E0,1.2331285E0,2.1405826E0,-3.2526653E-2,1.2331285E0,6.501125E-3,3E0,-5.0389034E-1,-4.8832443E-1,-4.7967672E-1,-4.7967672E-1,3E0,-4.7794718E-1,6.501125E-3,1.2331285E0,-4.4681537E-1,-4.4681537E-1,2E0,1.2331285E0,-4.364381E-1,6.501125E-3,6.501125E-3,6.2665357E-3,1.2331285E0,1.2331285E0,5.461085E-3,6.926467E-4,-7.4070464E-3,-9.56878E-3,-1.7264554E-2,-8.022479E-3,-4.341168E-3,-1.2057132E-2,-3.6952451E-3,-1.1233638E-4,4.1783374E-4,3.375984E-3,1.2150205E-3,-4.32373E-3,-3.1836927E-3,-5.499595E-3,-8.55952E-3,-1.03657255E-2,-9.11928E-3,-1.355145E-2,-5.937382E-3,-9.390621E-3,-2.3270657E-2,-1.6692843E-2,1.5759341E-3,-1.81709E-2,-1.2392964E-4,-3.045708E-3,5.1977756E-3,-8.0627966E-4,-1.8425224E-2,-9.614474E-3,-9.7654415E-3,-2.5712687E-4,-9.178163E-3,-4.9837693E-3,1.8590523E-2,1.5924023E-2,1.5367381E-2,1.4592721E-2],"split_indices":[3,3,2,3,3,3,0,0,0,3,3,3,0,0,0,3,3,0,3,3,0,0,6,0,3,0,0,0,6,3,3,3,3,6,3,0,0,3,3,6,0,3,0,0,0,0,0,0,0,0,0,0,0,0,0,0,0,0,0,0,0,0,0,0,0,0,0,0,0,0,0,0,0,0,0,0,0,0,0,0,0,0,0,0,0,0,0],"split_type":[0,0,0,0,0,0,0,0,0,0,0,0,0,0,0,0,0,0,0,0,0,0,0,0,0,0,0,0,0,0,0,0,0,0,0,0,0,0,0,0,0,0,0,0,0,0,0,0,0,0,0,0,0,0,0,0,0,0,0,0,0,0,0,0,0,0,0,0,0,0,0,0,0,0,0,0,0,0,0,0,0,0,0,0,0,0,0],"sum_hessian":[1.2282915E5,7.8697984E4,4.4131164E4,2.1901871E4,5.6796113E4,4.2344746E4,1.7864213E3,1.5416216E4,6.4856553E3,3.4646043E4,2.215007E4,4.107178E4,1.2729617E3,1.1663876E3,6.2003375E2,1.0230192E4,5.1860234E3,4.324752E3,2.1609033E3,2.8792617E4,5.853426E3,5.4918037E3,1.6658266E4,1.0509847E3,4.0020797E4,6.8569934E2,5.872623E2,7.4036646E3,2.8265276E3,3.3394849E3,1.8465385E3,2.1064773E3,2.2182744E3,1.2950358E3,8.658676E2,2.1190816E4,7.601801E3,4.236061E3,1.6173651E3,1.7616503E3,3.7301533E3,1.2194425E4,4.463842E3,7.642931E2,2.866916E2,4.0903518E3,3.5930445E4,2.9946875E2,2.8779358E2,3.565988E3,3.8376763E3,1.1326244E3,1.6939032E3,1.2196447E3,2.1198403E3,4.1811157E2,1.4284269E3,1.2242397E3,8.822376E2,1.2989923E3,9.1928204E2,8.803317E2,4.1470404E2,3.629069E2,5.029607E2,6.6073257E3,1.4583491E4,4.747912E3,2.8538887E3,2.990317E3,1.2457438E3,9.6240326E2,6.549618E2,8.11865E2,9.4978534E2,1.9951875E3,1.7349658E3,1.9992908E3,1.0195134E4,1.7298109E3,2.7340308E3,4.2825217E2,3.3604092E2,2.75562E3,1.3347317E3,2.3917223E4,1.2013223E4],"tree_param":{"num_deleted":"0","num_feature":"8","num_nodes":"87","size_leaf_vector":"1"}},{"base_weights":[-1.0234626E-12,-8.525835E-2,1.5130834E-1,-8.258976E-2,-1.7984E-1,1.3301325E-1,6.078482E-1,-7.076043E-2,-9.6719354E-2,-1.6109042E-1,-2.233801E-2,-1.7796464E-1,1.4350507E-1,6.213155E-2,5.8166124E-2,-9.381663E-2,-3.600096E-2,-1.137502E-1,-7.281604E-2,-1.6632346E-2,-1.5516609E-2,-1.22389635E-2,-2.0587933E-1,1.501588E-1,-9.178141E-2,-8.3026655E-2,-1.1473146E-1,-4.333381E-2,-2.0490412E-2,-9.3965724E-2,-1.4743966E-1,-3.4883525E-2,-9.017483E-2,-2.1370424E-2,-1.9734893E-2,1.5400824E-1,1.4254232E-1,3.3988846E-3,-1.3659596E-1,-1.1876353E-2,-7.46653E-3,-6.185814E-3,-1.53439855E-2,-4.056025E-3,-7.496634E-3,-6.363857E-5,-3.116777E-3,-1.0401455E-2,-9.219639E-4,-1.7545821E-2,-7.1356255E-3,3.4037996E-3,-6.236635E-3,-6.9708503E-3,-1.2636544E-2,1.4956857E-2,1.6250676E-2,1.4612185E-2,1.1618618E-2,-1.9275552E-2,-5.358451E-3],"categories":[],"categories_nodes":[],"categories_segments":[],"categories_sizes":[],"default_left":[0,0,0,0,0,0,0,0,0,0,0,0,0,0,0,0,0,0,0,0,0,0,0,0,0,0,0,0,0,0,0,0,0,0,0,0,0,0,0,0,0,0,0,0,0,0,0,0,0,0,0,0,0,0,0,0,0,0,0,0,0],"id":16,"left_children":[1,3,5,7,9,11,13,15,17,19,-1,21,23,-1,-1,25,27,29,31,-1,-1,-1,33,35,37,39,41,43,45,47,49,51,53,-1,-1,55,57,-1,59,-1,-1,-1,-1,-1,-1,-1,-1,-1,-1,-1,-1,-1,-1,-1,-1,-1,-1,-1,-1,-1,-1],"loss_changes":[1.5715603E3,1.9651733E1,3.6663336E2,1.2659729E1,1.7087936E0,1.3776044E2,2.3510742E-1,3.305719E1,1.4048981E1,2.0622253E-2,0E0,2.1128998E0,6.3946228E1,0E0,0E0,5.5872955E0,1.8703747E0,1.3424896E1,9.458618E0,0E0,0E0,0E0,1.8966675E-2,1.142395E0,6.3382845E0,4.8808594E0,1.725956E1,9.7698593E-1,1.1199727E0,1.0818901E1,1.5885971E1,8.550361E0,7.292549E0,0E0,0E0,9.706421E-1,1.242218E0,0E0,3.8529863E0,0E0,0E0,0E0,0E0,0E0,0E0,0E0,0E0,0E0,0E0,0E0,0E0,0E0,0E0,0E0,0E0,0E0,0E0,0E0,0E0,0E0,0E0],"parents":[2147483647,0,0,1,1,2,2,3,3,4,4,5,5,6,6,7,7,8,8,9,9,11,11,12,12,15,15,16,16,17,17,18,18,22,22,23,23,24,24,25,25,26,26,27,27,28,28,29,29,30,30,31,31,32,32,35,35,36,36,38,38],"right_children":[2,4,6,8,10,12,14,16,18,20,-1,22,24,-1,-1,26,28,30,32,-1,-1,-1,34,36,38,40,42,44,46,48,50,52,54,-1,-1,56,58,-1,60,-1,-1,-1,-1,-1,-1,-1,-1,-1,-1,-1,-1,-1,-1,-1,-1,-1,-1,-1,-1,-1,-1],"split_conditions":[2.0039487E0,-4.1395405E-1,1E0,-4.6065173E-1,1.2331285E0,2.1077213E0,1.2331285E0,-4.7448808E-1,-4.398972E-1,6.501125E-3,-2.233801E-2,6.501125E-3,2.2512734E0,6.213155E-2,5.8166124E-2,1.2331285E0,1.2331285E0,-4.4335628E-1,1E0,-1.6632346E-2,-1.5516609E-2,-1.22389635E-2,1.2331285E0,1.2331285E0,6.501125E-3,1E0,-4.8832443E-1,-4.6238127E-1,2E0,-4.4681537E-1,1.2331285E0,6.501125E-3,-4.2606086E-1,-2.1370424E-2,-1.9734893E-2,2E0,2.2080348E0,3.3988846E-3,1.2331285E0,-1.1876353E-2,-7.46653E-3,-6.185814E-3,-1.53439855E-2,-4.056025E-3,-7.496634E-3,-6.363857E-5,-3.116777E-3,-1.0401455E-2,-9.219639E-4,-1.7545821E-2,-7.1356255E-3,3.4037996E-3,-6.236635E-3,-6.9708503E-3,-1.2636544E-2,1.4956857E-2,1.6250676E-2,1.4612185E-2,1.1618618E-2,-1.9275552E-2,-5.358451E-3],"split_indices":[3,3,2,3,0,3,0,3,3,0,0,0,3,0,0,0,0,3,6,0,0,0,0,0,0,6,3,3,6,3,0,0,3,0,0,6,3,0,0,0,0,0,0,0,0,0,0,0,0,0,0,0,0,0,0,0,0,0,0,0,0],"split_type":[0,0,0,0,0,0,0,0,0,0,0,0,0,0,0,0,0,0,0,0,0,0,0,0,0,0,0,0,0,0,0,0,0,0,0,0,0,0,0,0,0,0,0,0,0,0,0,0,0,0,0,0,0,0,0,0,0,0,0,0,0],"sum_hessian":[1.2182155E5,7.7917484E4,4.390406E4,7.578122E4,2.1362703E3,4.2213707E4,1.690354E3,4.1251426E4,3.452979E4,1.4965249E3,6.397454E2,1.3772084E3,4.0836496E4,1.1012739E3,5.8908E2,2.4799826E4,1.64516E4,2.0161316E4,1.4368475E4,7.802481E2,7.1627673E2,4.6226828E2,9.149401E2,3.971378E4,1.1227157E3,1.6363072E4,8.436754E3,1.116933E4,5.2822686E3,1.2704349E4,7.4569673E3,4.5119487E3,9.856525E3,4.646583E2,4.502818E2,2.636795E4,1.3345834E4,2.9501355E2,8.2770215E2,3.1000566E3,1.3263016E4,3.5670195E3,4.869735E3,1.027104E4,8.982904E2,1.8476722E3,3.4345962E3,1.1357409E4,1.3469397E3,5.4490054E3,2.0079619E3,1.2861926E3,3.2257563E3,6.2978975E3,3.5586282E3,1.7332154E4,9.035794E3,1.1746016E4,1.5998184E3,4.9291168E2,3.347905E2],"tree_param":{"num_deleted":"0","num_feature":"8","num_nodes":"61","size_leaf_vector":"1"}},{"base_weights":[3.5096856E-10,-8.752065E-2,1.5194389E-1,-8.276985E-2,-2.3935334E-1,1.353148E-1,5.9885603E-1,-3.2906003E-2,-9.18612E-2,-2.6585707E-2,-1.5913527E-2,1.4051275E-1,-6.667608E-2,6.129839E-2,5.714749E-2,-2.1302687E-2,-9.804319E-2,-1.0678395E-1,-6.840473E-2,4.6883762E-2,1.4593117E-1,3.1016884E-2,-2.0794446E-2,-2.7711945E-2,1.7121386E-2,-1.2715714E-1,-2.087291E-3,-6.9981135E-2,-1.5163282E-1,-3.3968225E-2,-8.1976146E-2,7.4908234E-2,3.0987531E-2,1.4214788E-1,1.5819192E-1,7.263441E-4,5.6962254E-3,-1.4779131E-3,-3.82815E-3,-2.4190932E-3,3.5837125E-3,-3.3655658E-3,-1.9508017E-2,-9.600723E-3,-5.2264994E-3,-1.689506E-2,-5.957143E-3,4.8016277E-4,-4.981402E-3,-6.933392E-3,-1.0741017E-2,9.784678E-3,4.2919987E-3,2.7029894E-3,3.7146471E-3,1.47597315E-2,1.3178577E-2,1.6594082E-2,1.4979049E-2],"categories":[],"categories_nodes":[],"categories_segments":[],"categories_sizes":[],"default_left":[0,0,0,0,0,0,0,0,0,0,0,0,0,0,0,0,0,0,0,0,0,0,0,0,0,0,0,0,0,0,0,0,0,0,0,0,0,0,0,0,0,0,0,0,0,0,0,0,0,0,0,0,0,0,0,0,0,0,0],"id":17,"left_children":[1,3,5,7,9,11,13,15,17,-1,-1,19,21,-1,-1,23,25,27,29,31,33,35,-1,37,39,41,-1,43,45,47,49,51,53,55,57,-1,-1,-1,-1,-1,-1,-1,-1,-1,-1,-1,-1,-1,-1,-1,-1,-1,-1,-1,-1,-1,-1,-1,-1],"loss_changes":[1.6215449E3,5.5789856E1,3.3112268E2,3.4007996E1,4.947464E0,4.512378E1,2.6800537E-1,8.743347E0,2.2204102E1,0E0,0E0,2.12453E1,1.4893152E1,0E0,0E0,2.4195108E0,3.9275036E0,6.39989E1,1.1529396E1,1.0192308E0,1.8144531E0,3.931238E-1,0E0,1.1502433E0,1.0870816E0,8.058514E0,0E0,9.8173065E0,2.7856018E1,4.286648E0,5.6836166E0,6.0427237E-1,3.470218E-2,1.6898193E0,5.82489E-1,0E0,0E0,0E0,0E0,0E0,0E0,0E0,0E0,0E0,0E0,0E0,0E0,0E0,0E0,0E0,0E0,0E0,0E0,0E0,0E0,0E0,0E0,0E0,0E0],"parents":[2147483647,0,0,1,1,2,2,3,3,4,4,5,5,6,6,7,7,8,8,11,11,12,12,15,15,16,16,17,17,18,18,19,19,20,20,21,21,23,23,24,24,25,25,27,27,28,28,29,29,30,30,31,31,32,32,33,33,34,34],"right_children":[2,4,6,8,10,12,14,16,18,-1,-1,20,22,-1,-1,24,26,28,30,32,34,36,-1,38,40,42,-1,44,46,48,50,52,54,56,58,-1,-1,-1,-1,-1,-1,-1,-1,-1,-1,-1,-1,-1,-1,-1,-1,-1,-1,-1,-1,-1,-1,-1,-1],"split_conditions":[-4.1395405E-1,-4.1914266E-1,1E0,1E0,1.2331285E0,2.2512734E0,1.2331285E0,-4.364381E-1,-4.6238127E-1,-2.6585707E-2,-1.5913527E-2,2.1077213E0,1.2331285E0,6.129839E-2,5.714749E-2,-4.4162676E-1,1.2331285E0,-4.7275853E-1,2E0,6.501125E-3,2.1803622E0,6.501125E-3,-2.0794446E-2,-4.7448808E-1,6.501125E-3,6.501125E-3,-2.087291E-3,-4.8832443E-1,3E0,6.501125E-3,1.2331285E0,2.0039487E0,2.0039487E0,1.2331285E0,2.2080348E0,7.263441E-4,5.6962254E-3,-1.4779131E-3,-3.82815E-3,-2.4190932E-3,3.5837125E-3,-3.3655658E-3,-1.9508017E-2,-9.600723E-3,-5.2264994E-3,-1.689506E-2,-5.957143E-3,4.8016277E-4,-4.981402E-3,-6.933392E-3,-1.0741017E-2,9.784678E-3,4.2919987E-3,2.7029894E-3,3.7146471E-3,1.47597315E-2,1.3178577E-2,1.6594082E-2,1.4979049E-2],"split_indices":[3,3,2,6,0,3,0,3,3,0,0,3,0,0,0,3,0,3,6,0,3,0,0,3,0,0,0,3,6,0,0,3,3,0,3,0,0,0,0,0,0,0,0,0,0,0,0,0,0,0,0,0,0,0,0,0,0,0,0],"split_type":[0,0,0,0,0,0,0,0,0,0,0,0,0,0,0,0,0,0,0,0,0,0,0,0,0,0,0,0,0,0,0,0,0,0,0,0,0,0,0,0,0,0,0,0,0,0,0,0,0,0,0,0,0,0,0,0,0,0,0],"sum_hessian":[1.2193491E5,7.736982E4,4.4565086E4,7.502389E4,2.3459307E3,4.2967613E4,1.5974735E3,1.1569987E4,6.3453906E4,1.7615928E3,5.843377E2,4.1889938E4,1.0776741E3,1.0396549E3,5.5781854E2,9.821709E3,1.7482788E3,3.8779363E4,2.4674543E4,2.2921306E3,3.959781E4,6.375572E2,4.4011688E2,8.417861E3,1.4038473E3,1.2689106E3,4.793682E2,2.1301771E4,1.7477592E4,6.976267E3,1.7698275E4,8.2824774E2,1.4638829E3,3.0270012E4,9.327796E3,3.335063E2,3.0405093E2,3.7867842E3,4.631077E3,4.376048E2,9.6624243E2,5.345523E2,7.3435834E2,8.625689E3,1.2676082E4,1.4709698E4,2.7678933E3,2.0242468E3,4.9520205E3,1.1824512E4,5.8737646E3,4.8115567E2,3.4709204E2,8.944879E2,5.6939496E2,1.9828812E4,1.0441198E4,4.842584E3,4.485212E3],"tree_param":{"num_deleted":"0","num_feature":"8","num_nodes":"59","size_leaf_vector":"1"}},{"base_weights":[1.2971435E-10,-7.849809E-2,1.37708E-1,-1.3088939E-1,-6.5266274E-2,1.21456474E-1,5.9060776E-1,-1.4625344E-1,3.6981773E-2,-5.1086474E-2,-1.0751998E-1,-2.2643119E-1,1.342527E-1,6.0522396E-2,5.624177E-2,-1.3100913E-1,-1.8450199E-1,7.0859045E-2,-2.9464206E-3,-8.143008E-2,-2.4440246E-2,-9.702991E-2,-1.7333314E-1,-1.9894946E-1,-2.737175E-2,1.4200637E-1,-1.1928954E-1,-1.6562022E-1,-1.1106449E-1,-1.5688977E-1,-2.3098183E-1,6.091149E-3,8.0535915E-3,-6.649137E-2,-1.5733507E-1,-1.5665628E-2,-6.5439306E-2,-1.0658414E-1,-1.9007757E-2,-2.0650886E-1,-5.7846154E-3,-2.5529979E-2,-1.1089095E-2,1.4585318E-1,1.34415E-1,-1.5851018E-1,8.2885876E-4,-2.0343723E-2,-6.4387494E-3,-8.852067E-3,-1.8534316E-2,-1.9472314E-2,-1.1267534E-2,-2.4993477E-2,-2.0808449E-2,-5.473692E-3,-8.341033E-3,-1.8048158E-2,-1.3132781E-2,6.607934E-5,-3.272143E-3,-1.0443701E-2,-4.206618E-3,-1.1580924E-2,-8.508852E-3,3.5067506E-3,-3.8248089E-3,-1.8631913E-2,-2.2536548E-2,1.4338381E-2,1.5055E-2,1.4212335E-2,1.105937E-2,-5.558049E-3,-2.2823727E-2],"categories":[],"categories_nodes":[],"categories_segments":[],"categories_sizes":[],"default_left":[0,0,0,0,0,0,0,0,0,0,0,0,0,0,0,0,0,0,0,0,0,0,0,0,0,0,0,0,0,0,0,0,0,0,0,0,0,0,0,0,0,0,0,0,0,0,0,0,0,0,0,0,0,0,0,0,0,0,0,0,0,0,0,0,0,0,0,0,0,0,0,0,0,0,0],"id":18,"left_children":[1,3,5,7,9,11,13,15,17,19,21,23,25,-1,-1,27,29,31,-1,33,35,37,39,41,-1,43,45,47,49,51,53,-1,-1,55,57,59,61,63,65,67,-1,-1,-1,69,71,73,-1,-1,-1,-1,-1,-1,-1,-1,-1,-1,-1,-1,-1,-1,-1,-1,-1,-1,-1,-1,-1,-1,-1,-1,-1,-1,-1,-1,-1],"loss_changes":[1.3028782E3,5.3209015E1,3.2201514E2,3.992563E1,3.6716705E1,1.8809174E2,2.8405762E-1,8.243988E0,2.9252458E0,3.710383E1,1.0614609E1,1.8936844E0,8.012134E1,0E0,0E0,6.983139E0,5.1469727E0,7.791567E-2,0E0,2.4320099E1,8.789936E0,9.900795E0,8.094471E0,4.694519E0,0E0,1.1349487E0,6.0541515E0,1.4174438E1,1.0763702E1,4.221321E0,6.002426E-1,0E0,0E0,3.5612793E0,2.0999222E0,5.605335E0,3.921938E0,2.3370209E0,1.5104817E0,5.8361053E-1,0E0,0E0,0E0,2.826538E-1,2.428299E0,6.628067E0,0E0,0E0,0E0,0E0,0E0,0E0,0E0,0E0,0E0,0E0,0E0,0E0,0E0,0E0,0E0,0E0,0E0,0E0,0E0,0E0,0E0,0E0,0E0,0E0,0E0,0E0,0E0,0E0,0E0],"parents":[2147483647,0,0,1,1,2,2,3,3,4,4,5,5,6,6,7,7,8,8,9,9,10,10,11,11,12,12,15,15,16,16,17,17,19,19,20,20,21,21,22,22,23,23,25,25,26,26,27,27,28,28,29,29,30,30,33,33,34,34,35,35,36,36,37,37,38,38,39,39,43,43,44,44,45,45],"right_children":[2,4,6,8,10,12,14,16,18,20,22,24,26,-1,-1,28,30,32,-1,34,36,38,40,42,-1,44,46,48,50,52,54,-1,-1,56,58,60,62,64,66,68,-1,-1,-1,70,72,74,-1,-1,-1,-1,-1,-1,-1,-1,-1,-1,-1,-1,-1,-1,-1,-1,-1,-1,-1,-1,-1,-1,-1,-1,-1,-1,-1,-1,-1],"split_conditions":[2.0039487E0,1E0,1E0,-4.208722E-1,-4.4162676E-1,2.1077213E0,1.2331285E0,-4.4162676E-1,1.2331285E0,-4.7275853E-1,-4.1914266E-1,1.2331285E0,2.2512734E0,6.0522396E-2,5.624177E-2,6.501125E-3,1.2331285E0,6.501125E-3,-2.9464206E-3,-4.7794718E-1,3E0,-4.2260176E-1,1.2331285E0,6.501125E-3,-2.737175E-2,1.2331285E0,1.2331285E0,-4.5027447E-1,-4.4854492E-1,-4.364381E-1,-4.364381E-1,6.091149E-3,8.0535915E-3,-4.831358E-1,-4.7621763E-1,-4.6238127E-1,6.501125E-3,1.2331285E0,6.501125E-3,6.501125E-3,-5.7846154E-3,-2.5529979E-2,-1.1089095E-2,2E0,2.1803622E0,6.501125E-3,8.2885876E-4,-2.0343723E-2,-6.4387494E-3,-8.852067E-3,-1.8534316E-2,-1.9472314E-2,-1.1267534E-2,-2.4993477E-2,-2.0808449E-2,-5.473692E-3,-8.341033E-3,-1.8048158E-2,-1.3132781E-2,6.607934E-5,-3.272143E-3,-1.0443701E-2,-4.206618E-3,-1.1580924E-2,-8.508852E-3,3.5067506E-3,-3.8248089E-3,-1.8631913E-2,-2.2536548E-2,1.4338381E-2,1.5055E-2,1.4212335E-2,1.105937E-2,-5.558049E-3,-2.2823727E-2],"split_indices":[3,6,2,3,3,3,0,3,0,3,3,0,3,0,0,0,0,0,0,3,6,3,0,0,0,0,0,3,3,3,3,0,0,3,3,3,0,0,0,0,0,0,0,6,3,0,0,0,0,0,0,0,0,0,0,0,0,0,0,0,0,0,0,0,0,0,0,0,0,0,0,0,0,0,0],"split_type":[0,0,0,0,0,0,0,0,0,0,0,0,0,0,0,0,0,0,0,0,0,0,0,0,0,0,0,0,0,0,0,0,0,0,0,0,0,0,0,0,0,0,0,0,0,0,0,0,0,0,0,0,0,0,0,0,0,0,0,0,0,0,0,0,0,0,0,0,0,0,0,0,0,0,0],"sum_hessian":[1.2052534E5,7.67664E4,4.375894E4,1.5476873E4,6.1289527E4,4.2244344E4,1.5145967E3,1.4179274E4,1.2975992E3,4.5891227E4,1.5398299E4,1.4981378E3,4.0746207E4,9.839577E2,5.3063904E2,1.0141651E4,4.037623E3,8.593804E2,4.3821884E2,2.1455992E4,2.4435234E4,1.3283495E4,2.1148042E3,9.5077576E2,5.4736206E2,3.953753E4,1.2086738E3,3.7049443E3,6.436707E3,2.5356482E3,1.5019749E3,4.2736008E2,4.3202026E2,1.792925E4,3.5267424E3,2.0128678E4,4.306557E3,1.1833992E4,1.4495022E3,1.64225E3,4.7255408E2,5.786118E2,3.7216397E2,2.6228473E4,1.3309061E4,9.2428394E2,2.8438995E2,2.696585E3,1.00835944E3,4.939687E3,1.4970198E3,1.364591E3,1.1710571E3,8.1634314E2,6.856318E2,1.0581786E4,7.3474634E3,1.8628584E3,1.6638842E3,1.0284729E4,9.843948E3,1.612559E3,2.6939983E3,8.277306E3,3.5566865E3,3.8017938E2,1.0693229E3,7.983451E2,8.439049E2,1.7211182E4,9.017291E3,1.0051518E4,3.2575437E3,3.7399597E2,5.5028796E2],"tree_param":{"num_deleted":"0","num_feature":"8","num_nodes":"75","size_leaf_vector":"1"}},{"base_weights":[-1.1702206E-10,-7.983696E-2,1.4702523E-1,-9.8916344E-2,-2.7502248E-2,1.3193381E-1,5.8298653E-1,-7.080687E-2,-1.215506E-1,-6.542474E-3,-9.102142E-2,1.3704291E-1,-5.661629E-2,5.9789818E-2,5.5438783E-2,-8.510661E-2,1.0660842E-2,-1.3536024E-1,-9.1283925E-2,3.324427E-2,-2.0350685E-2,-1.2334644E-1,-1.5366966E-2,4.5590293E-2,1.3911812E-1,-1.6125256E-2,2.8224126E-2,-9.672702E-2,-7.211697E-2,2.831029E-2,-2.1380415E-2,-1.1065484E-1,-2.0607601E-1,-6.164787E-2,-1.3753192E-1,-2.1549655E-2,6.1687853E-2,-3.677192E-3,-5.4538354E-2,-6.181191E-2,-1.4873163E-1,1.9842144E-2,-8.932311E-3,9.075668E-3,2.0691503E-2,1.4362709E-1,1.3032568E-1,7.7194124E-3,-1.9098342E-3,-7.814228E-3,-1.2523659E-2,-6.1908634E-3,-1.2820912E-2,5.5788597E-3,1.256864E-3,-8.3621824E-4,-4.56612E-3,-1.4132261E-2,-9.447056E-3,-2.3437385E-2,-1.2741568E-2,-1.2816305E-2,-1.9826463E-3,2.5183312E-3,-1.9720115E-2,2.8204976E-3,-8.803275E-3,8.003711E-3,4.2163134E-3,-4.942118E-3,4.3470488E-4,-3.2955583E-3,-1.5228591E-2,1.7348512E-3,-1.14785E-2,-1.9763825E-2,-8.270661E-3,-1.1653028E-3,6.021234E-3,-3.2687534E-3,8.277104E-3,1.4071296E-2,1.4911358E-2,1.2577026E-2,1.733082E-2],"categories":[],"categories_nodes":[],"categories_segments":[],"categories_sizes":[],"default_left":[0,0,0,0,0,0,0,0,0,0,0,0,0,0,0,0,0,0,0,0,0,0,0,0,0,0,0,0,0,0,0,0,0,0,0,0,0,0,0,0,0,0,0,0,0,0,0,0,0,0,0,0,0,0,0,0,0,0,0,0,0,0,0,0,0,0,0,0,0,0,0,0,0,0,0,0,0,0,0,0,0,0,0,0,0],"id":19,"left_children":[1,3,5,7,9,11,13,15,17,19,21,23,25,-1,-1,27,29,31,33,35,37,39,41,43,45,-1,47,49,51,53,55,57,59,61,63,65,67,69,71,73,75,77,-1,-1,79,81,83,-1,-1,-1,-1,-1,-1,-1,-1,-1,-1,-1,-1,-1,-1,-1,-1,-1,-1,-1,-1,-1,-1,-1,-1,-1,-1,-1,-1,-1,-1,-1,-1,-1,-1,-1,-1,-1,-1],"loss_changes":[1.4249906E3,7.855707E1,2.810069E2,3.667462E1,2.798576E1,3.978766E1,2.7801514E-1,2.996402E1,1.3336609E1,8.684615E0,1.2752502E1,7.6239624E0,9.682098E0,0E0,0E0,3.2956696E0,2.1729295E0,3.8288483E1,1.3710571E1,6.3489594E0,6.6890035E0,5.6985207E0,4.070243E0,1.0030204E0,1.5397949E0,0E0,1.3985425E0,6.1075745E0,5.9100494E0,1.070902E0,4.3107373E-1,8.053848E0,1.2605438E1,1.6972136E1,3.795121E1,4.6086116E0,9.5724964E-1,2.8959477E0,8.110638E0,4.484121E0,8.334309E0,1.3475916E0,0E0,0E0,1.9158E0,3.942871E-1,2.5896912E0,0E0,0E0,0E0,0E0,0E0,0E0,0E0,0E0,0E0,0E0,0E0,0E0,0E0,0E0,0E0,0E0,0E0,0E0,0E0,0E0,0E0,0E0,0E0,0E0,0E0,0E0,0E0,0E0,0E0,0E0,0E0,0E0,0E0,0E0,0E0,0E0,0E0,0E0],"parents":[2147483647,0,0,1,1,2,2,3,3,4,4,5,5,6,6,7,7,8,8,9,9,10,10,11,11,12,12,15,15,16,16,17,17,18,18,19,19,20,20,21,21,22,22,23,23,24,24,26,26,27,27,28,28,29,29,30,30,31,31,32,32,33,33,34,34,35,35,36,36,37,37,38,38,39,39,40,40,41,41,44,44,45,45,46,46],"right_children":[2,4,6,8,10,12,14,16,18,20,22,24,26,-1,-1,28,30,32,34,36,38,40,42,44,46,-1,48,50,52,54,56,58,60,62,64,66,68,70,72,74,76,78,-1,-1,80,82,84,-1,-1,-1,-1,-1,-1,-1,-1,-1,-1,-1,-1,-1,-1,-1,-1,-1,-1,-1,-1,-1,-1,-1,-1,-1,-1,-1,-1,-1,-1,-1,-1,-1,-1,-1,-1,-1,-1],"split_conditions":[2.0039487E0,-4.4335628E-1,1E0,-4.7275853E-1,-4.208722E-1,2.2512734E0,1.2331285E0,-4.7794718E-1,-4.5200402E-1,1E0,-4.1395405E-1,2.1077213E0,6.501125E-3,5.9789818E-2,5.5438783E-2,-4.8832443E-1,-4.7448808E-1,-4.6238127E-1,1.2331285E0,6.501125E-3,1.2331285E0,6.501125E-3,1.2331285E0,6.501125E-3,1.2331285E0,-1.6125256E-2,1.2331285E0,-4.9524263E-1,-4.7967672E-1,6.501125E-3,1.2331285E0,6.501125E-3,1.2331285E0,1E0,1E0,-4.364381E-1,1.2331285E0,-4.4162676E-1,-4.2606086E-1,-4.1914266E-1,-4.1914266E-1,6.501125E-3,-8.932311E-3,9.075668E-3,1.2331285E0,2E0,2.2080348E0,7.7194124E-3,-1.9098342E-3,-7.814228E-3,-1.2523659E-2,-6.1908634E-3,-1.2820912E-2,5.5788597E-3,1.256864E-3,-8.3621824E-4,-4.56612E-3,-1.4132261E-2,-9.447056E-3,-2.3437385E-2,-1.2741568E-2,-1.2816305E-2,-1.9826463E-3,2.5183312E-3,-1.9720115E-2,2.8204976E-3,