tree
version=v4
num_class=1
num_tree_per_iteration=1
label_index=0
max_feature_idx=7
objective=lambdarank
feature_names=cart_size hour_of_day is_complement_to_any_cart_item candidate_popularity_rank cuisine_encoded area_encoded candidate_category_encoded meal_time_encoded
feature_infos=[-1.2201263065918178:1.2331285573708197] none [0:1] [-0.54194030293197382:2.2512734382463102] none none [0:3] none
tree_sizes=3545 3495 3542 3541 3551 3564 3555 3582 3577 3560 3565 3582 3574 3589 3576 3565 3569 3575 3576 3567 3557 3583 3593 3588 3574 3554 3568 3562 3552 3570 3560 3561 3570 3562 3569 3557 3559 3588 3563 3572 3567 3576 3568 3586 3551 3567 3572 3566 3582 3565 3580 3566 3566 3576 3583 3574 3567 3576 3559 3565 3576 3566 3571 3576 3566 3581 3575 3559 3580 3594 3577 3574 3560 3575 3573 3558 3576 3571 3579 3572 3566 3572 3574 3591 3568 3564 3563 3556 3565 3552 3570 3576 3558 3557 3563 3565 3559 3556 3569 3557

Tree=0
num_leaves=31
num_cat=0
split_feature=3 2 3 3 3 3 0 3 0 0 3 6 6 3 0 3 6 6 3 3 3 3 3 0 3 3 3 3 3 3
split_gain=13618.4 469.303 416.424 436.606 15.4805 3.87047 1.92302 2.00951 1.27701 1.25836 2.44464 2.34626 1.55974 1.13957 1.88662 2.41104 2.26865 1.15712 1.08902 0.992756 0.931918 0.904105 1.50318 0.886443 0.86895 0.783647 0.759433 0.659142 1.04753 0.554443
threshold=1.0000000180025095e-35 1.0000000180025095e-35 2.0558349535694398 2.2296541368440019 -0.45632786937883135 -0.4822710310616018 0.61981484138016052 -0.51167328096874154 0.61981484138016052 0.61981484138016052 -0.47535285461286297 1.5000000000000002 2.5000000000000004 -0.47535285461286297 1.0000000180025095e-35 -0.48054148694941706 2.5000000000000004 1.5000000000000002 -0.46151650171538544 -0.46324604582757017 -0.48573011928597121 -0.49610738395907933 -0.49264829573470997 1.0000000180025095e-35 -0.5056198765760952 -0.47708239872504771 -0.46324604582757017 -0.47708239872504771 -0.47881194283723244 -0.52896872209058843
decision_type=2 2 2 2 2 2 2 2 2 2 2 2 2 2 2 2 2 2 2 2 2 2 2 2 2 2 2 2 2 2
left_child=4 2 -2 -4 5 6 20 -8 -3 13 -11 19 -13 14 15 -7 25 18 26 -12 29 24 -23 -5 -9 -16 -15 28 -17 -1
right_child=1 8 3 23 -6 9 7 21 -10 10 11 12 -14 17 16 27 -18 -19 -20 -21 -22 22 -24 -25 -26 -27 -28 -29 -30 -31
leaf_value=-0.0730733439928761 -0.047490027657043285 0.19766323523725426 0.12010737920404818 -0.052985083343929817 -0.05599278188877263 -0.060377628836484266 -0.072650736893928633 -0.063545792223515682 0.18888716406654008 -0.069971460633561397 -0.051123370769271037 -0.068013136322885581 -0.058194763024125601 -0.064451763328094977 -0.062952047233357317 -0.042312742793247385 -0.047255641205105683 -0.059940318098054217 -0.057381016976734513 -0.061375189046758052 -0.075672269836201719 -0.070718408919138456 -0.058837520962719804 -0.037942037138429668 -0.050887926403703237 -0.074152941880203355 -0.072250448856097549 -0.039099489831463698 -0.058021904883724801 -0.066852724581353315
leaf_weight=159.10255581350066 162.55276927072555 496.22773716296069 5197.234010127373 61.97207213123329 4997.4324465054087 238.82288585533388 158.73356130858883 82.472865420160815 249.00299442885444 459.24121067672968 241.77463039360009 479.11653144680895 244.29639292694628 491.4258563159965 323.26437528943643 87.31753470026888 86.46275417949073 1491.0278222302441 166.47825891128741 155.02475621085614 151.700986122014 158.17039069975726 325.92951855715364 106.47420164151117 158.39536297135055 77.421482426812872 167.40200147707947 83.506800636416301 82.605830186512321 1440.8745341121685
leaf_count=4292 4513 2270 58199 1696 129531 6338 4251 2134 1331 12633 6292 12782 6458 12936 8614 2179 2101 39138 4327 4248 4271 4241 8511 2876 4228 2122 4495 2157 2168 38668
internal_value=-1.76604e-09 0.120237 0.110195 0.114972 -0.0603056 -0.0631753 -0.0662629 -0.0624597 0.194731 -0.0615062 -0.063827 -0.061308 -0.0646975 -0.060394 -0.0575344 -0.0531682 -0.0619463 -0.0616032 -0.0646073 -0.0551286 -0.0681815 -0.0602284 -0.0627194 -0.0434764 -0.055222 -0.0651163 -0.0664333 -0.0463744 -0.0499495 -0.0674713
internal_weight=18781.5 6273.46 5528.23 5365.68 12508 7510.57 2635.38 883.702 745.231 4875.19 1579.45 1120.21 723.413 3295.74 979.402 492.253 487.149 2316.33 825.306 396.799 1751.68 724.968 484.1 168.446 240.868 400.686 658.828 253.43 169.923 1599.98
internal_count=400000 70885 67284 62771 329115 199584 70596 23365 3601 128988 42413 29780 19240 86575 25679 12842 12837 60896 21758 10540 47231 19114 12752 4572 6362 10736 17431 6504 4347 42960
is_linear=0
shrinkage=0.1


Tree=1
num_leaves=31
num_cat=0
split_feature=3 2 3 3 3 3 6 3 3 3 0 0 3 3 6 3 0 0 0 3 3 0 3 0 3 3 3 3 3 0
split_gain=11848.2 3770.92 669.768 619.877 38.7707 31.518 22.8222 33.4081 16.1955 12.612 13.405 10.9449 26.5659 11.4843 10.1489 7.87611 7.27022 5.17711 4.92718 6.69665 6.65968 4.82218 10.0738 6.49355 14.3122 5.53702 4.67154 5.97248 4.44539 4.26123
threshold=1.0000000180025095e-35 1.0000000180025095e-35 2.2296541368440019 2.0558349535694398 2.1682553208614457 -0.45632786937883135 2.5000000000000004 2.1241519460007354 -0.49610738395907933 -0.5056198765760952 0.61981484138016052 0.61981484138016052 -0.45113923704227726 -0.45113923704227726 1.5000000000000002 -0.47881194283723244 0.61981484138016052 0.61981484138016052 0.61981484138016052 -0.46324604582757017 -0.47362331050067835 0.61981484138016052 2.1587428282444296 1.0000000180025095e-35 2.1587428282444296 2.1587428282444296 2.1941984825442158 2.1786325855345536 -0.48054148694941706 0.61981484138016052
decision_type=2 2 2 2 2 2 2 2 2 2 2 2 2 2 2 2 2 2 2 2 2 2 2 2 2 2 2 2 2 2
left_child=5 2 3 -2 6 8 7 17 9 -1 -11 13 -13 -7 18 28 -3 -5 -10 20 -20 23 -23 25 -25 -9 27 29 -16 -6
right_child=1 16 -4 4 26 11 -8 21 14 10 -12 12 -14 -15 15 -17 -18 -19 19 -21 -22 22 -24 24 -26 -27 -28 -29 -30 -31
leaf_value=-0.032217544826388306 -0.048339728036621232 0.17676156471927668 -0.053763649943769753 0.052221315728717368 0.055226718645645323 -0.047993342516787552 0.047138590592309251 0.040938332610797941 -0.031737218696294152 -0.035801148508803594 -0.053893669150344263 -0.014230335565965188 -0.035821616547997738 -0.037720286145491437 -0.030460753940278185 -0.026638770940931825 0.16493946596154052 0.042660935090421966 -0.03071544677668114 -0.027415881838639185 -0.045584663725994366 0.043831213116070328 0.030526709188579693 0.025322583268052541 0.041344411318795564 0.031327068373597063 0.053991682351878546 0.045812426251515243 -0.038481581826314455 0.046662857667269034
leaf_weight=1963.6830470622517 735.3803770756349 1518.1987391449511 750.78745326050557 1728.188674014993 1729.2880956577137 1200.2614439467434 5584.1545338975266 1743.8810963835567 3358.7001915127039 895.20116640720516 754.80386074213311 639.6618139478378 5222.063968482893 11654.614404190332 5623.1861039651558 7274.038544985 791.31667376961559 842.57428038585931 421.62517970707268 451.03520369436592 1054.7336696088314 1735.6986896479502 846.74675058107823 1705.8211837867275 828.2674707332626 913.31961245462298 2564.3034856235608 3016.6771839112043 787.79654523357749 875.02749491017312
leaf_count=19247 4513 2270 4572 4402 4363 8478 12950 4313 30347 8563 4228 4339 38465 78249 51196 64870 1331 2105 4184 4248 6292 4238 2122 4224 2116 2256 6461 6425 6409 2224
internal_value=6.42182e-10 0.0503319 0.0392914 0.042103 0.0448611 -0.034012 0.0419867 0.0392056 -0.0314972 -0.0376329 -0.0440777 -0.0370465 -0.0334655 -0.0386795 -0.0303285 -0.028891 0.172711 0.0490879 -0.03405 -0.0380802 -0.0413382 0.0359376 0.0394689 0.034181 0.0305593 0.0376348 0.0504547 0.0488411 -0.0314464 0.0523493
internal_weight=69211 27909.6 25600.1 24849.3 24113.9 41301.4 15928.7 10344.5 22584.8 3613.69 1650.01 18716.6 5861.73 12854.9 18971.1 13685 2309.52 2570.76 5286.09 1927.39 1476.36 7773.73 2582.45 5191.29 2534.09 2657.2 8185.3 5620.99 6410.98 2604.32
internal_count=400000 70885 67284 62712 58199 329115 38726 25776 199584 32038 12791 129531 42804 86727 167546 122475 3601 6507 45071 14724 10476 19269 6360 12909 6340 6569 19473 13012 57605 6587
is_linear=0
shrinkage=0.1


Tree=2
num_leaves=31
num_cat=0
split_feature=3 2 3 3 3 3 6 0 6 3 0 3 0 6 0 6 6 3 0 3 3 0 0 6 3 3 3 3 0 3
split_gain=11325.5 2145.95 335.521 214.958 162.426 70.7212 84.7541 46.7485 56.1646 42.5925 22.1227 14.9429 13.0459 12.1507 9.23197 8.75192 8.52728 7.3258 6.36032 7.23791 8.18366 6.05418 5.98653 5.91466 5.83185 4.06731 3.96036 5.38651 3.72384 5.10315
threshold=1.0000000180025095e-35 1.0000000180025095e-35 2.2296541368440019 -0.45632786937883135 2.0558349535694398 -0.48054148694941706 2.5000000000000004 0.61981484138016052 1.5000000000000002 -0.46324604582757017 0.61981484138016052 -0.49264829573470997 1.0000000180025095e-35 2.5000000000000004 0.61981484138016052 2.5000000000000004 1.5000000000000002 -0.48918920751034062 0.61981484138016052 -0.51167328096874154 -0.49610738395907933 1.0000000180025095e-35 0.61981484138016052 1.5000000000000002 -0.47881194283723244 -0.46151650171538544 2.1561485120761525 2.1682553208614457 1.0000000180025095e-35 -0.46929945022021657
decision_type=2 2 2 2 2 2 2 2 2 2 2 2 2 2 2 2 2 2 2 2 2 2 2 2 2 2 2 2 2 2
left_child=3 2 4 5 -2 11 7 8 25 23 13 18 17 -6 -5 -12 -11 -13 -1 -20 -21 -8 -4 -9 -10 28 -17 -28 -7 -30
right_child=1 -3 22 14 10 6 21 9 24 16 15 12 -14 -15 -16 26 -18 -19 19 20 -22 -23 -24 -25 -26 -27 27 -29 29 -31
leaf_value=-0.028873000842423793 -0.0078342088897485045 0.15992765384308588 -0.019711432849985534 -0.020452800202031565 0.055126952061296412 -0.032533642166365499 -0.049382890019909503 -0.014547022321343576 -0.038279740448074674 -0.051746672004516353 0.048546957201737746 -0.010585262970637064 -0.037251304878227857 0.048898203458549158 -0.025483837954680372 0.046412219062163584 -0.029331199255042951 -0.029413867304825005 -0.032156531435470169 -0.009703319263925857 -0.027463326776488207 -0.058718297838911464 -0.040715734407756159 -0.024572278645806932 -0.048588814808085287 -0.037934730187566101 0.032365565549308799 0.044031228433482554 -0.033206702257122016 -0.019757842748086882
leaf_weight=3188.9274325878359 489.14774580206722 1825.9889485538006 383.29855202371255 10646.896998085314 8520.3868251983076 1291.3949076333083 1022.324388910085 924.3654203065671 618.4828401338309 681.45645663328469 4425.5093849948607 239.2708240551874 3846.9083507927135 4952.0599078861997 5547.959955164697 904.74578746687621 225.99565097643062 1515.3369531433564 418.91678581666201 659.89877595752478 427.5592448990792 2167.6242563445121 210.05637875199318 1619.5841556689702 4866.2939149215817 606.41763578355312 802.59080229140818 780.95063608139753 451.49152508378029 752.19875004747882
leaf_count=29956 4513 3601 3178 86727 25962 10823 6563 8326 4308 4248 12700 2130 29928 13099 42804 2055 2093 12826 4251 6362 4241 12992 1394 14899 30424 4327 2159 2224 4299 6588
internal_value=-1.28463e-10 0.0558553 0.0470036 -0.0311878 0.0491112 -0.0369055 -0.0412339 -0.0373935 -0.0413445 -0.0275643 0.0504776 -0.0305043 -0.0339921 0.0528375 -0.0221763 0.0458791 -0.0461642 -0.0268463 -0.0263434 -0.0209883 -0.0166861 -0.0557265 -0.0271473 -0.0209295 -0.0474263 -0.0305892 0.0411342 0.0381187 -0.0288039 -0.0248024
internal_weight=65014 23294.7 21468.7 41719.3 20875.4 25524.4 15227.6 12037.7 8586.28 3451.4 20386.2 10296.8 5601.52 13472.4 16194.9 6913.8 907.452 1754.61 4695.3 1506.37 1087.46 3189.95 593.355 2543.95 5484.78 3101.5 2488.29 1583.54 2495.09 1203.69
internal_count=400000 70885 67284 329115 62712 199584 109890 90335 60769 29566 58199 89694 44884 39061 129531 19138 6341 14956 44810 14854 10603 19555 4572 23225 34732 26037 6438 4383 21710 10887
is_linear=0
shrinkage=0.1


Tree=3
num_leaves=31
num_cat=0
split_feature=3 2 3 3 3 3 6 0 3 0 0 0 3 0 3 3 3 0 0 0 3 0 3 6 3 3 6 3 3 3
split_gain=7676.72 1803.88 543.921 345.102 88.0499 29.6526 51.2107 19.9451 19.044 14.8797 25.0845 13.7775 22.4705 5.70716 12.0633 8.60839 9.73032 5.64454 7.58847 5.26664 5.0764 3.66861 3.40763 3.34964 6.17308 4.8805 3.43493 3.19821 3.03822 2.78287
threshold=1.0000000180025095e-35 1.0000000180025095e-35 2.0558349535694398 2.2296541368440019 -0.45113923704227726 -0.48918920751034062 1.5000000000000002 0.61981484138016052 -0.47362331050067835 0.61981484138016052 1.0000000180025095e-35 0.61981484138016052 -0.46324604582757017 0.61981484138016052 -0.49264829573470997 -0.49610738395907933 -0.51167328096874154 0.61981484138016052 1.0000000180025095e-35 0.61981484138016052 2.1786325855345536 1.0000000180025095e-35 2.1941984825442158 1.5000000000000002 -0.44768014881790791 -0.43816765620089204 1.0000000180025095e-35 -0.44508583264963081 -0.45632786937883135 2.1561485120761525
decision_type=2 2 2 2 2 2 2 2 2 2 2 2 2 2 2 2 2 2 2 2 2 2 2 2 2 2 2 2 2 2
left_child=4 2 -2 19 5 13 8 -6 17 10 -5 -10 -13 14 -1 16 -15 18 -7 -4 29 -16 -22 26 -25 27 -9 -26 -14 -21
right_child=1 -3 3 9 7 6 -8 23 11 -11 -12 12 28 15 21 -17 -18 -19 -20 20 22 -23 -24 24 25 -27 -28 -29 -30 -31
leaf_value=-0.024503743116081118 -0.047663918913018077 0.1495539925258734 0.044406592126709638 -0.01190462565518568 -0.034936934483775127 -0.04462519687226979 -0.016896744837915308 -0.02672343858390144 -0.021916284312707243 -0.0041194485594390996 -0.060050871882029982 -0.042995866355258233 -0.014858588279828267 -0.024501753740615789 -0.046707663761193841 -0.024064281699189741 -0.043643790903630277 -0.053374412214137579 -0.020461638346280134 0.040748679194542475 0.032309299417197374 -0.029801344754841242 0.04126364419610147 -0.019820750224173338 -0.027187939904398647 -0.027604441873882803 -0.017317612847286865 -0.039815562449887841 -0.026102887749615479 0.045581746672177542
leaf_weight=2939.9550460213795 714.6441968716681 1557.5643304260448 13491.409893412609 171.25274610426277 11553.255680307862 377.25287147052586 10941.629643581342 1355.6302362589631 3181.8601315354463 130.51971857622266 293.97028746129945 1017.9641809449531 368.62059667916037 367.00488449726254 353.84454337274656 617.93918436625972 960.64139123260975 291.8020433334168 198.27389153838158 3133.4272768711671 954.16464381478727 201.4110400644131 766.32724873907864 548.32475708867423 267.9797787356656 1362.8288431151304 544.09308300493285 797.32983111555222 690.29965624853503 1922.228880204726
leaf_count=29956 4513 3601 39061 1696 78249 2157 109755 10821 30236 1394 1482 6292 4248 4251 2130 6341 6362 2034 2122 8398 2103 2178 2132 4216 2156 10718 4217 6337 4339 6505
internal_value=1.57661e-11 0.0456228 0.0381207 0.0410592 -0.0271074 -0.0230447 -0.0209954 -0.0326734 -0.0283159 -0.0339568 -0.0423278 -0.0260516 -0.0323871 -0.0294733 -0.0270569 -0.0338143 -0.0383523 -0.0420449 -0.0363006 0.0432642 0.0409896 -0.0405751 0.0362977 -0.0273102 -0.0294041 -0.0315683 -0.0240295 -0.0366391 -0.0221886 0.0425863
internal_weight=62073.5 23135.5 21577.9 20863.3 38937.9 22508.5 17067.7 16429.4 6126.07 595.743 465.223 5258.74 2076.88 5440.8 3495.21 1945.59 1327.65 867.329 575.527 20267.6 6776.15 555.256 1720.49 4876.19 2976.46 2428.14 1899.72 1065.31 1058.92 5055.66
internal_count=400000 70885 67284 62771 329115 212401 161183 116714 51428 4572 3178 45115 14879 51218 34264 16954 10613 6313 4279 58199 19138 4308 4235 38465 23427 19211 15038 8493 8587 14903
is_linear=0
shrinkage=0.1


Tree=4
num_leaves=31
num_cat=0
split_feature=3 2 3 3 3 3 3 3 0 0 0 3 6 6 0 6 6 0 0 3 0 0 3 3 0 0 6 6 3 3
split_gain=6408.38 1378.42 227.432 75.3078 47.5142 66.0286 40.4421 52.4061 32.6977 26.5485 23.523 30.7095 18.7922 17.8663 9.51013 16.1469 23.8713 9.13046 17.6076 9.10454 8.83237 8.33799 12.3888 12.807 7.09246 5.48338 107.316 90.6404 13.7367 5.49701
threshold=1.0000000180025095e-35 1.0000000180025095e-35 2.2296541368440019 2.0558349535694398 -0.45113923704227726 -0.45632786937883135 -0.48918920751034062 -0.47881194283723244 0.61981484138016052 1.0000000180025095e-35 1.0000000180025095e-35 -0.47189376638849362 2.5000000000000004 1.5000000000000002 0.61981484138016052 1.5000000000000002 1.0000000180025095e-35 1.0000000180025095e-35 0.61981484138016052 -0.46151650171538544 0.61981484138016052 0.61981484138016052 -0.4822710310616018 -0.48054148694941706 1.0000000180025095e-35 0.61981484138016052 1.5000000000000002 1.5000000000000002 -0.46670513405193953 -0.4649755899397548
decision_type=2 2 2 2 2 2 2 2 2 2 2 2 2 2 2 2 2 2 2 2 2 2 2 2 2 2 2 2 2 2
left_child=4 2 3 -2 5 6 -1 9 24 -8 13 -12 25 19 -6 16 -16 -4 -19 -9 -5 22 -11 -24 -7 26 28 -27 -13 -28
right_child=1 -3 17 20 14 8 7 10 -10 21 11 12 -14 -15 15 -17 -18 18 -20 -21 -22 -23 23 -25 -26 27 29 -29 -30 -31
leaf_value=-0.017103218177750235 -0.00059242445309585297 0.1414337646548787 -0.039651495179483381 0.041142960786627769 -0.017509627569388796 -0.044840632998925517 -0.043180508409688595 -0.021401983208599124 -0.025781231714582121 -0.022731834067431358 -0.014697629475199332 -0.030899869057605785 -0.015632005966062935 -0.01175355467616313 -0.021463845135281247 -0.017816930902018639 -0.044310619506562593 0.014505294005356092 -0.033556655705579919 -0.03974781327637484 0.036677398696208487 -0.024142212816641626 -0.044175718562798137 -0.017736415134675911 -0.059229759010523568 -0.0076728455035127187 -0.013988087366597271 -0.047344851360622005 -0.053293571064488024 -0.0010696541972017352
leaf_weight=5279.7744103812147 476.90608394239098 1343.5015283701941 252.0735146291554 13011.376286978833 10252.933153134538 653.01503370294813 2305.4281195326475 1288.942273175111 695.83652915386483 661.22709447843954 1758.0446859647054 363.41545587452129 838.2571280808188 2457.7933100955561 1250.6045395133551 2598.4248028020374 720.97658750205301 127.87283852184191 188.72270297491923 342.36118870018981 6715.0764112668112 1630.2593565545976 1056.7838176244404 221.63219532277435 720.51598679856397 837.4896808215417 981.24722306616604 1843.8559258413734 1112.3860977590084 495.82730267522857
leaf_count=51218 4513 3601 1696 39061 78249 4225 15005 10823 4339 6479 16983 2161 8760 21738 10821 23427 4217 1482 1394 2241 19138 14901 6371 2129 4253 8446 8753 12782 6513 4281
internal_value=8.90112e-11 0.0432673 0.036918 0.0386735 -0.0237045 -0.026318 -0.0248084 -0.0270443 -0.0434418 -0.0348157 -0.0233381 -0.0264181 -0.0296015 -0.0171387 -0.0192007 -0.0229946 -0.0298186 -0.0254509 -0.0141444 -0.0252522 0.0396228 -0.0294137 -0.0338444 -0.0395921 -0.0523888 -0.0316799 -0.0287071 -0.0349537 -0.0477791 -0.0096516
internal_weight=62482.6 22115.5 20772 20203.4 40367 25544.1 23474.7 18195 2069.37 5875.33 12319.6 8230.52 6472.48 4089.1 14822.9 4570.01 1971.58 568.669 316.596 1631.3 19726.5 3569.9 1939.64 1278.42 1373.53 5634.22 2952.88 2681.35 1475.8 1477.07
internal_count=400000 70885 67284 62712 329115 212401 199584 148366 12817 44885 103481 68679 51696 34802 116714 38465 15038 4572 2876 13064 58199 29880 14979 8500 8478 42936 21708 21228 8674 13034
is_linear=0
shrinkage=0.1


Tree=5
num_leaves=31
num_cat=0
split_feature=3 2 3 3 3 3 6 0 6 3 0 6 0 0 3 3 6 3 3 6 3 6 3 0 0 0 0 6 0 3
split_gain=4847.71 1197.69 455.302 164.732 114.865 155.149 58.4986 66.5874 40.3883 84.4041 72.595 57.1087 32.8815 29.7268 21.949 17.8636 17.5686 21.4882 16.198 72.161 17.3353 14.3755 14.0647 27.5507 12.2946 10.4509 9.64554 9.46831 8.13337 7.9376
threshold=1.0000000180025095e-35 1.0000000180025095e-35 2.0558349535694398 2.2296541368440019 -0.47881194283723244 -0.46324604582757017 1.0000000180025095e-35 0.61981484138016052 1.5000000000000002 -0.46929945022021657 1.0000000180025095e-35 2.5000000000000004 1.0000000180025095e-35 0.61981484138016052 -0.47535285461286297 -0.44508583264963081 1.5000000000000002 -0.46929945022021657 -0.45632786937883135 1.5000000000000002 -0.45113923704227726 1.5000000000000002 -0.49264829573470997 1.0000000180025095e-35 1.0000000180025095e-35 0.61981484138016052 1.0000000180025095e-35 1.0000000180025095e-35 1.0000000180025095e-35 -0.44940969293009253
decision_type=2 2 2 2 2 2 2 2 2 2 2 2 2 2 2 2 2 2 2 2 2 2 2 2 2 2 2 2 2 2
left_child=4 2 -2 -4 22 6 28 8 9 10 -8 -10 -13 18 -9 29 17 -16 19 -7 -20 27 -1 -24 -5 -26 -11 -17 -6 -15
right_child=1 -3 3 24 5 13 7 14 11 26 -12 12 -14 15 16 21 -18 -19 20 -21 -22 -23 23 -25 25 -27 -28 -29 -30 -31
leaf_value=-0.015717427340561026 -0.046445293556875419 0.13493602901254825 0.036112379450856734 0.0040504816427369859 0.0096738596020629342 -0.0037851390690687202 -0.0085190927950920484 -0.047723091857345419 -0.050059945817150654 -0.016171119322672265 -0.07898832943518036 -0.039596377252577732 -0.010327658868251897 -0.026473453378120078 -0.0043470098572122645 -0.017424315672551687 -0.013448597922416781 -0.039897344267642104 0.0012032673260510833 -0.048647184876484784 -0.015573951985257496 -0.02513729564591434 0.0029603822837440705 -0.013130941787662265 -0.041969447698350676 -0.0081964244079625673 0.0049560623477667197 0.00019115567705529367 -0.013425984806079028 -0.037895519057005056
leaf_weight=4568.0287677750457 717.68466060003266 1190.6608010274358 19646.282994559035 156.69096824806184 248.6742378603667 728.59184193983674 228.756520266179 310.07006344897673 4410.9784665373154 428.18700275220908 405.00388523843139 971.88349827507045 634.37262649694458 1650.9315336057916 228.19462300743908 1022.6049013813026 1656.8797273742966 666.99031483032741 656.01330523844808 705.948532568058 10065.393788852962 2066.406340034795 1561.4368969821371 3340.0522152220365 240.98174750804901 147.83262622589245 436.26554336003028 434.89532797178254 393.80372315458953 963.48814708611462
leaf_count=44810 4513 3601 58199 1696 2157 8822 2128 2109 26101 4323 2177 6563 6534 12849 2094 8652 17147 4198 8478 4323 78249 17055 17135 34158 1482 1394 4308 4217 4156 6372
internal_value=1.45861e-11 0.0373805 0.0318253 0.0346073 -0.0213004 -0.0243935 -0.033767 -0.0355798 -0.0405231 -0.0258318 -0.0535524 -0.0441811 -0.028037 -0.0187472 -0.0225997 -0.0244198 -0.0195472 -0.0308351 -0.0158827 -0.0258621 -0.0145474 -0.0197732 -0.0117253 -0.00800483 -0.0195982 -0.0291285 -0.00550881 -0.0121681 -0.00448508 -0.0306828
internal_weight=60884 22100.1 20909.5 20191.8 38783.9 29314.3 11020.1 10377.6 7515.45 1498.21 633.76 6017.23 1606.26 18294.3 2862.13 6138.33 2552.06 895.185 12155.9 1434.54 10721.4 3523.91 9469.52 4901.49 545.505 388.814 864.453 1457.5 642.478 2614.42
internal_count=400000 70885 67284 62771 329115 233012 83995 77682 52134 12936 4305 39198 13097 149017 25548 49145 23439 6292 99872 13145 86727 29924 96103 51293 4572 2876 8631 12869 6313 19221
is_linear=0
shrinkage=0.1


Tree=6
num_leaves=31
num_cat=0
split_feature=3 2 3 3 3 0 0 6 6 3 3 3 0 0 3 3 0 0 0 6 3 3 6 3 3 6 3 0 0 3
split_gain=4266.1 990.815 350.936 61.857 104.031 30.8248 36.8503 31.3221 28.6672 28.2712 26.7469 26.2573 22.7594 34.7053 25.2046 21.2807 18.2982 14.8266 35.5774 14.5067 14.0914 11.9466 10.8128 10.8015 8.95967 8.77628 7.62368 7.06008 16.854 6.12083
threshold=1.0000000180025095e-35 1.0000000180025095e-35 2.2296541368440019 -0.45113923704227726 -0.47189376638849362 0.61981484138016052 1.0000000180025095e-35 1.5000000000000002 1.5000000000000002 -0.47362331050067835 -0.47881194283723244 -0.49610738395907933 1.0000000180025095e-35 0.61981484138016052 -0.4822710310616018 2.0558349535694398 0.61981484138016052 1.0000000180025095e-35 0.61981484138016052 1.5000000000000002 -0.4822710310616018 -0.48054148694941706 2.5000000000000004 -0.48918920751034062 -0.44508583264963081 1.0000000180025095e-35 -0.4822710310616018 1.0000000180025095e-35 0.61981484138016052 -0.48054148694941706
decision_type=2 2 2 2 2 2 2 2 2 2 2 2 2 2 2 2 2 2 2 2 2 2 2 2 2 2 2 2 2 2
left_child=3 2 15 4 9 6 -5 25 -6 10 11 -1 14 26 23 -2 22 -4 -19 -12 -15 -22 -10 -13 -9 -7 -14 -11 -29 -28
right_child=1 -3 17 5 8 7 -8 24 16 27 19 12 13 20 -16 -17 -18 18 -20 -21 21 -23 -24 -25 -26 -27 29 28 -30 -31
leaf_value=-0.015572484766625148 0.010305479300000933 0.12959276029441044 -0.058409375283971471 -0.021454220733312254 -0.014250360136575331 -0.022560552351809954 -0.03299610121708723 -0.00051123492766171356 0.0057315136253293575 -0.051319528964318774 -0.021311323523692253 -0.032253728608196232 -0.01741481992091155 -0.035012018635761713 -0.043191802797886647 0.033422956240949479 -0.011177326053786482 0.012630953425294689 -0.051833174153481959 -0.0034909879646083928 -0.012238635449337881 -0.03857838614275938 -0.007798836360039892 -0.015020674326844695 -0.014086941515351396 -0.036582007180002839 -4.7776404029942672e-05 -0.0011938237215868511 -0.043527927089063195 -0.0192842705122435
leaf_weight=3298.0215701966081 406.49098826898262 1062.9301075052936 287.63107166904956 5054.3602176967543 4240.9604454445653 1324.2399641664233 6110.4416875903262 662.13663164083846 2100.3994110857602 337.0203841032926 737.21856954041868 785.30059081269428 1310.4616972727235 1735.3344593193615 1357.6779399159132 19532.812503190013 1677.2396378680132 135.47712799441069 232.60199357708916 1200.9937227277551 632.308132620994 236.63976190262474 821.6959742011968 677.4927925686352 1829.049769907142 673.40382362320088 615.40883182175457 127.15997002925724 361.08752922946587 226.20884009590372
leaf_count=32038 4513 3601 1696 38810 38716 10821 39439 6372 26041 2128 6313 6483 12835 12752 8517 58199 17177 1482 1394 12895 6389 2101 8757 6488 17055 4217 6371 2177 2094 2129
internal_value=3.60452e-11 0.0354436 0.0305845 -0.0201309 -0.0167699 -0.0249573 -0.027771 -0.0179589 -0.00832009 -0.022247 -0.0210915 -0.0230203 -0.0262622 -0.0220417 -0.0333795 0.0329517 -0.0028519 -0.0413988 -0.0281062 -0.0102691 -0.0298068 -0.0194117 0.00192677 -0.0242722 -0.0104786 -0.0272872 -0.012645 -0.0401869 -0.0325024 -0.00521813
internal_weight=59790.2 21657.9 20595 38132.3 22478.6 15653.6 11164.8 4488.83 8840.3 13638.3 12813.1 10874.9 7576.83 4756.36 2820.47 19939.3 4599.34 655.71 368.079 1938.21 2604.28 868.948 2922.1 1462.79 2491.19 1997.64 2152.08 825.268 488.247 841.618
internal_count=400000 70885 67284 329115 212401 116714 78249 38465 90691 121710 115311 96103 64065 42577 21488 62712 51975 4572 2876 19208 21242 8490 34798 12971 23427 15038 21335 6399 4271 8500
is_linear=0
shrinkage=0.1


Tree=7
num_leaves=31
num_cat=0
split_feature=3 2 3 3 3 3 6 0 0 6 3 0 0 0 3 3 0 3 3 3 0 0 0 3 3 3 0 3 0 0
split_gain=3480.35 850.788 366.312 100.388 97.6181 58.9078 59.7025 19.3694 22.9322 18.8473 22.1736 51.4789 26.3585 21.5892 56.9147 48.5931 29.7515 28.6243 19.5716 18.3462 18.3412 18.2026 17.4885 87.501 77.1604 21.0535 20.4626 16.6916 15.0812 30.8172
threshold=1.0000000180025095e-35 1.0000000180025095e-35 2.0558349535694398 2.2296541368440019 -0.44508583264963081 -0.5056198765760952 2.5000000000000004 1.0000000180025095e-35 0.61981484138016052 1.5000000000000002 -0.4822710310616018 1.0000000180025095e-35 0.61981484138016052 0.61981484138016052 -0.46151650171538544 -0.46929945022021657 1.0000000180025095e-35 -0.46324604582757017 -0.4649755899397548 -0.52896872209058843 1.0000000180025095e-35 1.0000000180025095e-35 1.0000000180025095e-35 -0.48573011928597121 -0.4822710310616018 -0.44768014881790791 0.61981484138016052 -0.47708239872504771 1.0000000180025095e-35 0.61981484138016052
decision_type=2 2 2 2 2 2 2 2 2 2 2 2 2 2 2 2 2 2 2 2 2 2 2 2 2 2 2 2 2 2
left_child=4 2 -2 -4 5 19 9 -5 -9 13 12 18 -11 14 15 20 -17 -15 -12 -1 -7 -21 23 -8 26 -26 -24 -22 -6 -30
right_child=1 -3 3 7 28 6 22 8 -10 10 11 -13 -14 17 -16 16 -18 -19 -20 21 27 -23 24 -25 25 -27 -28 -29 29 -31
leaf_value=-0.022013170673038408 -0.043257232442252276 0.12502544039204649 0.031543367659840081 0.018773629507465486 -0.015018606391522586 -0.0097333792199999266 -0.049161522047440738 -0.045381404798349824 0.0090517732328901351 -0.030218465119915085 0.0059769402978980266 -0.017283771772212159 -0.0058170607049056163 -0.0021429608937023011 -0.0099728521707074108 -0.054109921186038051 -0.028845113872973574 -0.022941289277755638 -0.011947872640455548 -0.054437815381757383 -0.041687566476749788 -0.033483472160150886 -0.023917627069121653 -0.0057882365132787949 -0.044774814917842298 -0.022661570279484133 0.0012497184241316128 -0.013532914835609866 -0.00026413729281382479 -0.013855217486046303
leaf_weight=649.70541039155796 698.40768357226625 943.80962627450936 19334.556763324887 124.27226235205308 3812.974833619548 912.00627882266417 710.17420639726333 231.92467865976505 116.1597064412199 1557.5188584557036 1703.4391544254031 5731.7006113772513 618.46037882799283 1235.1713766616303 1853.0969308188651 1030.7281172852963 850.85700044222176 1425.3177967811935 948.21364079392515 682.4167248159647 509.01119209441822 1056.1547790016048 659.89516873005778 1347.9628548324108 2440.9764024653705 522.74928432248998 632.91338432393968 359.1436964191962 3300.029703307664 3374.1595083080465
leaf_count=6374 4513 3601 58199 1696 30281 8609 4337 1482 1394 12837 17289 51524 6344 12587 17225 6538 6588 10756 8448 4343 4253 8530 6489 13022 17165 4310 6375 4299 30668 29924
internal_value=7.99476e-11 0.0321936 0.0279208 0.0304306 -0.0182078 -0.0213444 -0.0199136 -0.0151169 -0.0272164 -0.0170793 -0.0142885 -0.0119538 -0.0232831 -0.020684 -0.0242533 -0.0314801 -0.0426851 -0.0132854 -0.000432855 -0.0363505 -0.0196368 -0.0417084 -0.0283227 -0.0207545 -0.0319821 -0.0408744 -0.0115966 -0.0300404 -0.0100015 -0.00713516
internal_weight=59373.9 21449.1 20505.3 19806.9 37924.8 27437.6 25049.3 472.357 348.084 18734.7 10559.3 8383.35 2175.98 8175.33 5514.84 3661.75 1881.59 2660.49 2651.65 2388.28 1780.16 1738.57 6314.67 2058.14 4256.53 2963.73 1292.81 868.155 10487.2 6674.19
internal_count=400000 70885 67284 62771 329115 238242 218995 4572 2876 167297 96442 77261 19181 70855 47512 30287 13126 23343 25737 19247 17161 12873 51698 17359 34339 21475 12864 8552 90873 60592
is_linear=0
shrinkage=0.1


Tree=8
num_leaves=31
num_cat=0
split_feature=3 2 3 3 3 0 6 3 0 3 3 0 3 6 3 0 3 3 6 3 3 0 3 3 3 0 3 3 0 0
split_gain=3314.33 706.675 102.312 21.8954 16.477 24.3604 16.8327 14.5448 14.34 11.1853 10.9556 9.07316 12.2814 10.1884 9.34565 8.77868 15.6557 14.5195 8.35869 18.9444 19.014 16.6692 28.1664 14.7568 14.6768 22.2568 53.0023 50.5509 19.86 13.5112
threshold=1.0000000180025095e-35 1.0000000180025095e-35 2.2296541368440019 -0.5056198765760952 -0.49610738395907933 0.61981484138016052 1.5000000000000002 2.0558349535694398 1.0000000180025095e-35 -0.49264829573470997 -0.52896872209058843 0.61981484138016052 -0.45113923704227726 1.0000000180025095e-35 -0.45632786937883135 1.0000000180025095e-35 -0.44076197236916909 -0.42692561947169155 2.5000000000000004 -0.4822710310616018 -0.47535285461286297 0.61981484138016052 -0.48573011928597121 -0.48054148694941706 -0.44508583264963081 1.0000000180025095e-35 -0.4649755899397548 -0.4649755899397548 1.0000000180025095e-35 1.0000000180025095e-35
decision_type=2 2 2 2 2 2 2 2 2 2 2 2 2 2 2 2 2 2 2 2 2 2 2 2 2 2 2 2 2 2
left_child=3 2 7 10 5 -5 11 -2 -4 -8 -1 15 14 -14 -13 17 -17 -6 23 21 -21 22 -20 -11 25 27 -27 -25 -26 -24
right_child=1 -3 8 4 6 -7 9 -9 -10 18 -12 12 13 -15 -16 16 -18 -19 19 20 -22 -23 29 24 28 26 -28 -29 -30 -31
leaf_value=-0.017703937384310697 0.010492554925244443 0.12114149104039457 -0.034642231095315772 -0.017051045434643017 -0.016541647880788251 -0.042556748858429277 -0.0056893990873974985 0.029472738712372961 -0.0013074817515046908 -0.013808467392180454 -0.00063688859842139008 -0.011380546443745927 -0.0090946601462739193 0.0090031298504275655 -0.024860879377305439 -0.016033034968335483 -0.029487311017429269 -0.00069083801973320177 -0.0052803565283056847 0.0029066093436587504 -0.016522752847300651 -0.035651082423779089 -0.049643151543840018 -0.041222020431001823 -0.005265656461965822 -0.011347272842400946 -0.032059217132344796 -0.012924793317258458 -0.02239865159571457 -0.015471788719028642
leaf_weight=582.68862626026385 412.36772178160027 847.08329697116278 225.42371912056115 818.52928316826001 2907.2346897529205 690.2325562502956 559.6370394481346 19308.998447626829 301.84780021919869 2059.1191550331423 1060.9009565159213 1627.5090864317026 1176.1180870920653 422.92483292287216 751.88447061559418 2822.3299125030171 1246.9979261544067 721.26802069321275 716.23462416348048 550.9557491694577 5870.1169919857057 944.23107355949469 299.3164954315871 1998.7472312859027 955.7600220538443 2576.9003693343839 2373.5634574856376 922.76327425683849 2316.1142735754838 188.63041574507952
leaf_count=6374 4513 3601 1696 8563 28080 4228 6312 58199 2876 19279 12873 14724 10821 4217 4339 25910 8847 6501 8684 6275 52038 6375 2129 13053 8673 25868 17069 8448 17293 2142
internal_value=-1.76017e-11 0.0316571 0.0279136 -0.0179714 -0.0184935 -0.0287195 -0.0180399 0.0290759 -0.015559 -0.0196486 -0.00668753 -0.0149631 -0.0110856 -0.00430804 -0.0156403 -0.0169671 -0.0201559 -0.0133908 -0.0200074 -0.0175753 -0.0148556 -0.0257038 -0.0179038 -0.0215859 -0.023023 -0.0253627 -0.0212779 -0.0322843 -0.0173939 -0.0364332
internal_weight=58256.4 21095.7 20248.6 37160.7 35517.1 1508.76 34008.4 19721.4 527.272 22332.1 1643.59 11676.3 3978.44 1599.04 2379.39 7697.83 4069.33 3628.5 21772.5 8569.49 6421.07 2148.41 1204.18 13203 11143.8 7871.97 4950.46 2921.51 3271.87 487.947
internal_count=400000 70885 67284 329115 309868 12791 297077 62712 4572 193638 19247 103439 34101 15038 19063 69338 34757 34581 187326 77643 58313 19330 12955 109683 90404 64438 42937 21501 25966 4271
is_linear=0
shrinkage=0.1


Tree=9
num_leaves=31
num_cat=0
split_feature=3 2 3 3 3 3 6 0 0 0 0 3 3 3 6 0 3 3 3 6 0 3 0 6 6 0 3 0 3 0
split_gain=2484.63 644.13 323.684 180.759 117.662 58.7988 49.9633 46.2326 28.2657 21.4578 19.3546 18.6781 18.5616 33.193 31.0703 18.5538 65.5246 57.5545 18.222 15.93 25.439 11.5224 12.7687 11.1546 10.7498 8.38461 7.64171 17.6817 8.57815 16.073
threshold=1.0000000180025095e-35 1.0000000180025095e-35 2.0558349535694398 2.2296541368440019 -0.44508583264963081 -0.46670513405193953 1.5000000000000002 0.61981484138016052 1.0000000180025095e-35 1.0000000180025095e-35 0.61981484138016052 -0.4649755899397548 -0.4822710310616018 -0.48054148694941706 1.5000000000000002 1.0000000180025095e-35 -0.44076197236916909 -0.42692561947169155 -0.4649755899397548 2.5000000000000004 0.61981484138016052 -0.5056198765760952 1.0000000180025095e-35 1.5000000000000002 2.5000000000000004 0.61981484138016052 -0.49610738395907933 0.61981484138016052 -0.49264829573470997 0.61981484138016052
decision_type=2 2 2 2 2 2 2 2 2 2 2 2 2 2 2 2 2 2 2 2 2 2 2 2 2 2 2 2 2 2
left_child=4 2 -2 -4 5 12 7 15 18 -5 -8 -10 21 19 -15 17 -17 -6 24 -14 -21 22 -1 25 -7 -13 27 -23 29 -28
right_child=1 -3 3 9 6 8 10 -9 11 -11 -12 23 13 14 -16 16 -18 -19 -20 20 -22 26 -24 -25 -26 -27 28 -29 -30 -31
leaf_value=-0.0055277300672544527 -0.043256171409669197 0.11767673555107799 0.027769826969381246 0.0041593147735592261 -0.007955299336931388 0.007202630294454883 -0.021599030068007119 -0.043043828835192269 -0.010714659212898589 -0.040079163988966812 -0.0092680762585323866 -0.01014540936438308 -0.022900154333306697 -0.024118302443201279 -0.0087752836957166857 -0.038125574832870449 0.0018406630560732472 -0.045460390279983137 -0.01732604838730098 -0.04819160968121728 -0.0056375902394250228 -0.011084815485293829 -0.023790774241214698 0.006268662472974868 -0.018607205426592738 0.0022619007548474821 -0.0094935926239533598 0.015566634817602031 -0.0082505990614099856 -0.032548039400699821
leaf_weight=529.49409289937466 696.30472108745016 757.18812685832381 19241.259503045352 146.78363575972617 658.65270853135735 573.32571335858665 4550.3421665162314 2057.5295102260425 1759.1235589247663 433.3319484947715 1767.2519264109433 1047.3862919098465 1524.6487696940312 2222.8493374622194 3248.9652559576789 756.60750113020185 896.04032164579257 1080.2067540457938 2615.2058964217431 709.66580550768413 175.15378644061275 760.82515140110627 1382.0505938471761 2317.8861519750208 224.58593759289943 1134.7643709108233 783.51522360928357 369.99029165366665 2408.6757288172375 492.4805658836849
leaf_count=6487 4513 3601 58199 1696 6497 6606 34856 12869 17384 2876 17055 10885 12823 19036 32274 4248 8847 6501 23701 4203 2072 8563 12760 25704 2202 10756 8531 4228 25786 4241
internal_value=3.31428e-11 0.0271002 0.0237576 0.0261117 -0.0159944 -0.0120172 -0.0242014 -0.0312178 -0.00596948 -0.0288857 -0.0181496 -0.00197755 -0.0160214 -0.0193146 -0.0150082 -0.0240433 -0.0164565 -0.031254 -0.0132901 -0.0290944 -0.0397679 -0.0121631 -0.0187319 0.0014379 -6.19912e-05 -0.00369335 -0.00955558 -0.00236476 -0.0117624 -0.0183916
internal_weight=57322.1 21274.9 20517.7 19821.4 36047.2 24280.6 11766.6 5449.04 9672.28 580.116 6317.59 6259.16 14608.3 7881.28 5471.81 3391.51 1652.65 1738.86 3413.12 2409.47 884.82 6727.03 1911.54 4500.04 797.912 2182.15 4815.49 1130.82 3684.67 1276
internal_count=400000 70885 67284 62771 329115 238242 90873 38962 97238 4572 51911 64729 141004 70408 51310 26093 13095 12998 32509 19098 6275 70596 19247 47345 8808 21641 51349 12791 38558 12772
is_linear=0
shrinkage=0.1


Tree=10
num_leaves=31
num_cat=0
split_feature=3 2 3 3 3 3 6 0 3 0 6 6 6 0 6 0 0 0 0 6 3 0 6 6 6 6 3 6 3 3
split_gain=2582.83 522.232 67.6567 35.5006 49.7376 30.7601 30.4547 25.531 22.7053 20.4753 68.0593 32.5962 19.5756 18.609 31.9041 17.4733 16.6999 15.9114 15.1723 42.1036 50.3879 14.6307 17.1182 16.1289 12.6592 12.629 12.0499 59.7954 23.3561 10.5829
threshold=1.0000000180025095e-35 1.0000000180025095e-35 2.2296541368440019 -0.44508583264963081 -0.44768014881790791 -0.46670513405193953 1.0000000180025095e-35 1.0000000180025095e-35 -0.49610738395907933 0.61981484138016052 1.5000000000000002 1.5000000000000002 2.5000000000000004 1.0000000180025095e-35 2.5000000000000004 1.0000000180025095e-35 0.61981484138016052 1.0000000180025095e-35 0.61981484138016052 1.5000000000000002 -0.44940969293009253 0.61981484138016052 2.5000000000000004 1.5000000000000002 2.5000000000000004 1.5000000000000002 -0.48573011928597121 2.5000000000000004 -0.47189376638849362 -0.47708239872504771
decision_type=2 2 2 2 2 2 2 2 2 2 2 2 2 2 2 2 2 2 2 2 2 2 2 2 2 2 2 2 2 2
left_child=3 2 -2 4 5 6 8 -4 -1 10 -5 -11 18 14 -12 -8 -6 29 19 -7 -21 26 23 -23 -15 -20 27 -17 -28 -10
right_child=1 -3 7 9 16 12 15 -9 17 11 13 -13 -14 24 -16 21 -18 -19 25 20 -22 22 -24 -25 -26 -27 28 -29 -30 -31
leaf_value=-0.038224405372720129 0.026174959125505843 0.11457114552072052 -0.035850920413904669 -0.024377005196999809 -0.029556320194336384 -0.010536654309677693 -0.0066838864001448825 0.010060163330003842 -0.011506887415126619 0.009287186672754558 -0.022777013596433037 -0.012385553613477663 -0.0096447513231063854 0.010502892750459522 0.002856118917477243 -0.012728985937381657 -0.056363234478538096 -0.0074440469885915517 -0.033753946549985279 -0.034929135381872908 -0.0078712911235509428 0.0036714712761059978 0.00096789343305600365 -0.017175161162837457 -0.0057014337681866962 -0.021223152021202309 -0.0073471643995508193 -0.050881435991483981 -0.027614533130307053 -0.039915018573914017
leaf_weight=823.83826457348187 19537.406906081364 676.81580150453374 229.26300485595129 3364.7400033648591 579.13363870140165 2679.8640120709315 3839.7017434188165 256.79631948727183 205.27853521821089 1127.7546804617159 1132.9817714638775 1804.1763064583065 1271.9405830997275 918.42757761408575 849.72783675743267 1297.96693053341 388.14343644387554 745.82425013184547 1864.7381237467634 2440.6154597196728 958.54368997283746 433.27915149054024 989.75328017794527 2587.6943079215707 1014.8176408626605 1414.2968756647315 1666.1585937169148 601.00462209084071 863.16261999181006 363.06835114653222
leaf_count=6378 62712 3601 1696 26093 4382 26103 40901 2876 2140 12869 8673 17055 13152 8716 8610 12671 2156 8476 12878 17424 8498 4170 10510 25609 8857 12645 17203 4347 6442 2157
internal_value=7.01716e-11 0.0281783 0.0252581 -0.0161014 -0.0180628 -0.0172035 -0.0141943 -0.011595 -0.0252088 -0.0111052 -0.0139466 -0.00404923 -0.0212847 -0.00498443 -0.0117914 -0.0122764 -0.0403132 -0.0170495 -0.0228668 -0.0199095 -0.027299 -0.014821 -0.0104458 -0.0141853 0.00199676 -0.0283492 -0.0187836 -0.0248038 -0.0142637 -0.0296544
internal_weight=56926.9 20700.3 20023.5 36226.6 26014 25046.7 14416.7 486.059 2138.01 10212.6 7280.69 2931.93 10630 3915.95 1982.71 12278.7 967.277 1314.17 9358.06 6079.02 3399.16 8439.02 4010.73 3020.97 1933.25 3279.03 4428.29 1898.97 2529.32 568.347
internal_count=400000 70885 67284 329115 238242 231704 141004 4572 19151 90873 60949 29924 90700 34856 17283 121853 6538 12773 77548 52025 25922 80952 40289 29779 17573 25523 40663 17018 23645 4297
is_linear=0
shrinkage=0.1


Tree=11
num_leaves=31
num_cat=0
split_feature=3 2 2 3 6 3 6 3 3 3 0 0 3 3 3 0 3 3 3 0 6 0 6 0 3 3 0 3 0 0
split_gain=1979.78 434.136 258.282 125.927 88.904 68.1545 51.6689 34.5714 64.2243 29.7894 23.1848 16.3155 36.0174 32.1978 26.1545 11.2114 14.3433 10.0267 8.69072 36.1955 38.9218 20.6908 17.9989 8.52074 20.8953 27.5211 7.52217 7.46396 64.5964 61.0117
threshold=2.0558349535694398 1.0000000180025095e-35 1.0000000180025095e-35 2.2296541368440019 2.5000000000000004 -0.44249151648135382 1.0000000180025095e-35 -0.45632786937883135 -0.46670513405193953 -0.44768014881790791 0.61981484138016052 0.61981484138016052 -0.47535285461286297 -0.47535285461286297 -0.4822710310616018 1.0000000180025095e-35 -0.44076197236916909 -0.5056198765760952 -0.48054148694941706 0.61981484138016052 1.5000000000000002 1.0000000180025095e-35 1.5000000000000002 0.61981484138016052 -0.44508583264963081 -0.45632786937883135 1.0000000180025095e-35 -0.44508583264963081 1.0000000180025095e-35 1.0000000180025095e-35
decision_type=2 2 2 2 2 2 2 2 2 2 2 2 2 2 2 2 2 2 2 2 2 2 2 2 2 2 2 2 2 2
left_child=1 4 3 -2 6 9 23 8 17 11 26 13 14 -6 -13 -7 -17 -8 21 22 -21 -19 -20 24 25 -1 -5 28 -9 -29
right_child=2 -3 -4 10 5 15 7 27 -10 -11 -12 12 -14 -15 -16 16 -18 18 19 20 -22 -23 -24 -25 -26 -27 -28 29 -30 -31
leaf_value=-0.0018198348942228687 0.025268315305668226 0.1090613101734477 0.11457114588497944 0.011249232644142395 -0.0031786747068831772 -0.039406537404669123 -0.0089372239464934854 -0.044943758683604278 -0.00087295393468053359 0.0059074679007059339 -0.047359164428173402 -0.026790786351195073 -0.0062193299098376106 -0.023966217334601494 -0.060106719754944297 -0.013698474072037427 -0.032265943663924664 -0.031093060462660457 0.007464414978778049 -0.043164055615199037 -0.011755187000238835 -0.015236748669573289 -0.011766771411838083 0.0018710981231023394 0.0020868961328044588 -0.024016996019378553 -0.019221463292244542 0.0009761788911282058 -0.011687493043011633 -0.024560865804392207
leaf_weight=1150.7463622612413 19051.873742651427 285.17346065561287 319.25353085529059 143.72716277069412 1481.5403653715039 1535.9338165572844 1745.4034566024784 938.2020194195793 4161.0862275570398 575.01196273090318 228.9120938568376 861.63862640084699 623.83306554961018 1498.9972845432349 324.33313734008698 515.43311925628223 2157.7086962953908 1285.7874027676298 655.12527863821015 723.90111841040198 867.1436195751885 2286.1981319175102 1892.6497191874078 1935.1847400021506 1711.4795602463419 1085.4046387929702 185.68748542713001 1296.3036645388929 1547.3456730099279 3361.875939300051
leaf_count=12856 58199 1733 1868 1696 17158 10207 19247 6247 45428 6538 1394 6375 6458 13097 2072 4273 15978 10777 8553 4170 8563 21227 17308 19273 17403 8668 1482 13116 12879 25757
internal_value=-6.04143e-11 -0.0138396 0.025349 0.0238965 -0.0148073 -0.0230722 -0.0118373 -0.0141814 -0.0112258 -0.0155994 -0.0229139 -0.018181 -0.0256704 -0.0136333 -0.0359018 -0.0325979 -0.0286858 -0.0157814 -0.0173307 -0.0142118 -0.0260457 -0.0209445 -0.00682174 -0.00356457 -0.00622922 -0.0125941 -0.00592677 -0.0198154 -0.0242405 -0.0174543
internal_weight=56432.9 36503.4 19929.5 19610.2 36218.3 9574.43 26643.8 20761 13617.3 5365.35 558.327 4790.34 1809.8 2980.54 1185.97 4209.08 2673.14 9456.21 7710.81 4138.82 1591.04 3571.99 2547.77 5882.82 3947.63 2236.15 329.415 7143.73 2485.55 4658.18
internal_count=400000 335361 64639 62771 333628 82156 251472 193272 135273 51698 4572 45160 14905 30255 8447 30458 20251 89845 70598 38594 12733 32004 25861 58200 38927 21524 3178 57999 19126 38873
is_linear=0
shrinkage=0.1


Tree=12
num_leaves=31
num_cat=0
split_feature=3 2 6 3 3 3 3 3 3 3 3 3 0 0 3 0 3 0 0 3 0 0 3 0 3 3 3 3 6 3
split_gain=2013.01 402.442 152.365 97.9706 66.7182 50.7631 38.2328 34.7827 31.1774 28.4755 42.4894 20.4968 68.0017 30.7195 19.239 19.4708 23.5594 16.7022 15.6124 24.0337 78.3512 49.1392 57.7359 13.3263 47.8497 36.6503 21.7517 27.4786 23.7969 34.4796
threshold=-0.41654835479858332 1.0000000180025095e-35 1.0000000180025095e-35 -0.44508583264963081 2.0558349535694398 -0.42692561947169155 2.2296541368440019 -0.48054148694941706 1.0000000180025095e-35 -0.45632786937883135 -0.49610738395907933 -0.47881194283723244 1.0000000180025095e-35 0.61981484138016052 -0.4822710310616018 0.61981484138016052 -0.48573011928597121 1.0000000180025095e-35 0.61981484138016052 -0.42433130330341445 1.0000000180025095e-35 1.0000000180025095e-35 -0.44076197236916909 1.0000000180025095e-35 -0.44768014881790791 -0.44508583264963081 -0.44940969293009253 -0.46151650171538544 1.5000000000000002 -0.45632786937883135
decision_type=2 2 2 2 2 2 2 2 2 2 2 2 2 2 2 2 2 2 2 2 2 2 2 2 2 2 2 2 2 2
left_child=2 4 3 9 8 7 -6 14 -2 10 -1 12 -9 -14 15 16 -4 -10 19 21 -21 -5 -23 24 26 -25 27 -13 29 -29
right_child=1 -3 5 18 6 -7 -8 11 17 -11 -12 23 13 -15 -16 -17 -18 -19 -20 20 -22 22 -24 25 -26 -27 -28 28 -30 -31
leaf_value=0.00068867514153830899 0.014502145576096526 0.10957403090921874 -0.010209112754480774 -0.05992328144351533 0.024230572264734188 0.0086888125350946688 -0.0045542692508461925 0.015529093158374616 0.0083435895669848811 -0.0042540963683944666 -0.031128382486635544 -0.0087722969466009475 -0.06616937456768171 -0.014962360483968859 0.0029454783424575537 -0.00050370263427210735 -0.033858278144944957 -0.029635508289122925 -0.046935318676399419 0.012058504688465366 -0.0426052744949258 0.019859628951369529 -0.044822517256811321 -0.015082058247344925 -0.029099103771817288 -0.0024926400120442514 0.012990178144579824 -0.057237068196468989 -0.00050446621008053691 -0.0016636542757762639
leaf_weight=572.53956636035582 606.66354701342061 540.22946120449342 3289.8224359331653 743.81344472436467 18953.706750216195 1214.7905241183471 472.94719288544729 226.15233789733611 164.94589889771305 1388.0843253870262 1572.4933923498029 2869.605314322398 366.66223746584728 172.16162123274989 1712.0747753969627 1761.4813888252247 483.10151045315433 388.58022198325489 1388.6817547215614 408.58392110606655 731.91049133898923 216.26395856938325 381.32562803878682 9021.0808601913741 2275.3615117993322 3109.4858275429578 347.65102082095109 386.14682094927412 195.76709516881965 157.04751280916389
leaf_count=6378 6501 3601 34383 4288 58199 12976 4572 2179 1597 12994 12773 28242 2129 2101 19098 19104 4271 2916 8652 4267 4431 2142 2275 81712 17444 30125 4147 2241 2162 2100
internal_value=4.65627e-12 0.0243744 -0.0147164 -0.0274543 0.0221386 -0.0112981 0.0235298 -0.0122187 -0.00115637 -0.0154141 -0.022636 -0.014454 -0.0304922 -0.049808 -0.00631859 -0.00918444 -0.0132373 -0.0183181 -0.0384447 -0.033694 -0.0230219 -0.0427678 -0.0214145 -0.0137858 -0.0175445 -0.011855 -0.010899 -0.0132005 -0.0303966 -0.0411698
internal_weight=56119.2 21127.1 34992.1 7403.7 20586.8 27588.4 19426.7 26373.6 1160.19 3533.12 2145.03 19127.1 764.976 538.824 7246.48 5534.41 3772.92 553.526 3870.58 2481.9 1140.49 1341.4 597.59 18362.1 6231.58 12130.6 3956.22 3608.57 738.961 543.194
internal_count=400000 77386 322614 58200 73785 264414 62771 251438 11014 32145 19151 174582 6409 4230 76856 57758 38654 4513 26055 17403 8698 8705 4417 168173 56336 111837 38892 34745 6503 4341
is_linear=0
shrinkage=0.1


Tree=13
num_leaves=31
num_cat=0
split_feature=3 2 3 3 3 0 3 0 0 6 3 0 6 6 0 0 0 3 3 3 3 0 3 0 3 6 3 0 3 6
split_gain=1674.49 354.498 134.583 90.583 44.7058 39.6886 39.0374 36.5901 30.303 23.4308 31.9525 30.1209 23.0434 15.3454 91.4781 20.2974 11.7812 27.3174 24.8412 11.1642 10.1959 34.1644 45.5663 40.3732 25.0831 13.0256 15.722 10.1003 34.9901 13.2276
threshold=1.0000000180025095e-35 1.0000000180025095e-35 2.2296541368440019 2.0558349535694398 -0.42692561947169155 1.0000000180025095e-35 -0.52896872209058843 1.0000000180025095e-35 1.0000000180025095e-35 1.5000000000000002 -0.44076197236916909 1.0000000180025095e-35 1.0000000180025095e-35 1.0000000180025095e-35 1.0000000180025095e-35 0.61981484138016052 0.61981484138016052 -0.44249151648135382 -0.44249151648135382 -0.45113923704227726 -0.46670513405193953 1.0000000180025095e-35 -0.44508583264963081 0.61981484138016052 -0.44768014881790791 2.5000000000000004 -0.44076197236916909 1.0000000180025095e-35 -0.48054148694941706 2.5000000000000004
decision_type=2 2 2 2 2 2 2 2 2 2 2 2 2 2 2 2 2 2 2 2 2 2 2 2 2 2 2 2 2 2
left_child=4 2 3 5 6 -2 8 -4 -1 10 11 -8 19 14 -6 -15 18 -18 -14 -13 27 24 -23 -24 -22 -25 -27 28 29 -11
right_child=1 -3 7 -5 13 -7 9 -9 -10 20 -12 12 16 15 -16 -17 17 -19 -20 -21 21 22 23 25 -26 26 -28 -29 -30 -31
leaf_value=-0.05730856519870349 -0.047195870033972805 0.10730433191563049 -0.05357290147364796 0.02319802075300631 -0.040901409119376397 0.0084320353093816688 0.00045853069909257703 -0.0028555134953538305 -0.015305281538169128 -0.0055551920924440876 0.016250354169772854 -0.014034123670555202 -0.016931427400744527 -0.020901291026623317 0.0093975638240758365 -0.038952013898647588 0.0062021703985158496 -0.027560052841472095 0.024001630849981335 -0.026804670045625485 -0.0099201148960260804 -0.0075342541055051105 -0.032443155462102302 -0.0024030803708056441 0.0082025734223309735 -0.038903121342779998 -0.0008307452327307685 -0.013162912520857786 -0.031522889566878584 -0.02097145608542194
leaf_weight=331.25307668943424 256.56778687494807 483.72383068350609 273.88826097745914 18913.221572976559 695.79880129161756 256.45958911324851 2530.3759419108974 295.96458327560686 356.72495489194989 1363.1413121884689 546.58483392768539 1761.1060094813583 1415.9397344294703 1694.1557358167483 752.74200323910918 985.21739818999777 1236.0193745344877 297.29115318204276 165.59956847480498 1119.8521442509373 1817.397812931682 3920.7821133072721 1989.6972260097973 842.21137561707292 1317.2884603076382 267.6873438853072 182.35166898183525 7008.2779092031415 1487.9666254153708 940.63773458637297
leaf_count=2144 1597 3601 1696 58199 4267 2916 28104 2876 4230 15120 6611 16950 12981 13085 8761 6392 12722 2076 2106 8723 17210 38819 13139 8577 15235 2090 2137 68214 10854 8568
internal_value=9.42787e-11 0.0227146 0.0206683 0.0220734 -0.0132812 -0.0193878 -0.0119754 -0.0272318 -0.0355294 -0.011439 -0.00718821 -0.00869078 -0.012552 -0.0230556 -0.0147633 -0.0275386 -0.00658991 -0.000343934 -0.0126454 -0.0189981 -0.0132636 -0.0110187 -0.0148113 -0.0235047 -0.00230442 -0.00974212 -0.0234765 -0.0154123 -0.0195699 -0.0118497
internal_weight=55505.9 20479.8 19996.1 19426.2 35026.1 513.027 30898.2 569.853 687.978 30210.2 9072.77 8526.18 5995.81 4127.91 1448.54 2679.37 3114.85 1533.31 1581.54 2880.96 21137.4 10337.4 7202.73 3281.95 3134.69 1292.25 450.039 10800 3791.75 2303.78
internal_count=400000 70885 67284 62712 329115 4513 296610 4572 6374 290236 90273 83662 55558 32505 13028 19477 29885 14798 15087 25673 199963 97207 64762 25943 32445 12804 4227 102756 34542 23688
is_linear=0
shrinkage=0.1


Tree=14
num_leaves=31
num_cat=0
split_feature=3 2 3 3 6 0 3 3 3 3 3 6 3 0 0 0 0 3 6 0 3 0 0 0 3 3 0 0 0 0
split_gain=1518.09 306.717 112.006 99.5194 59.4562 38.8823 26.5094 31.1327 93.9996 34.8227 37.1461 28.4632 36.9533 24.4384 33.1739 21.0655 20.6369 45.232 27.3102 35.9546 19.2584 30.9838 31.1727 18.0177 17.3134 60.3302 39.277 16.5771 15.5326 27.7859
threshold=1.0000000180025095e-35 1.0000000180025095e-35 2.0558349535694398 2.2296541368440019 2.5000000000000004 1.0000000180025095e-35 -0.42692561947169155 -0.46670513405193953 -0.48054148694941706 -0.44940969293009253 -0.44076197236916909 1.5000000000000002 -0.46324604582757017 1.0000000180025095e-35 0.61981484138016052 1.0000000180025095e-35 0.61981484138016052 -0.45632786937883135 1.0000000180025095e-35 1.0000000180025095e-35 -0.4822710310616018 0.61981484138016052 1.0000000180025095e-35 1.0000000180025095e-35 -0.44249151648135382 -0.44768014881790791 0.61981484138016052 0.61981484138016052 0.61981484138016052 1.0000000180025095e-35
decision_type=2 2 2 2 2 2 2 2 2 2 2 2 2 2 2 2 2 2 2 2 2 2 2 2 2 2 2 2 2 2
left_child=4 2 5 -4 6 -2 7 8 20 11 -11 12 23 -5 -15 -8 18 -18 19 -14 -1 22 -22 -9 25 -6 -27 -25 29 -12
right_child=1 -3 3 13 24 -7 15 9 -10 10 28 -13 16 14 -16 -17 17 -19 -20 -21 21 -23 -24 27 -26 26 -28 -29 -30 -31
leaf_value=-0.015868572181468709 0.021989051674366659 0.10516332668372382 0.022475008402316914 0.016666563213482283 -0.003098394825244074 -0.038732829969086752 0.011936268372421628 -0.061917605887897659 0.00014396164666155963 -0.0063499008824164623 -0.02707252065943715 -0.015222786974740821 -0.042402061848011818 -0.053630382076400807 0.0080631443050422271 -0.010260007847300504 -0.052309562294349021 -0.017722638046640898 -0.0073724012542921782 -0.0049791068978540381 -0.016984528332566567 -0.0047259020331992157 -0.049981377150521415 -0.015092657488343684 0.0020784241140118973 -0.043703427027495557 0.0070670777834357119 -0.048587306327709162 -0.030399619651522637 -0.0043180839661412567
leaf_weight=5194.8759644178208 139.91097321687266 431.93594200676307 18771.931617148919 126.50244373059832 4200.1832518208539 428.1870884783566 604.7833632392576 385.93968978489283 4247.3610195660731 3593.2512332993792 1104.3974577005138 2858.7119609157089 712.25345565058524 270.75587037345394 128.53811962646432 1459.2295266252477 656.30086888873484 892.04732729360694 1248.3440766915446 401.42453064210713 481.49431841616752 410.15401263581589 706.25936103041749 258.31412558839656 2531.1209373461315 667.07224941632012 197.48655828391202 345.24861872300971 1154.0038832654245 1043.9109828268993
leaf_count=51266 1597 3601 58199 1696 45160 2916 6501 2236 44907 32039 8664 25853 4279 1482 1394 13043 4248 6508 13052 4389 4236 4317 4270 2147 25945 4382 2156 2122 8643 8752
internal_value=2.61061e-11 0.0217974 0.0199848 0.0212731 -0.0125145 -0.0237783 -0.0146597 -0.0155356 -0.0115252 -0.0185569 -0.0133861 -0.0231525 -0.0277789 -0.0216357 -0.0337704 -0.0037562 -0.0234104 -0.0323831 -0.0175286 -0.028913 -0.0188216 -0.0284222 -0.036605 -0.0450426 -0.00467502 -0.00805007 -0.0321062 -0.0342522 -0.0210422 -0.0160156
internal_weight=55651.9 20297.8 19865.8 19297.7 35354.2 568.098 27758.3 25694.3 11040.1 14654.1 6895.56 7758.58 4899.87 525.796 399.294 2064.01 3910.37 1548.35 2362.02 1113.68 6792.78 1597.91 1187.75 989.502 7595.86 5064.74 864.559 603.563 3302.31 2148.31
internal_count=400000 70885 67284 62771 329115 4513 251472 231928 108996 122932 58098 64834 38981 4572 2876 19544 32476 10756 21720 8668 64089 12823 8506 6505 77643 51698 6538 4269 26059 17416
is_linear=0
shrinkage=0.1


Tree=15
num_leaves=31
num_cat=0
split_feature=3 2 6 3 3 0 3 3 0 3 3 6 0 0 0 3 0 6 0 3 3 6 0 3 0 0 3 6 3 3
split_gain=1440.76 264.526 79.4128 66.672 64.8547 47.3137 36.4453 135.887 93.0765 44.4848 44.6757 36.0774 36.001 27.7519 24.2949 22.798 30.8418 20.6996 24.9097 17.0212 16.2074 15.175 24.6076 20.4199 14.5921 13.5041 13.004 12.7904 12.7182 12.655
threshold=1.0000000180025095e-35 1.0000000180025095e-35 2.5000000000000004 2.2296541368440019 2.0558349535694398 1.0000000180025095e-35 -0.44940969293009253 -0.44508583264963081 0.61981484138016052 -0.46670513405193953 -0.48054148694941706 1.5000000000000002 0.61981484138016052 1.0000000180025095e-35 0.61981484138016052 -0.43816765620089204 1.0000000180025095e-35 1.0000000180025095e-35 1.0000000180025095e-35 -0.42433130330341445 -0.42433130330341445 1.5000000000000002 1.0000000180025095e-35 -0.49610738395907933 0.61981484138016052 1.0000000180025095e-35 -0.42173698713513746 1.5000000000000002 -0.44768014881790791 -0.4649755899397548
decision_type=2 2 2 2 2 2 2 2 2 2 2 2 2 2 2 2 2 2 2 2 2 2 2 2 2 2 2 2 2 2
left_child=2 3 6 4 5 -2 9 14 11 10 21 17 -5 26 -8 16 -13 18 19 -9 -20 22 23 -1 -11 -19 28 -26 -4 -15
right_child=1 -3 13 12 -6 -7 7 8 -10 24 -12 15 -14 29 -16 -17 -18 25 20 -21 -22 -23 -24 -25 27 -27 -28 -29 -30 -31
leaf_value=-0.04600858224126976 -0.044239542899849216 0.10327584376149108 -0.013118475052468662 0.0078042086943838325 0.021651473745310464 0.017735513966672209 -0.028745097525753206 0.015578863560592283 0.010583113663293293 -0.0032280015806120071 -0.017339418674762581 -0.039651323694692403 -0.04556472791532104 -0.019212551312869527 -0.051518202829518661 0.0027717800942641925 0.0068115353330682185 -0.041315118450185116 -0.03435573751723791 -0.013366930330594273 -0.011387127255979311 -0.0019088176845719201 -0.0023921694487395039 -0.0052929490138645657 0.0136776488419707 -0.020042059338586465 -0.024841476460796368 -0.0028769427710413301 0.0040600309118858551 -0.028329052511595339
leaf_weight=329.50089039595332 261.48064869910013 386.66518337267917 1582.6183970917482 285.1755629836116 18708.296953871846 232.90533512108959 1153.2149637754774 327.69916281756014 1932.3635919042863 4206.8032950973138 5124.5862621300039 350.55599598301342 227.01715830562171 2834.9853472781833 788.94196461216779 1370.3111806504894 241.13922146614641 670.91991368855815 712.43139980535489 534.50995009613689 540.13537865196122 4613.5505993027473 726.57183497934602 196.71552986674942 1195.8019207522157 537.44160863477737 621.59477767557837 765.46639135433361 592.26444261986762 3289.3977977571776
leaf_count=2184 1597 3601 15131 3178 58199 2916 8498 4288 21446 43527 44907 2169 1394 25704 4216 12981 2239 4443 4417 4267 4431 51251 8514 2140 12878 4247 4276 8429 6562 25970
internal_value=3.36027e-11 0.0213635 -0.0121863 0.019757 0.0207067 -0.0150431 -0.00942255 -0.0145158 -0.00819753 -0.00670371 -0.010518 -0.0150641 -0.0158503 -0.0203401 -0.037996 -0.00431155 -0.0207159 -0.0214125 -0.0154467 -0.00236552 -0.0244511 -0.00455916 -0.0143194 -0.0307879 9.30579e-05 -0.0318535 -0.012086 0.00721653 -0.00844042 -0.024109
internal_weight=55341.1 20101.5 35239.5 19714.9 19202.7 494.386 26318.7 9159.66 7217.51 17159 10990.9 5285.14 512.193 8920.86 1942.16 1962.01 591.695 3323.14 2114.78 862.209 1252.57 5866.34 1252.79 526.216 6168.07 1208.36 2796.48 1961.27 2174.88 6124.38
internal_count=400000 70885 329115 67284 62712 4513 251472 77642 64928 173830 108996 43482 4572 77643 12714 17389 4408 26093 17403 8555 8848 64089 12838 4324 64834 8690 25969 21307 21693 51674
is_linear=0
shrinkage=0.1


Tree=16
num_leaves=31
num_cat=0
split_feature=3 2 3 0 6 0 3 3 3 6 0 3 3 3 3 6 0 3 0 0 3 0 3 3 3 3 0 3 3 0
split_gain=1328.77 232.701 102.846 66.9936 61.7607 54.2398 83.6698 63.2425 35.2227 30.9703 36.9525 27.2605 46.8595 26.9214 110.834 67.2266 37.0241 26.0924 22.8601 22.2448 18.6143 16.0488 15.4459 12.352 12.0029 17.021 22.3853 32.1127 33.314 33.6203
threshold=-0.41654835479858332 1.0000000180025095e-35 2.2296541368440019 1.0000000180025095e-35 2.5000000000000004 1.0000000180025095e-35 -0.44249151648135382 -0.42173698713513746 2.0558349535694398 1.0000000180025095e-35 1.0000000180025095e-35 -0.42433130330341445 -0.44508583264963081 -0.44508583264963081 -0.44940969293009253 1.5000000000000002 1.0000000180025095e-35 -0.43816765620089204 1.0000000180025095e-35 0.61981484138016052 -0.43816765620089204 0.61981484138016052 -0.45632786937883135 1.0000000180025095e-35 -0.45632786937883135 -0.48054148694941706 0.61981484138016052 -0.47362331050067835 -0.47189376638849362 1.0000000180025095e-35
decision_type=2 2 2 2 2 2 2 2 2 2 2 2 2 2 2 2 2 2 2 2 2 2 2 2 2 2 2 2 2 2
left_child=4 2 8 -4 9 6 -6 -8 18 10 -1 12 22 14 24 19 17 -17 -2 -15 -18 -13 -12 -20 25 -11 27 -27 29 -29
right_child=1 -3 3 -5 5 -7 7 -9 -10 13 11 21 -14 15 -16 16 20 -19 23 -21 -22 -23 -24 -25 -26 26 -28 28 -30 -31
leaf_value=0.0033337207477415498 0.02325407117865743 0.10109667515327192 -0.057758887191212673 0.013490067929380609 -0.001550629359731665 0.0036433637845091544 -0.053072192489303782 0.011578344822373101 0.020769726055292988 -0.020127451876565186 -0.0079642416340985622 -0.013976954003923667 0.011521995584059792 0.0071199444076588056 0.016507428488916145 0.018448250219326761 -0.050055243532698961 -0.021709787711646888 0.0046051126365129168 -0.019020996520116025 -0.030972391333847119 -0.037931569866845795 -0.024596906238798823 -0.020796206880947479 -0.028116788965937514 0.00178807458164009 -0.0052716998468992707 -0.059154495622776783 -0.016515673929483485 -0.0047157219261189159
leaf_weight=1943.353229282191 364.5463807086926 347.48912638437469 285.83861989120487 245.15941265388392 1650.9297646312043 4059.2877829674399 713.95382015942596 191.99982224218547 18692.995789813809 5433.1648857481196 1144.4036310279625 527.40190028602956 848.72856532747392 793.65152802772354 1097.7459159449209 201.67104183789343 711.20930834242608 818.30532321491046 413.94469587178901 551.89257874363102 1817.2945534844184 595.45089479390299 1090.2244805328082 356.14234298036899 826.88156122341752 848.15599430748262 2624.4778359911288 376.23192496178672 4812.5037078119349 162.41866471641697
leaf_count=19315 3773 3601 1696 2876 17359 47349 4334 2100 58199 51251 12670 4431 8739 8690 12714 2169 4349 6504 4325 4217 12944 4330 8715 2916 6412 8691 27532 2128 43494 2177
internal_value=5.97933e-11 0.0199532 0.0185682 -0.0248636 -0.0122085 -0.00354262 -0.014951 -0.0393707 0.0197313 -0.0143145 -0.0080706 -0.0133396 -0.00848147 -0.0161364 -0.0141708 -0.0226352 -0.0298523 -0.0137697 0.00262379 -0.00360211 -0.03634 -0.0266801 -0.0160789 -0.00714224 -0.0164035 -0.0157241 -0.0130128 -0.01629 -0.0191554 -0.0427396
internal_weight=54547.5 20706.1 20358.6 530.998 33841.3 6616.17 2556.88 905.954 19827.6 27225.2 6149.56 4206.21 3083.36 21075.6 16181.6 4894.02 3548.48 1019.98 1134.63 1345.54 2528.5 1122.85 2234.63 770.087 15083.8 14257 8823.79 6199.31 5351.15 538.651
internal_count=400000 77386 73785 4572 322614 71142 23793 6434 69213 251472 58200 38885 30124 193272 154399 38873 25966 8673 11014 12907 17293 8761 21385 7241 141685 135273 84022 56490 47799 4305
is_linear=0
shrinkage=0.1


Tree=17
num_leaves=31
num_cat=0
split_feature=3 2 3 6 6 3 3 3 3 0 3 3 3 3 3 0 3 0 3 0 3 0 3 3 0 6 0 3 0 3
split_gain=1248.28 200.013 50.1501 37.8115 55.2516 41.2995 61.4353 32.4394 32.177 72.1495 31.9053 30.0168 20.8612 19.7774 47.0343 16.4604 16.0273 15.7819 13.5793 17.3952 13.3058 15.6901 12.2914 11.4438 11.1134 10.103 27.9817 15.976 25.553 9.24849
threshold=1.0000000180025095e-35 1.0000000180025095e-35 2.0558349535694398 1.0000000180025095e-35 2.5000000000000004 -0.48054148694941706 -0.43816765620089204 -0.46670513405193953 -0.44508583264963081 1.0000000180025095e-35 -0.42433130330341445 2.2296541368440019 -0.44076197236916909 -0.47362331050067835 -0.46670513405193953 0.61981484138016052 -0.47708239872504771 1.0000000180025095e-35 -0.41654835479858332 0.61981484138016052 -0.42692561947169155 0.61981484138016052 -0.44768014881790791 -0.44076197236916909 1.0000000180025095e-35 1.5000000000000002 1.0000000180025095e-35 -0.44508583264963081 1.0000000180025095e-35 -0.42173698713513746
decision_type=2 2 2 2 2 2 2 2 2 2 2 2 2 2 2 2 2 2 2 2 2 2 2 2 2 2 2 2 2 2
left_child=3 2 15 8 5 -5 13 17 16 12 23 -4 -10 -7 -15 -2 -1 -6 22 -20 -8 -22 -9 -11 -13 26 -16 -27 -29 -24
right_child=1 -3 11 4 7 6 20 18 9 10 -12 24 -14 14 25 -17 -18 -19 19 -21 21 -23 29 -25 -26 27 -28 28 -30 -31
leaf_value=-0.019888388993484617 -0.02303451963134806 0.099428296616288506 0.020120859273175546 0.0015704872965098253 -0.013621125987858002 -0.023211627214583804 0.0093573049795686297 -0.016393451261764436 -0.063731249811826193 -0.013756078512115683 0.0010178566107749479 0.020699228550946469 -0.035617273172935705 0.0015201684143875543 0.0051442082218419519 0.018226192731432798 -0.005755464870543861 -0.02798924129698091 -0.030363985454987193 0.0038389485242354619 -0.016437109724757131 0.015779250332466657 -0.00067361230944227874 -0.033328403089993366 -0.014882243141262875 -0.019307382419694891 -0.015562627160924356 -0.024410901771190305 0.015104403069457871 -0.013783419988478441
leaf_weight=1320.652165400621 375.44603967724834 311.59010437369579 18627.128470253199 4409.613176351937 1087.8968820938026 1476.6303912934382 1803.8938242812874 1359.3920468949946 366.06332941411529 565.47672591748415 875.19378754304489 118.12476446782239 946.01721441780683 2388.0816068748827 886.1164235501783 130.22260109102353 2044.7968821934192 2571.3838454147335 659.08388661569916 192.01832254522014 502.02606359304627 216.309196663904 1785.6146006124327 633.29870054277126 341.71246204082854 4465.7806044756435 2476.3824055460282 297.22156065551098 364.14429837372154 770.24079108738806
leaf_count=12838 3088 3601 58199 51251 10739 12901 19448 13152 2128 4288 8761 1696 6427 25693 11001 1425 19307 21269 4372 2129 4375 2141 19522 4451 2876 38567 21377 2169 4349 6460
internal_value=-1.88617e-11 0.0199385 0.0186743 -0.0115154 -0.00988048 -0.00692915 -0.00944855 -0.0166361 -0.0182261 -0.0251086 -0.0134982 0.0194978 -0.0434609 -0.0123522 -0.010878 -0.0124088 -0.0113014 -0.0237176 -0.0111993 -0.0226474 0.00477392 -0.00673594 -0.00871069 -0.0240959 -0.00574194 -0.0143656 -0.0101058 -0.0171592 -0.002654 -0.00462443
internal_weight=54367.6 19904.2 19592.6 34463.3 27711.8 19286.2 14876.6 8425.63 6751.5 3386.05 2073.97 19087 1312.08 12354.4 10877.7 505.669 3365.45 3659.28 4766.35 851.102 2522.23 718.335 3915.25 1198.78 459.837 8489.65 3362.5 5127.15 661.366 2555.86
internal_count=400000 70885 67284 329115 270915 193272 142021 77643 58200 26055 17500 62771 8555 116057 103156 4513 32145 32008 45635 6501 25964 6516 39134 8739 4572 77463 32378 45085 6518 25982
is_linear=0
shrinkage=0.1


Tree=18
num_leaves=31
num_cat=0
split_feature=3 2 3 3 3 3 6 0 3 3 0 0 6 6 3 3 0 3 0 3 0 6 6 3 3 3 3 3 0 0
split_gain=1130.81 174.56 65.635 106.39 56.8832 51.6988 69.192 39.0622 36.8861 32.9872 33.8113 32.8306 30.5734 20.303 20.2575 46.2133 37.1221 17.0286 18.0971 23.1658 15.3509 30.8166 18.4223 13.7362 21.3424 17.372 33.1226 29.1535 13.506 12.3565
threshold=1.0000000180025095e-35 1.0000000180025095e-35 -0.43816765620089204 -0.42692561947169155 2.0558349535694398 -0.46670513405193953 2.5000000000000004 0.61981484138016052 2.2296541368440019 -0.46929945022021657 1.0000000180025095e-35 0.61981484138016052 2.5000000000000004 1.5000000000000002 -0.46324604582757017 -0.46151650171538544 1.0000000180025095e-35 -0.44768014881790791 1.0000000180025095e-35 -0.44249151648135382 1.0000000180025095e-35 2.5000000000000004 2.5000000000000004 -0.500431244239541 -0.52896872209058843 -0.47708239872504771 -0.48054148694941706 -0.48918920751034062 1.0000000180025095e-35 0.61981484138016052
decision_type=2 2 2 2 2 2 2 2 2 2 2 2 2 2 2 2 2 2 2 2 2 2 2 2 2 2 2 2 2 2
left_child=2 4 5 7 11 6 9 28 -6 23 13 -2 14 -11 -7 16 -16 -14 19 -19 21 -5 -22 24 -1 26 27 -25 -4 -8
right_child=1 -3 3 20 8 12 29 -9 -10 10 -12 -13 17 -15 15 -17 -18 18 -20 -21 22 -23 -24 25 -26 -27 -28 -29 -30 -31
leaf_value=-0.001533661691463794 0.0071246461226949012 0.097540311055193507 -0.049371147885360123 0.016482316304605674 0.019549424749866234 0.0064803386073276808 -0.0035667795153030814 -0.014616698099787809 -0.0082806168273645859 -0.027622283001025434 -0.03750657628803266 -0.043880136878674703 -0.0032299147983251564 0.017228572001072039 -0.051874752760319581 -0.0017128033990113441 -0.0069055722201139137 -0.024123735637839906 -0.023813892794297121 0.014554998689401272 -0.019621015049284776 -0.01592673953654819 -0.0018654546684926906 -0.0032407563119062482 -0.024653968286075557 -0.019424466605145015 0.0064708144335410295 -0.020742613481025809 -0.033334406622009143 0.010540757484571409
leaf_weight=489.46200853493065 292.76586519181728 279.47820830275305 1060.2116067598108 602.71689207525924 18516.572489036247 2328.4455333732767 1962.2979582108092 733.03291020437609 488.82312995300163 193.99643075198401 1264.6213319282397 221.81476702925283 1219.4077105844626 210.38735880353488 345.38613824767526 7361.4187232652039 391.81904952530749 291.87344460125314 1541.9245320943301 329.83156556030735 1600.0397311248234 571.68046019296162 920.55078212462831 1690.6245740914019 2166.4959260585019 2177.2460085937055 1114.7196112893289 2177.698064471595 1040.6314867199981 908.20978735049721
leaf_count=6374 3088 3601 6504 6501 58199 25942 21498 6467 4572 2087 8551 1425 13152 2175 2215 70944 4383 2228 12960 4334 13043 4276 8685 19150 19286 19193 12901 19279 6477 10510
internal_value=-2.26508e-11 0.0190689 -0.0108822 -0.0199161 0.0179454 -0.00878808 -0.0129902 -0.0344924 0.0188336 -0.0164609 -0.029458 -0.0148614 -0.00441997 -0.00428788 -0.0017399 -0.00410332 -0.027974 -0.0126804 -0.0180066 -0.00360361 -0.00873683 0.000706034 -0.0131365 -0.0142511 -0.0203932 -0.0119728 -0.00871695 -0.0130935 -0.0414275 0.000896752
internal_weight=54494.2 19799.5 34694.7 6528.86 19520 28165.9 14355.8 2833.88 19005.4 11485.3 1669.01 514.581 13810.1 404.384 10427.1 8098.62 737.205 3383.04 2163.63 621.705 3694.99 1174.4 2520.59 9816.25 2655.96 7160.29 4983.04 3868.32 2100.84 2870.51
internal_count=400000 70885 329115 51953 67284 277162 141004 19448 62771 108996 12813 4513 136158 4262 103484 77542 6598 32674 19522 6562 32505 10777 21728 96183 25660 70523 51330 38429 12981 32008
is_linear=0
shrinkage=0.1


Tree=19
num_leaves=31
num_cat=0
split_feature=3 2 2 3 3 3 3 6 6 3 0 6 3 0 3 3 3 3 3 6 0 3 0 3 0 3 3 0 3 3
split_gain=1058.3 117.78 90.8271 39.4121 23.1473 96.9785 34.5817 45.2766 44.3504 26.6073 89.8218 24.2167 22.0155 30.5254 21.7297 18.2877 18.0409 13.6545 16.6053 39.2143 13.6386 12.5838 12.2064 11.2489 10.941 49.9328 44.4807 10.678 10.1997 26.4082
threshold=2.0558349535694398 1.0000000180025095e-35 1.0000000180025095e-35 -0.49610738395907933 -0.42692561947169155 -0.44076197236916909 -0.46670513405193953 2.5000000000000004 1.5000000000000002 -0.4649755899397548 0.61981484138016052 1.5000000000000002 -0.44249151648135382 0.61981484138016052 2.2296541368440019 -0.44768014881790791 -0.42433130330341445 -0.48054148694941706 -0.49264829573470997 2.5000000000000004 0.61981484138016052 -0.47708239872504771 1.0000000180025095e-35 -0.43816765620089204 0.61981484138016052 -0.41654835479858332 1.0000000180025095e-35 1.0000000180025095e-35 1.0000000180025095e-35 -0.41654835479858332
decision_type=2 2 2 2 2 2 2 2 2 2 2 2 2 2 2 2 2 2 2 2 2 2 2 2 2 2 2 2 2 2
left_child=1 3 14 -1 5 6 8 9 21 10 -8 -12 -11 -14 -2 -9 27 18 -10 -20 23 22 -5 -7 28 -26 -27 -6 29 -18
right_child=2 -3 -4 4 16 20 7 15 17 12 11 -13 13 -15 -16 -17 24 -19 19 -21 -22 -23 -24 -25 25 26 -28 -29 -30 -31
leaf_value=0.00089420660565255993 0.018866243078631016 0.089755590767233842 0.10078858726671369 -0.026254286475803079 -0.044715521666924024 0.0025206264089787846 -0.012373978712033461 -0.0118065174936686 -0.022728844896725407 -0.014516297980188796 -0.027890085833402974 -0.062657187655988447 -0.041827610639778655 0.00070550473659007043 -0.0028913177173269691 0.005470268758609626 -0.021937873885949963 -0.016546755456199456 0.0059067216550186307 -0.013646650822974601 -0.0026765895864495014 0.0085528913503081141 0.0035832024182122246 0.017971812859550573 0.013217644874725652 -0.050379529437092577 0.020284435379206191 -0.022261488297884831 -0.032954528493797777 0.0044201927941740615
leaf_weight=2693.6102723127697 18503.973075533402 117.05529278708855 134.51622463471722 233.34876310103573 350.55221439193701 821.1206030487665 1444.7739717110526 1307.0773388117668 695.47794542624615 8047.0021069384238 288.48537166172173 655.73223468579818 666.97036919434322 225.88081137568224 470.69902024895418 1153.2617140640505 1663.220027348143 3468.2573997241561 1673.0290395965567 2650.6369361426332 1073.9514504271792 1655.0076979170553 332.43958778004162 1105.5942028483842 570.07599199959077 329.76910475408658 122.04701188928448 535.02636030397844 419.62183763593202 492.71812703332398
leaf_count=32038 58199 1733 1868 2140 2234 8866 13225 13152 6312 70927 2122 4208 4315 2076 4572 12954 13036 32274 19279 25605 10780 19036 4320 12981 6452 2129 1425 4282 3088 4372
internal_value=-3.99779e-13 -0.0103846 0.018907 -0.0107226 -0.0117011 -0.0106148 -0.0126932 -0.0160042 -0.00842963 -0.0186745 -0.0280494 -0.0520348 -0.0161693 -0.0310672 0.0183265 -0.00370818 -0.018364 -0.0117216 -0.00838741 -0.00608053 0.0063535 0.00415162 -0.00872271 0.0113869 -0.0152166 -0.00646144 -0.0312914 -0.0311498 -0.0186903 -0.015914
internal_weight=53900.9 34791.7 19109.2 34674.7 31981.1 27498 24497.4 13789.2 10708.2 11328.8 2388.99 944.218 8939.85 892.851 18974.7 2460.34 4483.03 8487.4 5019.14 4323.67 3000.67 2220.8 565.788 1926.71 3597.45 1021.89 451.816 885.579 2575.56 2155.94
internal_count=400000 335361 64639 333628 301590 264572 231945 122979 108966 96873 19555 6330 77318 6391 62771 26106 37018 83470 51196 44884 32627 25496 6460 21847 30502 10006 3554 6516 20496 17408
is_linear=0
shrinkage=0.1


Tree=20
num_leaves=31
num_cat=0
split_feature=3 2 3 3 0 3 3 3 3 0 0 3 6 3 0 3 6 3 3 0 3 0 3 3 0 0 3 3 3 3
split_gain=938.747 134.065 88.2725 34.7595 34.7136 32.8525 50.6413 45.6889 47.8575 48.5254 44.6755 36.83 27.2454 27.5047 25.9729 20.9822 19.8257 24.5154 16.612 26.6436 16.1868 14.7698 13.5705 13.5511 24.9565 22.1193 41.4381 21.483 14.7935 13.2508
threshold=1.0000000180025095e-35 1.0000000180025095e-35 2.2296541368440019 2.0558349535694398 0.61981484138016052 -0.44249151648135382 -0.47189376638849362 -0.42692561947169155 -0.41654835479858332 0.61981484138016052 0.61981484138016052 -0.42433130330341445 2.5000000000000004 -0.48918920751034062 0.61981484138016052 -0.46929945022021657 1.0000000180025095e-35 -0.44768014881790791 -0.52896872209058843 1.0000000180025095e-35 -0.45113923704227726 0.61981484138016052 -0.45632786937883135 -0.48054148694941706 0.61981484138016052 1.0000000180025095e-35 -0.4822710310616018 -0.4822710310616018 -0.47708239872504771 -0.4649755899397548
decision_type=2 2 2 2 2 2 2 2 2 2 2 2 2 2 2 2 2 2 2 2 2 2 2 2 2 2 2 2 2 2
left_child=5 2 3 4 -2 6 12 -7 9 -9 -10 -11 13 18 15 -8 20 22 19 -1 -16 -4 29 24 25 26 -15 -27 -25 -18
right_child=1 -3 21 -5 -6 7 14 8 10 11 -12 -13 -14 23 16 -17 17 -19 -20 -21 -22 -23 -24 28 -26 27 -28 -29 -30 -31
leaf_value=0.0099753285537993418 0.015613684790938063 0.094010099870675559 -0.031381659643857605 0.018396966997877986 -0.038523239180768332 -0.020750736829610827 0.017477647687132027 0.011292756270221402 -0.036671749193360331 0.021868170281433105 0.023556275841706973 -0.025593384449108955 -0.0045150473714673902 0.0083106303429580919 -0.025541317474586003 -0.0076985338557792552 0.013540836616266592 -0.014554599128532833 -0.0067890809922344225 -0.036758706279124802 0.0028741983452366089 0.0068751510349276714 0.023822453358370067 -0.0078047470456260428 -0.039381470603409831 -0.028021366608748849 -0.042018441856765405 0.011227406559831826 -0.022418217762976003 -0.0021700448205501459
leaf_weight=165.76123130973428 261.38150471355766 225.9826176512579 432.17608054139419 18400.366884381045 216.59083931241184 5566.7574692337657 344.28445324045606 1618.8722080583684 728.26976055133855 202.98295088135637 148.22800615651067 840.55730274057714 3077.630798592465 223.97259318263968 394.80228159399121 8600.1292423905106 1195.3761527570896 473.2622832285706 3598.8856126598548 461.98619489790872 407.27406495140167 131.6584628468845 570.09661207289901 1292.9348038698663 868.25352034083335 220.89852989581414 606.82114798511611 378.26148769736756 1492.2507428230601 974.45485364133492
leaf_count=2144 3088 3601 3178 58199 1425 45434 4328 17411 4372 2141 2129 6452 32008 2152 2157 82379 15013 4266 38436 4230 4315 1394 6398 12901 6453 2168 4236 4270 12712 10610
internal_value=-8.36115e-11 0.017431 0.0165409 0.0177054 -0.0089182 -0.00995082 -0.00810002 -0.0151029 -0.00621873 0.000453607 -0.0264863 -0.0163615 -0.0126718 -0.0153682 -0.00373 -0.00672946 0.00295162 0.00646234 -0.0094074 -0.0244182 -0.0111126 -0.0224485 0.0100926 -0.0203244 -0.0260083 -0.0178882 -0.0284503 -0.00324285 -0.0156344 0.0064852
internal_weight=54121.2 19668.2 19442.2 18878.3 477.972 34453 25347.3 9105.67 3538.91 2662.41 876.498 1043.54 12387.7 9310.03 12959.7 8944.41 4015.27 3213.19 4226.63 627.747 802.076 563.835 2739.93 5083.39 2298.21 1429.95 830.794 599.16 2785.19 2169.83
internal_count=400000 70885 67284 62712 4513 329115 251176 77939 32505 26004 6501 8593 121710 89702 129466 86707 42759 36287 44810 6374 6472 4572 32021 44892 19279 12826 6388 6438 25613 25623
is_linear=0
shrinkage=0.1


Tree=21
num_leaves=31
num_cat=0
split_feature=3 2 2 3 3 3 3 0 3 3 0 3 3 3 3 3 0 3 0 3 3 0 3 0 3 6 6 6 3 3
split_gain=930.864 88.4206 68.7417 56.0835 135.508 62.5921 87.8365 51.9751 51.7473 78.4554 37.5877 25.6218 22.3866 15.2746 17.6028 14.6501 22.551 13.6746 47.0337 32.5851 15.1727 24.8948 14.6788 12.0413 10.3472 10.3377 9.37739 11.289 15.3774 7.66481
threshold=2.0558349535694398 1.0000000180025095e-35 1.0000000180025095e-35 -0.42692561947169155 -0.44249151648135382 -0.44940969293009253 -0.44768014881790791 0.61981484138016052 -0.41654835479858332 1.0000000180025095e-35 1.0000000180025095e-35 -0.42433130330341445 -0.42433130330341445 -0.46324604582757017 -0.49264829573470997 2.2296541368440019 0.61981484138016052 -0.48573011928597121 1.0000000180025095e-35 -0.48918920751034062 -0.47189376638849362 0.61981484138016052 -0.47535285461286297 0.61981484138016052 -0.4822710310616018 1.5000000000000002 1.5000000000000002 2.5000000000000004 -0.46929945022021657 -0.4649755899397548
decision_type=2 2 2 2 2 2 2 2 2 2 2 2 2 2 2 2 2 2 2 2 2 2 2 2 2 2 2 2 2 2
left_child=1 3 15 4 5 13 10 8 12 -10 -7 -9 -5 14 -1 -2 -17 18 19 -16 22 29 23 24 -19 -15 -23 28 -28 -22
right_child=2 -3 -4 7 -6 6 -8 11 9 -11 -12 -13 -14 25 17 16 -18 20 -20 -21 21 26 -24 -25 -26 -27 27 -29 -30 -31
leaf_value=-0.0043921772130273559 0.017839089140546899 0.086337702807548544 0.097385592556356315 -0.014985480438205488 0.0082701967339717034 -0.014316016293084273 -0.0086161616016534829 -0.027876965221149814 0.026859970933476546 -0.034711049526023247 -0.046191184379340916 0.0058660777453045333 -0.03850462293179456 -0.0053369138529505301 -0.0054890201289415214 0.017617846706477019 -0.028407800660299094 0.0047173851348745952 -0.0060946328273931878 -0.048121754041388319 -0.011576939142626533 -0.033241760917426123 0.0033001849077773401 -0.0010872324839073719 -0.01442113874698546 0.0095276632866177283 -0.0324817376183891 -0.030983701780319929 -0.0055522520892192211 -0.00095997092047882856
leaf_weight=4083.0855281423428 18366.780444689677 95.637167068605777 108.07640271977289 506.05107650777791 4204.3231286510127 499.0415018806234 2169.2769214514992 299.11228234833106 399.94328790239524 428.87510133779142 1430.1279362144996 908.57646371354349 2020.9527921325061 3277.0104253722238 246.58030475996202 270.36711754556745 175.59318079194054 312.50121230410878 1167.0153428489575 656.86694663850358 3258.0454824519111 598.55251016293187 1147.4820386386709 1265.3968033381971 2941.7918803616776 545.78366965486202 289.98278294381453 498.68690645566676 788.94176501303446 859.33938968135044
leaf_count=44810 58199 1733 1868 4375 45434 4147 19472 2141 4372 3088 8567 10006 13036 32476 2130 3178 1394 4271 12837 4359 30473 4198 12802 14822 25679 6416 2153 4395 8536 8633
internal_value=-6.57721e-12 -0.00968357 0.0178611 -0.00994743 -0.008388 -0.011078 -0.0224218 -0.0202809 -0.0266831 -0.00500018 -0.0379457 -0.00249117 -0.0337947 -0.00895871 -0.0101709 0.0174043 -0.000504371 -0.0118525 -0.0193559 -0.0364859 -0.0105537 -0.0139334 -0.00680034 -0.00936471 -0.0125833 -0.00321469 -0.0225845 -0.0185411 -0.0127901 -0.00936107
internal_weight=53819.8 34899 18920.8 34803.3 30239.8 26035.5 4098.45 4563.51 3355.82 828.818 1929.17 1207.69 2527 21937.1 18114.3 18812.7 445.96 14031.2 2070.46 903.447 11960.7 6293.55 5667.17 4519.69 3254.29 3822.79 2176.16 1577.61 1078.92 4117.38
internal_count=400000 335361 64639 333628 296610 251176 32186 37018 24871 7460 12714 12147 17411 218990 180098 62771 4572 135288 19326 6489 115962 58388 57574 44772 29950 38892 19282 15084 10689 39106
is_linear=0
shrinkage=0.1


Tree=22
num_leaves=31
num_cat=0
split_feature=3 3 2 3 3 3 3 3 3 6 3 0 6 0 0 3 3 3 0 6 0 0 6 3 0 3 3 0 3 0
split_gain=878.564 104.051 100.467 80.2087 77.8545 90.9432 52.4063 36.6387 52.3341 43.4296 34.3857 23.7384 16.211 15.749 13.9259 14.0639 21.1417 13.1161 30.5246 11.2113 72.7844 35.9805 11.2405 10.7615 12.1353 14.7009 10.5689 30.7188 9.07231 15.2437
threshold=1.0000000180025095e-35 -0.41654835479858332 1.0000000180025095e-35 2.2296541368440019 -0.42692561947169155 -0.44249151648135382 -0.44940969293009253 -0.4649755899397548 -0.48918920751034062 2.5000000000000004 -0.44768014881790791 0.61981484138016052 1.5000000000000002 0.61981484138016052 0.61981484138016052 -0.46670513405193953 -0.47535285461286297 -0.47362331050067835 1.0000000180025095e-35 2.5000000000000004 1.0000000180025095e-35 1.0000000180025095e-35 1.0000000180025095e-35 -0.46151650171538544 1.0000000180025095e-35 -0.45632786937883135 -0.44076197236916909 0.61981484138016052 -0.46670513405193953 1.0000000180025095e-35
decision_type=2 2 2 2 2 2 2 2 2 2 2 2 2 2 2 2 2 2 2 2 2 2 2 2 2 2 2 2 2 2
left_child=1 4 3 -2 5 6 7 8 -1 17 -8 -6 23 -5 -11 16 -16 18 -10 21 -21 22 -7 -9 25 -25 27 -23 29 -19
right_child=2 -3 -4 13 11 19 10 12 9 14 -12 -13 -14 -15 15 -17 -18 28 -20 20 -22 26 -24 24 -26 -27 -28 -29 -30 -31
leaf_value=-0.015154583675605328 0.017347789342497064 -0.040924029462288729 0.090393338544572391 -0.030560909819332013 0.01621366666696664 -0.022147427970720557 0.019145178342553498 0.0012392994090890447 0.019495605643020122 -0.0074360086809973792 -0.0030105519298824824 -0.0040622868444127507 -0.022676980946192027 0.010125155528542725 -0.015984130919299344 0.0046010940108318103 -0.046670835751684674 -0.016640929222659348 -0.00082232568222313166 -0.0533898200142566 -0.010001919784278786 0.019563231952169566 0.0017416252329327071 -6.3067417667838179e-05 -0.0093407695950948038 -0.028769284259153368 -0.027617764888915916 -0.031276128925801928 0.0030684590515046334 -0.00052977353103426798
leaf_weight=5112.4069880635361 18713.668887685752 1035.5053163132397 184.47678390180226 425.52152589213802 1507.1357139955508 254.81435421330389 1070.2204983576667 534.4396518956637 1106.3529214521986 2005.8591293558129 2027.6930445568578 936.02601535798749 2271.0644180504605 122.53712695837021 736.52432757959468 184.17293260712177 322.95879112766124 907.71814755786909 2229.4508187655592 682.83189895015676 891.32013993657893 193.72762274905108 867.56166391185252 226.32678762666183 1876.7177463841508 842.42715993517777 2356.0106582317385 307.50525622500572 1780.821078877023 1663.5162119859597
leaf_count=51218 62712 6501 3601 3178 17411 2160 12714 6598 12892 21573 19472 8593 19318 1394 6347 2254 2063 8551 25601 4334 8650 2106 8713 2241 17258 6379 17395 2076 19555 17142
internal_value=-6.01752e-11 -0.0097124 0.0169469 0.0162435 -0.00872991 -0.0101079 -0.00752692 -0.00925635 -0.00680237 -0.00289833 0.00464348 0.00844553 -0.0161049 -0.0214642 -0.0125907 -0.0209045 -0.0253383 0.00119845 0.00591632 -0.0216788 -0.0288226 -0.018853 -0.00368193 -0.0118158 -0.0141846 -0.0226903 -0.0248125 -0.0116266 -0.00241775 -0.00621747
internal_weight=53377.3 33931.1 19446.2 19261.7 32895.6 30452.4 24898.7 21800.8 16049.8 10937.4 3097.91 2443.16 5750.98 548.059 3249.52 1243.66 1059.48 7687.86 3335.8 5553.77 1574.15 3979.62 1122.38 3479.91 2945.47 1068.75 2857.24 501.233 4352.06 2571.23
internal_count=400000 329115 70885 67284 322614 296610 251176 218990 167196 115978 32186 26004 51794 4572 32237 10664 8410 83741 38493 45434 12984 32450 10873 32476 25878 8620 21577 4182 45248 25693
is_linear=0
shrinkage=0.1


Tree=23
num_leaves=31
num_cat=0
split_feature=3 3 2 2 3 3 3 3 3 6 3 0 3 3 0 3 0 6 3 3 3 0 0 3 3 6 3 3 0 6
split_gain=813.356 71.1761 85.687 52.8664 29.2453 98.4106 25.207 24.2761 29.4021 28.1244 18.7498 47.4859 40.3334 17.0575 22.4459 16.2739 17.2944 12.1743 10.0446 8.88285 21.8428 16.2624 13.319 9.34283 17.7839 17.4811 8.59864 7.14601 8.57942 6.87823
threshold=2.0558349535694398 -0.42692561947169155 1.0000000180025095e-35 1.0000000180025095e-35 -0.41654835479858332 1.0000000180025095e-35 -0.48573011928597121 -0.4649755899397548 -0.46324604582757017 2.5000000000000004 -0.44076197236916909 1.0000000180025095e-35 -0.43816765620089204 2.2296541368440019 0.61981484138016052 -0.44940969293009253 1.0000000180025095e-35 2.5000000000000004 -0.46151650171538544 -0.47189376638849362 -0.48054148694941706 0.61981484138016052 1.0000000180025095e-35 -0.46670513405193953 -0.46929945022021657 1.5000000000000002 -0.42433130330341445 -0.4822710310616018 1.0000000180025095e-35 1.0000000180025095e-35
decision_type=2 2 2 2 2 2 2 2 2 2 2 2 2 2 2 2 2 2 2 2 2 2 2 2 2 2 2 2 2 2
left_child=1 6 4 13 26 -6 -1 9 -9 19 15 12 -12 -2 -15 16 29 -13 -18 20 -8 22 -21 24 -24 -25 -3 -11 -29 -10
right_child=3 2 -4 -5 5 -7 7 8 10 27 11 17 -14 14 -16 -17 18 -19 -20 21 -22 -23 23 25 -26 -27 -28 28 -30 -31
leaf_value=-0.0012598485711434225 0.016845978235963229 -0.035051147080128485 0.082686444676753193 0.094273026197388254 0.02102021912586324 -0.036269882892659755 -0.0074027124611654518 0.0096272711510823703 0.016693597784658561 -0.011795923243226709 0.011710233555050534 0.011967709377352139 -0.029087102469101629 0.015183611849445234 -0.02989161201447927 -0.013307383694205832 -0.022284841790328556 -0.007094189639893245 -0.0062413356727066141 -0.0081890457895721618 -0.022995866248736022 -0.0021061558911090474 -0.03166226386881392 -0.04577961624868742 -0.00054543864726126615 -0.016834704166380644 -0.023849746797461255 -0.0085795373636499347 0.0059039695528438378 0.00012904043765106987
leaf_weight=5604.1838852446526 18263.151457390864 939.46500206226483 79.166589872213081 87.508101991639705 576.45273997873301 624.83718438097276 1296.2496051064227 1122.2897522874409 380.2690661160741 633.71762683824636 344.26966678409372 1684.9570919534308 818.35477811674355 280.00062675448135 182.4662697352469 5158.4261426464072 470.70507779397303 418.21088340133429 2282.9550491719856 1281.0108612918993 2926.4764210939757 1239.8589442178491 318.6052370138932 359.87956644286169 433.67165918659884 496.53954955731751 2533.1545538404025 646.16273677838035 1114.2522946781246 735.58716736210044
leaf_count=64136 58199 6516 1733 1868 6501 4513 12823 12902 4279 6460 4351 17395 6504 3178 1394 44993 4383 4377 21512 13029 25613 12759 2167 2147 4275 4472 19488 6475 12840 8718
internal_value=7.15666e-11 -0.00911675 -0.0204802 0.0167281 -0.0222277 -0.00877857 -0.00730225 -0.00870371 -0.00586685 -0.0122453 -0.0072813 -0.000788134 -0.0170064 0.0163657 -0.00260081 -0.00963015 -0.00472806 0.00817729 -0.00898378 -0.0149842 -0.0182092 -0.0116865 -0.015797 -0.0218553 -0.0137241 -0.0289978 -0.0268801 -0.00269014 0.000587779 0.00577402
internal_weight=53332.8 34519.7 4753.08 18813.1 4673.91 1201.29 29766.6 24162.4 13416 10746.4 12293.7 3265.79 1162.62 18725.6 462.467 9027.94 3869.52 2103.17 2753.66 8352.29 4222.73 4129.57 2889.71 1608.7 752.277 856.419 3472.62 2394.13 1760.42 1115.86
internal_count=400000 335361 38751 64639 37018 11014 296610 232474 129414 103060 116512 32627 10855 62771 4572 83885 38892 21772 25895 77285 38436 38849 26090 13061 6442 6619 26004 25775 19315 12997
is_linear=0
shrinkage=0.1


Tree=24
num_leaves=31
num_cat=0
split_feature=3 2 3 3 3 3 0 6 3 3 0 3 3 0 3 3 0 6 0 3 6 3 3 6 6 6 3 3 3 0
split_gain=781.134 76.4659 63.5113 56.9788 124.285 37.9661 47.5669 64.0376 34.344 36.1438 31.1495 52.2114 48.8032 20.4164 20.395 18.3753 24.9021 15.4549 14.9508 13.1016 14.994 12.5599 12.4286 25.6345 11.7734 11.3346 9.39289 9.60769 8.23652 7.91844
threshold=1.0000000180025095e-35 1.0000000180025095e-35 2.2296541368440019 -0.41654835479858332 -0.42692561947169155 -0.44076197236916909 1.0000000180025095e-35 1.5000000000000002 -0.44768014881790791 -0.46929945022021657 1.0000000180025095e-35 -0.44940969293009253 -0.44940969293009253 0.61981484138016052 -0.47362331050067835 -0.46324604582757017 0.61981484138016052 2.5000000000000004 1.0000000180025095e-35 -0.4649755899397548 2.5000000000000004 -0.46151650171538544 -0.45632786937883135 1.5000000000000002 1.5000000000000002 1.5000000000000002 -0.4649755899397548 -0.46670513405193953 -0.44508583264963081 0.61981484138016052
decision_type=2 2 2 2 2 2 2 2 2 2 2 2 2 2 2 2 2 2 2 2 2 2 2 2 2 2 2 2 2 2
left_child=3 2 -2 4 5 8 7 -7 9 14 11 19 15 -4 -1 16 26 29 28 -11 21 -21 23 -23 -20 -18 27 -12 -10 -8
right_child=1 -3 13 -5 -6 6 17 -9 18 10 12 -13 -14 -15 -16 -17 25 -19 24 20 -22 22 -24 -25 -26 -27 -28 -29 -30 -31
leaf_value=-0.0076481626419514937 0.016497652923729428 0.086929407215135354 -0.028977571958283418 -0.032908631542623107 0.013761753779202725 -0.040707854517482649 -0.034112801792632992 0.014379958343401082 -0.0043875093406743363 -0.0085555598110854357 -0.015479779103876684 -0.047081414465946436 0.012678946538062105 0.018118950197016374 0.006432208554969095 -0.0067967769742750027 -0.012397521716041365 -0.0080911308311001611 -0.011270356505349837 -0.0014284977719163398 -0.041100111941951928 -0.050009664788914214 -0.013593669174558815 -0.0057343710696087583 0.0030709432797160503 -0.029563231039677867 -0.020179851937669472 0.002540860388475744 0.017252837596822133 -0.02260571322255446
leaf_weight=11188.517650417052 18592.470800072886 151.14775122550782 414.49129201605683 977.56006831262494 2348.2194238166558 293.48750093573472 1368.7217801227816 750.98451786587248 236.87511321762577 1334.3179854798364 477.70940128254006 656.55333097279072 819.68511560116895 118.32022819435224 1132.8779227649793 2632.9038314090576 515.03340180165833 409.75971086672507 1042.0602726094367 374.63394637597958 322.61141610750929 349.61748279962922 723.77244673657697 208.90503450843971 1270.1839483343065 1519.6836225508596 531.54849525989266 777.17363827815279 683.02349082258297 1062.0188023822848
leaf_count=115311 62712 3601 3178 6501 26004 2160 8752 8695 2228 13070 4275 4147 8567 1394 12880 25895 4198 4377 8470 4354 2190 2241 6379 2162 12932 12931 4304 8800 8649 8643
internal_value=-6.63217e-11 0.016082 0.0155221 -0.00911551 -0.00841134 -0.0101083 -0.0193469 -0.00109924 -0.00876895 -0.0100948 -0.0141944 -0.0213184 -0.0103057 -0.018519 -0.00635356 -0.0132248 -0.017654 -0.0260567 0.00089757 -0.0162141 -0.0213764 -0.0175361 -0.0222421 -0.0334493 -0.00339226 -0.0252182 -0.00903853 -0.00431924 0.0116804 -0.0290852
internal_weight=53284.9 19276.4 19125.3 34008.4 33030.9 30682.7 3884.97 1044.47 26797.7 23565.5 11244.1 3970.41 7273.74 532.812 12321.4 6454.05 3821.15 2840.5 3232.14 3313.86 1979.54 1656.93 1282.29 558.523 2312.24 2034.72 1786.43 1254.88 919.899 2430.74
internal_count=400000 70885 67284 329115 322614 296610 32627 10855 263983 231704 103513 34543 68970 4572 128191 60403 34508 21772 32279 30396 17326 15136 10782 4403 21402 17129 17379 13075 10877 17395
is_linear=0
shrinkage=0.1


Tree=25
num_leaves=31
num_cat=0
split_feature=3 3 2 3 6 3 0 3 0 3 6 6 0 3 3 0 3 3 0 3 6 0 0 3 0 0 6 6 3 6
split_gain=755.599 155.467 66.4367 52.1079 91.554 55.3634 87.1218 43.89 23.9795 71.3575 23.8441 20.2578 20.0085 15.5592 34.0756 17.1097 15.521 14.0029 13.8726 12.9895 12.3006 15.4441 11.9526 10.6811 20.4618 8.28211 19.8207 7.61944 7.56165 7.47361
threshold=-0.41654835479858332 -0.44940969293009253 1.0000000180025095e-35 -0.42692561947169155 1.0000000180025095e-35 -0.44249151648135382 1.0000000180025095e-35 -0.43816765620089204 1.0000000180025095e-35 -0.44508583264963081 2.5000000000000004 2.5000000000000004 0.61981484138016052 2.0558349535694398 1.0000000180025095e-35 0.61981484138016052 -0.44768014881790791 -0.4649755899397548 0.61981484138016052 -0.44076197236916909 1.5000000000000002 1.0000000180025095e-35 0.61981484138016052 2.2296541368440019 0.61981484138016052 0.61981484138016052 1.0000000180025095e-35 1.0000000180025095e-35 -0.44076197236916909 2.5000000000000004
decision_type=2 2 2 2 2 2 2 2 2 2 2 2 2 2 2 2 2 2 2 2 2 2 2 2 2 2 2 2 2 2
left_child=1 17 13 4 22 8 11 12 9 16 -10 -7 19 14 -2 -16 -6 -1 -12 -8 21 -19 -3 -15 -25 -5 -27 -23 -13 -14
right_child=2 3 -4 25 5 6 7 -9 10 -11 18 28 29 23 15 -17 -18 20 -20 -21 -22 27 -24 24 -26 26 -28 -29 -30 -31
leaf_value=-0.0053657369725733841 0.0200415425578396 0.018841257447283554 0.084725387184083498 -0.031455780509668969 0.022228996265779538 -0.03524223795977776 -0.027111480495033348 0.015017736224587578 -0.037832691307040721 -0.048138677814924952 0.008531383534912158 0.00628281100100587 0.021179387565744955 0.016033955374100673 -0.00070852578596543954 -0.037868485657973447 -0.010742155936213816 0.0077407654071279964 -0.026907337076785939 0.0022262651295444284 0.0075848922867258377 -0.00029999439912046784 -0.0013197301218622701 0.017309207591953066 -0.026438978167032497 -0.033659068701676065 -0.0063416061520252774 -0.012187262182391195 -0.020576290590303147 -0.0039818052855666863
leaf_weight=16068.433918597293 583.93715119315311 772.00874702370493 137.49374005597201 2484.6345431294467 325.07768588361796 1202.1547419814742 670.29713056329638 1192.2271146697458 1944.2678287287126 377.09056246993714 186.51001918083057 170.67726949020289 172.0058291782625 18148.765371252201 319.4336327931378 202.4246880748542 254.59155788668431 953.97713207826018 270.89529573579784 194.77006142784376 1709.3799165407545 897.22188624693081 474.98355393047677 277.64040811057203 173.86006936314516 569.71263478713809 497.58772710373159 1351.335166286095 271.63732646265998 376.33657431195024
leaf_count=167196 6501 8705 3601 17411 4147 8713 4289 12944 12916 2169 2154 2143 2076 58199 3088 1425 2228 10835 2156 2240 19318 8715 4322 3178 1394 4330 4263 12926 2191 4227
internal_value=5.43561e-11 -0.00918497 0.0154542 -0.0180584 -0.0139541 -0.0180705 -0.0104877 0.000886499 -0.0276665 -0.0142788 -0.0329998 -0.0285099 -0.0110334 0.0149709 0.00344653 -0.0151226 0.00774802 -0.00393736 -0.012457 -0.0205061 0.000735302 -0.00292073 0.0111619 0.015656 0.000463018 -0.028291 -0.0209234 -0.00744399 -0.0102121 0.00391084
internal_weight=53231.4 33387.8 19843.6 12407.5 8855.53 7608.54 4250.11 2605.64 3358.43 956.76 2401.67 1644.47 1413.41 19706.1 1105.8 521.858 579.669 20980.3 457.405 865.067 4911.91 3202.53 1246.99 18600.3 451.5 3551.93 1067.3 2248.56 442.315 548.342
internal_count=400000 322614 77386 103624 77620 64593 38823 25776 25770 8544 17226 13047 12832 73785 11014 4513 6375 218990 4310 6529 51794 32476 13027 62771 4572 26004 8593 21641 4334 6303
is_linear=0
shrinkage=0.1


Tree=26
num_leaves=31
num_cat=0
split_feature=3 3 2 2 3 3 6 3 0 3 0 6 3 0 3 3 6 0 6 0 6 0 3 0 3 0 0 0 0 3
split_gain=616.573 55.1851 77.8472 42.7594 41.349 71.9231 91.0438 57.6477 111.815 65.8133 47.0162 42.9593 36.0381 25.2035 33.4177 22.8975 41.7069 35.271 32.8824 20.7602 14.899 14.5218 13.4049 17.8662 11.9942 25.3478 11.1155 10.332 10.1536 24.0467
threshold=2.0558349535694398 2.2296541368440019 1.0000000180025095e-35 1.0000000180025095e-35 -0.41654835479858332 -0.42692561947169155 1.0000000180025095e-35 -0.43816765620089204 1.0000000180025095e-35 -0.44940969293009253 0.61981484138016052 2.5000000000000004 -0.45632786937883135 1.0000000180025095e-35 -0.44076197236916909 -0.4649755899397548 1.5000000000000002 0.61981484138016052 2.5000000000000004 0.61981484138016052 2.5000000000000004 1.0000000180025095e-35 1.0000000180025095e-35 0.61981484138016052 -0.45113923704227726 0.61981484138016052 1.0000000180025095e-35 1.0000000180025095e-35 0.61981484138016052 -0.49610738395907933
decision_type=2 2 2 2 2 2 2 2 2 2 2 2 2 2 2 2 2 2 2 2 2 2 2 2 2 2 2 2 2 2
left_child=3 -2 19 4 5 6 12 9 -9 15 -7 -12 28 14 -14 -8 -17 18 21 27 -11 -18 -6 -24 25 -15 -20 -3 -1 -30
right_child=1 2 -4 -5 22 10 7 8 -10 20 11 -13 13 24 -16 16 17 -19 26 -21 -22 -23 23 -25 -26 -27 -28 -29 29 -31
leaf_value=-0.0038634489276327955 0.015565677017798053 -0.019141258983303537 0.089295570783856512 0.075850128448829018 -0.031545000560733671 0.020423413218433512 -0.0053329730002569459 0.019939477616544934 -0.032474910168709313 0.011994165077532145 0.0077553535933402307 -0.03727151652527224 -0.045610019546192967 -0.030449203947390754 -0.0020817694883197837 -0.0025389764086523204 -0.04936841923980962 -0.0016364998728614459 0.010534905524541409 0.0096544008583491214 1.9310453211990597e-05 -0.027611198881534169 -0.022096473560130229 0.022091893307510619 -0.02428528894187823 0.013790874305412218 -0.02113487732011652 -0.049850587405426909 -0.039894775349109297 -0.0016003414053945147
leaf_weight=1200.4114655854064 18146.65452713659 195.33202689932659 64.978769259643741 60.696150265197502 959.91474930563709 1464.9351652784389 14227.015034740907 521.11151984101161 1858.7477051334572 2328.1629973673844 590.03987393144052 330.6232064703363 1019.0570860782464 244.02802119660191 213.28878040239215 1810.9746657498181 627.56454516609665 579.05094647553051 198.89244171231985 125.73350371746346 1876.3912645120872 600.13002084038453 374.08404761709971 121.12606760545168 1734.0933809647395 275.98138777149143 250.2886357899406 249.49405734398169 305.01115834107623 354.63158027001191
leaf_count=12856 58199 1696 1868 1733 6501 17411 148045 6504 12944 25623 6471 2122 6407 2123 2160 19482 4301 6362 2190 1394 19522 4281 3088 1425 13174 2157 2184 1482 2111 4184
internal_value=8.59966e-12 0.0145513 -0.0144132 -0.00800864 -0.00815805 -0.00742211 -0.00874149 -0.0061972 -0.0209979 -0.0046316 0.00929415 -0.00841444 -0.0205806 -0.0265774 -0.0380763 -0.00722451 -0.0138416 -0.0229149 -0.0302626 -0.0262242 0.00665008 -0.0387329 -0.0246512 -0.0112882 -0.0202907 -0.00696994 -0.00711185 -0.0363655 -0.00934038 -0.0193072
internal_weight=52908.4 18782.2 635.538 34126.3 34065.6 32610.4 30224.8 24878.3 2379.86 22498.5 2385.6 920.663 5346.5 3486.45 1232.35 18293.9 4066.9 2255.93 1676.88 570.56 4204.55 1227.69 1455.12 495.21 2254.1 520.009 449.181 444.826 1860.05 659.643
internal_count=400000 64639 6440 335361 333628 322614 296610 251438 19448 231990 26004 8593 45172 26021 8567 186845 38800 19318 12956 4572 45145 8582 11014 4513 17454 4280 4374 3178 19151 6295
is_linear=0
shrinkage=0.1


Tree=27
num_leaves=31
num_cat=0
split_feature=3 3 6 0 2 3 3 0 0 3 3 3 3 3 0 6 6 0 3 3 3 3 3 3 3 0 0 3 3 3
split_gain=720.612 119.964 84.831 55.4523 49.7489 43.3104 35.0385 33.6281 42.7037 21.1642 30.5018 20.3485 19.9974 41.5344 19.2019 19.0174 18.1289 17.0003 36.1074 30.3709 14.694 14.0419 11.4206 11.1107 10.6473 10.53 10.2003 10.0286 8.60527 19.9596
threshold=-0.41654835479858332 -0.42692561947169155 2.5000000000000004 0.61981484138016052 1.0000000180025095e-35 -0.44508583264963081 -0.4822710310616018 0.61981484138016052 1.0000000180025095e-35 -0.4649755899397548 -0.44768014881790791 -0.44249151648135382 -0.44249151648135382 -0.44076197236916909 0.61981484138016052 2.5000000000000004 1.0000000180025095e-35 1.0000000180025095e-35 -0.44076197236916909 -0.44076197236916909 -0.42433130330341445 -0.44249151648135382 -0.48918920751034062 -0.45113923704227726 -0.44076197236916909 0.61981484138016052 0.61981484138016052 -0.47535285461286297 -0.46670513405193953 -0.47535285461286297
decision_type=2 2 2 2 2 2 2 2 2 2 2 2 2 2 2 2 2 2 2 2 2 2 2 2 2 2 2 2 2 2
left_child=1 2 5 20 -2 16 14 8 24 28 -11 -9 -12 -14 -4 -5 23 19 21 -7 -3 -19 -16 -1 27 -25 -20 -8 29 -10
right_child=4 3 6 15 -6 17 7 11 9 10 12 -13 13 -15 22 -17 -18 18 26 -21 -22 -23 -24 25 -26 -27 -28 -29 -30 -31
leaf_value=-0.0018625583684781918 0.014808780926581345 -0.046551204311410549 0.0042451793586172088 -0.012811065272044836 0.080865329765287763 0.014842071727383289 0.0036667978903085863 0.00070025400572973036 -0.05379612458277952 0.010353507692410393 -0.052166917815209261 -0.024928345053285547 0.0070093809527495502 -0.046150306827401913 -0.033414561665165841 0.022939134595875904 -0.0074979058508437228 0.0054353358589158546 0.027807397600492053 -0.014277654776775199 -0.029520144003417167 -0.015039163133589648 -0.0076787038651021725 0.0242082814683054 0.0073414447568699946 -0.0049776862229650963 0.011478378629057625 -0.020141804749529042 -0.059258143301557223 -0.017492553587380659
leaf_weight=2445.3189517847204 19538.475947901723 700.42634932650253 1043.3162488650414 721.52617250569165 114.68146062620508 562.71419338975102 206.20958889333997 956.03381354140583 379.07485379633727 192.26376659795642 353.38069665926741 458.31751751399133 268.23707931122044 325.11537299019983 264.87320829852251 187.4547313710209 15491.648315633938 902.78931142785586 791.24687974702101 985.31330201140372 1830.5820425848942 532.5667247127858 494.05030806048308 351.93441217450891 209.7860030286829 190.54759953927714 740.64231681154342 1245.5045503017027 328.05308672093088 252.20186388713773
leaf_count=25556 73785 4375 12955 6471 3601 6506 2102 10686 2101 2184 2154 4227 2183 2240 2100 2122 154399 8637 8752 8664 13036 4182 4275 4420 2191 2169 8643 10934 2181 2169
