{"learner":{"attributes":{"best_iteration":"21","best_score":"0.6860646776822839"},"feature_names":["rating","cart_size","hour_of_day","is_single_item_cart","has_main","has_side","has_dessert","has_drink","meal_completeness_score","estimated_cart_value","candidate_category_main","candidate_category_side","candidate_category_dessert","candidate_category_drink","is_complement_to_any_cart_item","candidate_price_tier_vs_cart","candidate_popularity_rank","cuisine_encoded","area_encoded","votes_log","price_tier_encoded","is_chain","meal_time_breakfast","meal_time_lunch","meal_time_dinner","meal_time_late_night","day_of_week","is_weekend"],"feature_types":["float","int","int","int","int","int","int","int","float","int","int","int","int","int","int","int","float","int","int","float","int","int","int","int","int","int","int","int"],"gradient_booster":{"model":{"gbtree_model_param":{"num_parallel_tree":"1","num_trees":"72"},"iteration_indptr":[0,1,2,3,4,5,6,7,8,9,10,11,12,13,14,15,16,17,18,19,20,21,22,23,24,25,26,27,28,29,30,31,32,33,34,35,36,37,38,39,40,41,42,43,44,45,46,47,48,49,50,51,52,53,54,55,56,57,58,59,60,61,62,63,64,65,66,67,68,69,70,71,72],"tree_info":[0,0,0,0,0,0,0,0,0,0,0,0,0,0,0,0,0,0,0,0,0,0,0,0,0,0,0,0,0,0,0,0,0,0,0,0,0,0,0,0,0,0,0,0,0,0,0,0,0,0,0,0,0,0,0,0,0,0,0,0,0,0,0,0,0,0,0,0,0,0,0,0],"trees":[{"base_weights":[-1.1524214E-9,-7.555665E-2,4.861756E-1,-6.0873064E-3,-1.6576119E-1,5.501915E-1,3.8943714E-1,7.8999184E-2,-7.2188996E-2,-8.401561E-2,-2.593613E-1,5.1069385E-1,6.293625E-1,3.4672228E-1,5.027043E-1,1.3217722E-1,1.8189665E-2,-9.537714E-2,3.6609843E-2,-6.6870034E-2,-1.9191182E-1,-1.2167101E-1,-3.055163E-1,4.721659E-1,5.2360785E-1,5.6539357E-1,6.5823853E-1,3.1143537E-1,3.6340666E-1,5.168431E-1,4.483299E-1,1.6399843E-1,8.952321E-2,9.5084734E-2,-7.570409E-2,-7.714147E-2,-1.8490084E-1,9.409719E-2,-4.020996E-2,-1.20605E-1,-3.744371E-2,1.313166E-1,-1.9566609E-1,-2.1736884E-1,-8.204563E-2,-3.6172396E-1,-2.3348147E-1,4.5835063E-1,5.4669213E-1,4.686442E-1,5.3060615E-1,5.521438E-1,5.9698135E-2,6.824101E-1,6.2383324E-1,2.6198262E-1,3.8424602E-1,4.010976E-1,3.176692E-1,4.5964107E-1,5.255334E-1,2.786438E-1,4.5381588E-1,1.3028975E-2,2.251101E-2,1.2792602E-2,5.136424E-3,1.3452621E-2,4.9159303E-3,-2.1179232E-3,-1.2350216E-2,-1.7457268E-3,-1.0261432E-2,-2.3133887E-2,-1.4515705E-2,1.3554968E-3,1.3478622E-2,4.3343488E-4,-1.6702501E-2,-1.719208E-2,4.654972E-3,-6.909206E-3,-3.23217E-4,2.2227313E-2,-2.2985062E-2,-4.4715967E-2,-1.9028423E-2,-2.5955528E-2,-1.3803252E-3,-6.1513064E-3,-1.7593069E-2,-4.5033317E-2,-3.1001735E-2,-1.7788632E-2,-3.8629968E-2,4.6166252E-2,1.9442055E-2,6.2564984E-2,4.797299E-2,4.6142057E-2,5.9687134E-2,5.5245277E-2,5.1305808E-2,5.2025594E-2,5.7510313E-2,7.031187E-2,6.431046E-2,5.0838955E-2,6.31256E-2,3.2608215E-2,2.0979648E-2,4.06177E-2,2.3605613E-2,4.3148868E-2,3.804613E-2,3.2258492E-2,-4.736825E-3,4.2178348E-2,6.0507216E-2,5.7434388E-2,5.1068027E-2,4.988162E-2,-6.6446834E-3,4.3588854E-2,5.2057754E-2],"categories":[],"categories_nodes":[],"categories_segments":[],"categories_sizes":[],"default_left":[0,0,0,0,0,0,0,0,0,0,0,0,0,0,0,0,0,0,0,0,0,0,0,0,0,0,0,0,0,0,0,0,0,0,0,0,0,0,0,0,0,0,0,0,0,0,0,0,0,0,0,0,0,0,0,0,0,0,0,0,0,0,0,0,0,0,0,0,0,0,0,0,0,0,0,0,0,0,0,0,0,0,0,0,0,0,0,0,0,0,0,0,0,0,0,0,0,0,0,0,0,0,0,0,0,0,0,0,0,0,0,0,0,0,0,0,0,0,0,0,0,0,0,0,0],"id":0,"left_children":[1,3,5,7,9,11,13,15,17,19,21,23,25,27,29,31,33,35,37,39,41,43,45,47,49,51,53,55,57,59,61,63,65,67,69,71,73,75,77,79,81,83,85,87,89,91,93,95,97,99,101,103,-1,105,107,109,111,113,115,117,119,121,123,-1,-1,-1,-1,-1,-1,-1,-1,-1,-1,-1,-1,-1,-1,-1,-1,-1,-1,-1,-1,-1,-1,-1,-1,-1,-1,-1,-1,-1,-1,-1,-1,-1,-1,-1,-1,-1,-1,-1,-1,-1,-1,-1,-1,-1,-1,-1,-1,-1,-1,-1,-1,-1,-1,-1,-1,-1,-1,-1,-1,-1,-1],"loss_changes":[4.0912632E3,6.040547E2,9.255908E1,3.0629465E2,3.208673E2,2.7861816E1,2.8705383E1,7.699312E1,7.732472E1,4.1404526E1,1.242124E2,2.7471924E0,5.161133E0,2.4406128E0,1.0232544E0,1.7225708E1,8.021507E1,4.1230225E1,2.3785702E1,3.0544891E1,3.7502975E0,1.8601395E1,5.9200195E1,1.3154297E0,1.4815674E0,6.326294E-2,1.2855835E0,4.938629E0,4.939453E0,3.9916992E-1,1.9416046E-1,1.4954132E1,7.949726E0,1.1056995E1,1.3034279E1,3.1910759E1,7.8558044E0,1.0093464E1,1.3025479E1,5.8644196E1,1.3517998E1,1.2284267E0,4.0221176E0,1.233831E1,6.6858177E0,3.7534546E1,5.447818E1,1.037262E0,9.3003845E-1,2.0311737E-1,1.2434082E0,1.947174E-1,0E0,5.229492E-1,4.166565E-1,2.730095E0,1.7368927E0,8.4402466E-1,2.4066162E0,7.2465897E-1,5.1290894E-1,1.0495138E0,1.7048645E-1,0E0,0E0,0E0,0E0,0E0,0E0,0E0,0E0,0E0,0E0,0E0,0E0,0E0,0E0,0E0,0E0,0E0,0E0,0E0,0E0,0E0,0E0,0E0,0E0,0E0,0E0,0E0,0E0,0E0,0E0,0E0,0E0,0E0,0E0,0E0,0E0,0E0,0E0,0E0,0E0,0E0,0E0,0E0,0E0,0E0,0E0,0E0,0E0,0E0,0E0,0E0,0E0,0E0,0E0,0E0,0E0,0E0,0E0,0E0,0E0,0E0,0E0],"parents":[2147483647,0,0,1,1,2,2,3,3,4,4,5,5,6,6,7,7,8,8,9,9,10,10,11,11,12,12,13,13,14,14,15,15,16,16,17,17,18,18,19,19,20,20,21,21,22,22,23,23,24,24,25,25,26,26,27,27,28,28,29,29,30,30,31,31,32,32,33,33,34,34,35,35,36,36,37,37,38,38,39,39,40,40,41,41,42,42,43,43,44,44,45,45,46,46,47,47,48,48,49,49,50,50,51,51,53,53,54,54,55,55,56,56,57,57,58,58,59,59,60,60,61,61,62,62],"right_children":[2,4,6,8,10,12,14,16,18,20,22,24,26,28,30,32,34,36,38,40,42,44,46,48,50,52,54,56,58,60,62,64,66,68,70,72,74,76,78,80,82,84,86,88,90,92,94,96,98,100,102,104,-1,106,108,110,112,114,116,118,120,122,124,-1,-1,-1,-1,-1,-1,-1,-1,-1,-1,-1,-1,-1,-1,-1,-1,-1,-1,-1,-1,-1,-1,-1,-1,-1,-1,-1,-1,-1,-1,-1,-1,-1,-1,-1,-1,-1,-1,-1,-1,-1,-1,-1,-1,-1,-1,-1,-1,-1,-1,-1,-1,-1,-1,-1,-1,-1,-1,-1,-1,-1,-1],"split_conditions":[1E0,1E0,1E0,1E0,1E0,3E0,4.133333E0,1E0,3E0,5E0,2E0,1E0,5E-1,3.9E2,1.2E3,1E0,4.5E0,1.2E3,1E0,2E0,3.1354942E0,2E0,2E0,6.7487597E0,1.6E2,5E0,1E0,1E0,4E0,1E0,1E0,1E0,1E0,1E0,1E0,1E0,2E0,5E-1,6E2,2E0,1E0,5E0,3.8286414E0,3.1E2,5E0,2E0,5E0,6.7345915E0,6.818924E0,6.8679743E0,3.6E2,2E0,5.9698135E-2,5.5E2,4.394449E0,6.1463294E0,2.1E1,5.9939613E0,6.895683E0,2E1,5E0,6.2025356E0,1.5E3,1.3028975E-2,2.251101E-2,1.2792602E-2,5.136424E-3,1.3452621E-2,4.9159303E-3,-2.1179232E-3,-1.2350216E-2,-1.7457268E-3,-1.0261432E-2,-2.3133887E-2,-1.4515705E-2,1.3554968E-3,1.3478622E-2,4.3343488E-4,-1.6702501E-2,-1.719208E-2,4.654972E-3,-6.909206E-3,-3.23217E-4,2.2227313E-2,-2.2985062E-2,-4.4715967E-2,-1.9028423E-2,-2.5955528E-2,-1.3803252E-3,-6.1513064E-3,-1.7593069E-2,-4.5033317E-2,-3.1001735E-2,-1.7788632E-2,-3.8629968E-2,4.6166252E-2,1.9442055E-2,6.2564984E-2,4.797299E-2,4.6142057E-2,5.9687134E-2,5.5245277E-2,5.1305808E-2,5.2025594E-2,5.7510313E-2,7.031187E-2,6.431046E-2,5.0838955E-2,6.31256E-2,3.2608215E-2,2.0979648E-2,4.06177E-2,2.3605613E-2,4.3148868E-2,3.804613E-2,3.2258492E-2,-4.736825E-3,4.2178348E-2,6.0507216E-2,5.7434388E-2,5.1068027E-2,4.988162E-2,-6.6446834E-3,4.3588854E-2,5.2057754E-2],"split_indices":[14,10,10,4,4,18,0,11,18,16,1,18,8,9,9,12,0,9,12,16,19,16,20,19,9,26,6,5,16,26,2,7,7,7,7,18,16,8,9,20,7,26,19,9,16,16,16,19,19,19,9,16,0,9,19,19,2,19,19,2,2,19,9,0,0,0,0,0,0,0,0,0,0,0,0,0,0,0,0,0,0,0,0,0,0,0,0,0,0,0,0,0,0,0,0,0,0,0,0,0,0,0,0,0,0,0,0,0,0,0,0,0,0,0,0,0,0,0,0,0,0,0,0,0,0],"split_type":[0,0,0,0,0,0,0,0,0,0,0,0,0,0,0,0,0,0,0,0,0,0,0,0,0,0,0,0,0,0,0,0,0,0,0,0,0,0,0,0,0,0,0,0,0,0,0,0,0,0,0,0,0,0,0,0,0,0,0,0,0,0,0,0,0,0,0,0,0,0,0,0,0,0,0,0,0,0,0,0,0,0,0,0,0,0,0,0,0,0,0,0,0,0,0,0,0,0,0,0,0,0,0,0,0,0,0,0,0,0,0,0,0,0,0,0,0,0,0,0,0,0,0,0,0],"sum_hessian":[1.1137399E5,9.6394195E4,1.4979798E4,5.445656E4,4.1937637E4,9.011689E3,5.968108E3,2.3809121E4,3.064744E4,2.238746E4,1.9550176E4,6.0172075E3,2.994482E3,4.3367217E3,1.6313866E3,1.2700946E4,1.1108175E4,2.5263242E4,5.384196E3,1.931912E4,3.068343E3,4.909055E3,1.4641121E4,1.5199926E3,4.497215E3,9.3772345E2,2.0567583E3,1.3985358E3,2.9381858E3,1.287975E3,3.434116E2,7.272553E3,5.4283926E3,6.1068813E3,5.0012935E3,2.0989596E4,4.273646E3,3.0794758E3,2.3047202E3,6.834905E3,1.2484214E4,3.4839226E1,3.033504E3,1.4361577E3,3.4728975E3,8.221776E3,6.419344E3,1.2883203E3,2.3167216E2,5.1561475E2,3.9816003E3,6.736392E2,2.640842E2,1.1969799E3,8.597785E2,8.35598E2,5.629377E2,1.6065244E3,1.3316614E3,1.7697417E2,1.1110009E3,1.2376897E1,3.310347E2,4.6891753E3,2.5833782E3,2.704379E3,2.7240134E3,3.2843237E3,2.8225576E3,2.3369263E3,2.6643672E3,6.2790776E3,1.4710519E4,1.9686207E3,2.3050256E3,1.0340167E3,2.045459E3,1.7063304E3,5.983898E2,5.229455E3,1.6054493E3,6.484513E3,5.9997007E3,2.8137608E1,6.7016196E0,6.1835915E1,2.971668E3,1.1893953E3,2.467624E2,2.8510344E3,6.2186304E2,3.0268972E3,5.194879E3,4.708544E3,1.7108004E3,1.2716144E3,1.670601E1,1.02484985E2,1.2918718E2,4.9247012E2,2.3144615E1,1.7599963E3,2.221604E3,2.9189267E2,3.8174655E2,7.72888E2,4.2409186E2,5.614027E1,8.0363824E2,3.7264044E2,4.629576E2,4.888506E2,7.408713E1,6.416538E2,9.6487054E2,1.3140819E3,1.7579477E1,1.4351546E2,3.345871E1,2.5041605E2,8.605848E2,7.2840886E0,5.0928087E0,2.6689502E2,6.413969E1],"tree_param":{"num_deleted":"0","num_feature":"28","num_nodes":"125","size_leaf_vector":"1"}},{"base_weights":[1.6270187E-10,-5.027592E-2,2.1541718E-1,-1.2005249E-9,-1.03561535E-1,2.5344574E-1,2.043345E-1,-2.4125699E-2,6.912145E-2,-9.691425E-2,-1.585466E-1,2.2855334E-1,3.030661E-1,2.1525507E-1,1.7613095E-1,-1.1705761E-2,-6.39396E-2,9.9885695E-2,4.3719385E-2,-1.2058966E-1,-7.465987E-2,-1.419664E-1,-1.9196916E-1,2.1349952E-1,2.9746553E-1,3.4548914E-1,2.8210577E-1,2.4696277E-1,2.0669432E-1,1.5176104E-1,2.1155581E-1,-3.3541415E-2,2.6323315E-2,-1.0317425E-1,1.1687212E-2,1.7390478E-1,8.065603E-2,3.6495402E-2,1.3709867E-1,-1.1167109E-1,-2.3465836E-1,-1.19784825E-1,-4.432225E-2,-1.2693228E-1,-2.0194745E-1,-1.3194774E-1,-2.6688892E-1,2.7345797E-1,2.0240547E-1,2.0378464E-1,3.407662E-1,3.0986056E-1,4.66459E-1,2.6649582E-1,3.8829955E-1,2.4108256E-1,3.9406946E-1,2.4287023E-1,1.9796447E-1,1.2879978E-1,1.6813597E-1,1.8270865E-1,2.662428E-1,-5.3796214E-3,5.124497E-3,6.320629E-3,-2.086223E-3,-9.242798E-3,-1.3455965E-2,4.9838694E-3,-3.6703483E-3,1.3453665E-2,2.1468438E-2,-9.352898E-3,8.263762E-3,4.493246E-3,2.8707524E-4,6.1475825E-3,1.8107686E-2,-9.634485E-3,-1.5710564E-2,-1.9371023E-2,-3.6696997E-2,-1.2967397E-2,1.960462E-3,-3.4326443E-3,-6.792821E-3,-1.3431171E-2,3.3054425E-4,-4.261554E-2,-1.9243527E-2,-3.3234158E-3,-1.6405119E-2,-2.8985335E-2,-1.0659686E-2,4.5106217E-2,2.5832126E-2,1.8003171E-2,2.3384312E-2,4.2120848E-2,1.7162746E-2,4.4519372E-2,2.9121427E-2,4.3979015E-2,2.857174E-2,5.2465525E-2,2.586538E-2,2.5464086E-2,4.0334623E-2,4.385684E-2,2.777437E-2,2.3455678E-2,3.4191467E-2,5.0026733E-2,2.1571567E-2,2.5476022E-2,1.6375428E-2,1.9036291E-2,2.4349868E-2,1.3684091E-2,-1.1549161E-2,2.7821144E-2,1.52376015E-2,5.1254895E-2,1.7866755E-2,3.277324E-2,2.5020687E-2],"categories":[],"categories_nodes":[],"categories_segments":[],"categories_sizes":[],"default_left":[0,0,0,0,0,0,0,0,0,0,0,0,0,0,0,0,0,0,0,0,0,0,0,0,0,0,0,0,0,0,0,0,0,0,0,0,0,0,0,0,0,0,0,0,0,0,0,0,0,0,0,0,0,0,0,0,0,0,0,0,0,0,0,0,0,0,0,0,0,0,0,0,0,0,0,0,0,0,0,0,0,0,0,0,0,0,0,0,0,0,0,0,0,0,0,0,0,0,0,0,0,0,0,0,0,0,0,0,0,0,0,0,0,0,0,0,0,0,0,0,0,0,0,0,0,0,0],"id":1,"left_children":[1,3,5,7,9,11,13,15,17,19,21,23,25,27,29,31,33,35,37,39,41,43,45,47,49,51,53,55,57,59,61,63,65,67,69,71,73,75,77,79,81,83,85,87,89,91,93,95,97,99,101,103,105,107,109,111,113,115,117,119,121,123,125,-1,-1,-1,-1,-1,-1,-1,-1,-1,-1,-1,-1,-1,-1,-1,-1,-1,-1,-1,-1,-1,-1,-1,-1,-1,-1,-1,-1,-1,-1,-1,-1,-1,-1,-1,-1,-1,-1,-1,-1,-1,-1,-1,-1,-1,-1,-1,-1,-1,-1,-1,-1,-1,-1,-1,-1,-1,-1,-1,-1,-1,-1,-1,-1],"loss_changes":[5.0260923E3,1.0079994E3,3.6958496E1,3.2284863E2,6.674841E1,2.440271E1,2.0906982E1,7.096318E1,3.9139694E1,8.585425E1,1.0889191E1,1.3627869E1,5.7852173E0,1.3254639E1,1.6359497E1,9.083586E1,1.01250916E2,3.2229614E1,1.8503712E1,8.0302E1,1.1499777E2,1.1851654E1,2.932521E1,7.1520996E0,9.518539E0,9.265503E0,7.2457275E0,8.914673E0,1.2142944E1,4.2090454E0,1.2155121E1,1.1933908E2,6.944093E1,7.5652466E0,2.1522224E1,7.469452E0,6.2149734E0,7.2252274E0,6.5401154E0,5.0982117E1,3.094629E1,4.6555023E1,1.1851242E1,1.0124619E1,5.5440903E0,1.1488716E1,1.0655762E1,4.4239807E0,6.3919067E0,5.169052E0,8.227264E0,5.1743164E0,5.847641E0,6.1732483E0,3.0236588E0,6.5115967E0,7.444866E0,7.0135803E0,1.07196045E1,9.225571E0,1.1346283E1,6.6630707E0,2.550003E0,0E0,0E0,0E0,0E0,0E0,0E0,0E0,0E0,0E0,0E0,0E0,0E0,0E0,0E0,0E0,0E0,0E0,0E0,0E0,0E0,0E0,0E0,0E0,0E0,0E0,0E0,0E0,0E0,0E0,0E0,0E0,0E0,0E0,0E0,0E0,0E0,0E0,0E0,0E0,0E0,0E0,0E0,0E0,0E0,0E0,0E0,0E0,0E0,0E0,0E0,0E0,0E0,0E0,0E0,0E0,0E0,0E0,0E0,0E0,0E0,0E0,0E0,0E0,0E0],"parents":[2147483647,0,0,1,1,2,2,3,3,4,4,5,5,6,6,7,7,8,8,9,9,10,10,11,11,12,12,13,13,14,14,15,15,16,16,17,17,18,18,19,19,20,20,21,21,22,22,23,23,24,24,25,25,26,26,27,27,28,28,29,29,30,30,31,31,32,32,33,33,34,34,35,35,36,36,37,37,38,38,39,39,40,40,41,41,42,42,43,43,44,44,45,45,46,46,47,47,48,48,49,49,50,50,51,51,52,52,53,53,54,54,55,55,56,56,57,57,58,58,59,59,60,60,61,61,62,62],"right_children":[2,4,6,8,10,12,14,16,18,20,22,24,26,28,30,32,34,36,38,40,42,44,46,48,50,52,54,56,58,60,62,64,66,68,70,72,74,76,78,80,82,84,86,88,90,92,94,96,98,100,102,104,106,108,110,112,114,116,118,120,122,124,126,-1,-1,-1,-1,-1,-1,-1,-1,-1,-1,-1,-1,-1,-1,-1,-1,-1,-1,-1,-1,-1,-1,-1,-1,-1,-1,-1,-1,-1,-1,-1,-1,-1,-1,-1,-1,-1,-1,-1,-1,-1,-1,-1,-1,-1,-1,-1,-1,-1,-1,-1,-1,-1,-1,-1,-1,-1,-1,-1,-1,-1,-1,-1,-1],"split_conditions":[1E0,1E0,1E0,1E0,1.2E3,1E0,1E0,3E0,2E0,2E0,1E0,6.7019606E0,9E2,2.8E2,1E0,1E0,1E0,2E0,5E0,6E2,2E0,1.5E3,3E0,2E0,8E0,1E0,2.1E1,6.872128E0,2E0,6.059123E0,3E0,4.5E0,1E0,2E0,4.5E0,2E0,3.1354942E0,1E0,2.6E2,1E0,1E0,1E0,1E0,1E0,1E0,5.521461E0,6.779922E0,4.189655E0,4E0,6.729824E0,1E0,1E0,1E0,1.8E3,5E0,2.7E2,1E0,6.7707896E0,1.15E3,6.0330863E0,6.2025356E0,3.295837E0,5.3752785E0,-5.3796214E-3,5.124497E-3,6.320629E-3,-2.086223E-3,-9.242798E-3,-1.3455965E-2,4.9838694E-3,-3.6703483E-3,1.3453665E-2,2.1468438E-2,-9.352898E-3,8.263762E-3,4.493246E-3,2.8707524E-4,6.1475825E-3,1.8107686E-2,-9.634485E-3,-1.5710564E-2,-1.9371023E-2,-3.6696997E-2,-1.2967397E-2,1.960462E-3,-3.4326443E-3,-6.792821E-3,-1.3431171E-2,3.3054425E-4,-4.261554E-2,-1.9243527E-2,-3.3234158E-3,-1.6405119E-2,-2.8985335E-2,-1.0659686E-2,4.5106217E-2,2.5832126E-2,1.8003171E-2,2.3384312E-2,4.2120848E-2,1.7162746E-2,4.4519372E-2,2.9121427E-2,4.3979015E-2,2.857174E-2,5.2465525E-2,2.586538E-2,2.5464086E-2,4.0334623E-2,4.385684E-2,2.777437E-2,2.3455678E-2,3.4191467E-2,5.0026733E-2,2.1571567E-2,2.5476022E-2,1.6375428E-2,1.9036291E-2,2.4349868E-2,1.3684091E-2,-1.1549161E-2,2.7821144E-2,1.52376015E-2,5.1254895E-2,1.7866755E-2,3.277324E-2,2.5020687E-2],"split_indices":[14,4,18,10,9,11,6,16,20,20,11,19,9,9,11,13,7,16,16,9,16,9,16,1,2,22,2,19,1,19,16,0,7,1,0,1,19,23,9,10,10,15,11,6,2,19,19,19,26,19,10,26,5,9,26,9,5,19,9,19,19,19,19,0,0,0,0,0,0,0,0,0,0,0,0,0,0,0,0,0,0,0,0,0,0,0,0,0,0,0,0,0,0,0,0,0,0,0,0,0,0,0,0,0,0,0,0,0,0,0,0,0,0,0,0,0,0,0,0,0,0,0,0,0,0,0,0],"split_type":[0,0,0,0,0,0,0,0,0,0,0,0,0,0,0,0,0,0,0,0,0,0,0,0,0,0,0,0,0,0,0,0,0,0,0,0,0,0,0,0,0,0,0,0,0,0,0,0,0,0,0,0,0,0,0,0,0,0,0,0,0,0,0,0,0,0,0,0,0,0,0,0,0,0,0,0,0,0,0,0,0,0,0,0,0,0,0,0,0,0,0,0,0,0,0,0,0,0,0,0,0,0,0,0,0,0,0,0,0,0,0,0,0,0,0,0,0,0,0,0,0,0,0,0,0,0,0],"sum_hessian":[4.640751E5,3.7626084E5,8.781424E4,1.9359838E5,1.8266247E5,1.9811623E4,6.800262E4,1.4350944E5,5.0088938E4,1.6296408E5,1.9698398E4,1.3196904E4,6.6147188E3,4.901653E4,1.8986088E4,1.0938736E5,3.412207E4,2.2652158E4,2.7436781E4,7.89589E4,8.400518E4,1.3170198E4,6.5282E3,1.0834265E4,2.36264E3,2.1823093E3,4.4324097E3,1.0414599E4,3.860193E4,1.1251263E4,7.734825E3,6.948841E4,3.9898957E4,2.2466334E4,1.1655736E4,4.669647E3,1.7982512E4,2.5467928E4,1.9688522E3,7.323494E4,5.7239663E3,3.3770746E4,5.023443E4,1.0533192E4,2.6370059E3,3.6260103E3,2.9021897E3,1.6879565E3,9.146308E3,7.486479E2,1.613992E3,1.688551E3,4.937582E2,3.867427E3,5.6498254E2,1.0016841E4,3.9775748E2,7.4991426E3,3.110279E4,4.6873833E3,6.56388E3,5.066571E3,2.668254E3,5.6089445E4,1.339896E4,2.239409E4,1.7504865E4,1.6738918E4,5.7274165E3,6.5173745E3,5.1383623E3,2.378129E3,2.2915178E3,2.017543E2,1.7780758E4,2.035911E4,5.10882E3,7.2484314E2,1.244009E3,5.476456E4,1.8470375E4,4.3730483E3,1.3509181E3,3.1533623E4,2.2371218E3,3.5292484E4,1.4941944E4,9.968344E3,5.6484863E2,1.0554105E2,2.5314648E3,8.903487E2,2.7356616E3,2.537801E3,3.643888E2,1.3030019E2,1.5576564E3,5.347377E3,3.7989307E3,9.490048E1,6.537474E2,5.168273E2,1.0971647E3,2.618978E2,1.4266532E3,3.8454187E2,1.0921634E2,3.5617437E3,3.0568338E2,3.8634677E2,1.7863573E2,9.411086E3,6.057552E2,2.4817865E2,1.4957883E2,6.5174434E3,9.816991E2,2.6657684E4,4.4451055E3,4.538435E3,1.4894806E2,8.199922E2,5.7438877E3,5.979964E1,5.0067715E3,5.4790063E2,2.1203533E3],"tree_param":{"num_deleted":"0","num_feature":"28","num_nodes":"127","size_leaf_vector":"1"}},{"base_weights":[2.7784813E-10,-4.33225E-2,1.8847741E-1,2.49275E-10,-9.040287E-2,2.2768158E-1,1.7750463E-1,3.1505805E-2,-6.0074247E-2,-7.644864E-2,-1.2163729E-1,2.706841E-1,1.8245323E-1,2.0702663E-1,1.6941129E-1,5.7027232E-2,5.212673E-3,-1.2111142E-1,8.388556E-3,-5.972118E-2,-1.0251811E-1,-1.11489214E-1,-1.6366696E-1,2.6127926E-1,3.242034E-1,2.3429339E-1,1.7299654E-1,2.0245723E-1,3.3048418E-1,1.7616461E-1,1.2756692E-1,1.0571727E-1,7.876348E-3,-1.1801313E-2,2.0662397E-2,-1.4696889E-1,-5.9555553E-2,-1.1593689E-2,5.8918208E-2,-5.2064545E-2,-1.08575925E-1,-1.4141785E-1,-6.823961E-2,-6.7791203E-3,-1.4117108E-1,-2.5229275E-1,1.2278059E-2,2.8781518E-1,2.445549E-1,3.7283835E-1,1.7888354E-1,2.5104943E-1,1.4284395E-1,1.5499854E-1,2.0877662E-1,1.8711938E-1,2.3834799E-1,3.80371E-1,1.0856918E-2,1.591818E-1,2.1672918E-1,1.8144453E-1,1.1305484E-1,9.342055E-3,1.4368362E-2,3.888461E-3,-7.868113E-3,-2.2457119E-3,7.432903E-4,2.684624E-3,-4.017134E-4,-1.8335946E-2,-1.2391097E-2,3.633766E-3,-7.983233E-3,5.9143077E-3,-3.148602E-3,1.4544471E-2,5.503052E-4,-6.5893903E-3,-8.547634E-4,-5.7054735E-3,-1.3408608E-2,-1.8663118E-2,-1.0738397E-2,-4.975436E-3,-1.0515447E-2,-1.1466696E-2,5.57426E-3,-1.0756326E-2,-1.572862E-2,-2.0590438E-2,-3.032802E-2,4.6632085E-3,-1.4133974E-2,2.9890839E-2,2.92502E-3,3.2656334E-2,2.3588715E-2,4.646797E-2,3.0990912E-2,-6.435991E-2,2.3225956E-2,2.682254E-2,7.118795E-3,1.9180665E-2,-1.14130685E-2,1.7762588E-2,9.616963E-3,2.9232694E-2,1.508366E-2,2.0033253E-2,1.4895386E-2,2.2088697E-2,3.204724E-2,5.369823E-2,2.7492989E-2,-1.790387E-2,4.8988905E-2,1.7474959E-2,1.1925073E-2,1.9741744E-2,2.4781553E-2,2.231286E-2,7.893695E-3,1.0656405E-2,2.097161E-2],"categories":[],"categories_nodes":[],"categories_segments":[],"categories_sizes":[],"default_left":[0,0,0,0,0,0,0,0,0,0,0,0,0,0,0,0,0,0,0,0,0,0,0,0,0,0,0,0,0,0,0,0,0,0,0,0,0,0,0,0,0,0,0,0,0,0,0,0,0,0,0,0,0,0,0,0,0,0,0,0,0,0,0,0,0,0,0,0,0,0,0,0,0,0,0,0,0,0,0,0,0,0,0,0,0,0,0,0,0,0,0,0,0,0,0,0,0,0,0,0,0,0,0,0,0,0,0,0,0,0,0,0,0,0,0,0,0,0,0,0,0,0,0,0,0,0,0],"id":2,"left_children":[1,3,5,7,9,11,13,15,17,19,21,23,25,27,29,31,33,35,37,39,41,43,45,47,49,51,53,55,57,59,61,63,65,67,69,71,73,75,77,79,81,83,85,87,89,91,93,95,97,99,101,103,105,107,109,111,113,115,117,119,121,123,125,-1,-1,-1,-1,-1,-1,-1,-1,-1,-1,-1,-1,-1,-1,-1,-1,-1,-1,-1,-1,-1,-1,-1,-1,-1,-1,-1,-1,-1,-1,-1,-1,-1,-1,-1,-1,-1,-1,-1,-1,-1,-1,-1,-1,-1,-1,-1,-1,-1,-1,-1,-1,-1,-1,-1,-1,-1,-1,-1,-1,-1,-1,-1,-1],"loss_changes":[3.666743E3,7.4474414E2,3.606372E1,3.5991077E2,7.6255615E1,3.564026E1,1.5634033E1,8.370455E1,2.7337347E2,5.273639E1,2.3027344E1,4.6488647E0,4.345398E0,7.890442E0,1.4523682E1,1.5148239E2,1.6150932E1,5.5039856E1,3.113463E1,2.75542E1,6.3023926E1,1.3527783E2,1.6383371E2,3.4817505E0,9.838287E0,2.0748215E0,4.8426056E0,7.44458E0,7.9980927E0,3.0496826E1,5.5751724E0,1.483194E1,8.455229E1,5.9933424E0,4.914529E0,2.0412537E1,1.9898533E1,3.109573E1,4.0386715E1,3.8332733E1,1.3111122E1,3.405237E1,1.7143349E1,6.4857704E1,1.8350159E1,1.6463562E1,1.8585194E1,8.850479E0,3.4176025E0,5.9193573E0,1.5661568E1,3.5731735E0,2.7348714E0,6.6925964E0,1.220652E1,4.779114E0,5.764923E0,7.020363E0,6.344677E0,1.9401367E1,7.8011475E0,6.4643555E0,3.5167007E0,0E0,0E0,0E0,0E0,0E0,0E0,0E0,0E0,0E0,0E0,0E0,0E0,0E0,0E0,0E0,0E0,0E0,0E0,0E0,0E0,0E0,0E0,0E0,0E0,0E0,0E0,0E0,0E0,0E0,0E0,0E0,0E0,0E0,0E0,0E0,0E0,0E0,0E0,0E0,0E0,0E0,0E0,0E0,0E0,0E0,0E0,0E0,0E0,0E0,0E0,0E0,0E0,0E0,0E0,0E0,0E0,0E0,0E0,0E0,0E0,0E0,0E0,0E0,0E0],"parents":[2147483647,0,0,1,1,2,2,3,3,4,4,5,5,6,6,7,7,8,8,9,9,10,10,11,11,12,12,13,13,14,14,15,15,16,16,17,17,18,18,19,19,20,20,21,21,22,22,23,23,24,24,25,25,26,26,27,27,28,28,29,29,30,30,31,31,32,32,33,33,34,34,35,35,36,36,37,37,38,38,39,39,40,40,41,41,42,42,43,43,44,44,45,45,46,46,47,47,48,48,49,49,50,50,51,51,52,52,53,53,54,54,55,55,56,56,57,57,58,58,59,59,60,60,61,61,62,62],"right_children":[2,4,6,8,10,12,14,16,18,20,22,24,26,28,30,32,34,36,38,40,42,44,46,48,50,52,54,56,58,60,62,64,66,68,70,72,74,76,78,80,82,84,86,88,90,92,94,96,98,100,102,104,106,108,110,112,114,116,118,120,122,124,126,-1,-1,-1,-1,-1,-1,-1,-1,-1,-1,-1,-1,-1,-1,-1,-1,-1,-1,-1,-1,-1,-1,-1,-1,-1,-1,-1,-1,-1,-1,-1,-1,-1,-1,-1,-1,-1,-1,-1,-1,-1,-1,-1,-1,-1,-1,-1,-1,-1,-1,-1,-1,-1,-1,-1,-1,-1,-1,-1,-1,-1,-1,-1,-1],"split_conditions":[1E0,1E0,1E0,1E0,1E0,1E0,3E2,1E0,2E0,3E0,3E0,6.753438E0,2E0,6.872128E0,1E0,1E0,1E0,1E0,3E0,1E0,7.5E-1,2E0,2E0,1E3,1E0,6E0,6.522093E0,2.6E2,1E0,4.5E0,4E0,2E0,3E0,6.475433E0,1E0,5.9939613E0,4.1E0,1E0,1E0,3E0,1E0,1E3,1E0,4.1E0,6.5E2,6.25575E0,1E0,6.7019606E0,4.5325994E0,6.818924E0,2E0,6.7979403E0,4E0,1E0,3E0,6.582025E0,6.673298E0,2.1E2,5E0,6E2,3E0,1E0,1.45E3,9.342055E-3,1.4368362E-2,3.888461E-3,-7.868113E-3,-2.2457119E-3,7.432903E-4,2.684624E-3,-4.017134E-4,-1.8335946E-2,-1.2391097E-2,3.633766E-3,-7.983233E-3,5.9143077E-3,-3.148602E-3,1.4544471E-2,5.503052E-4,-6.5893903E-3,-8.547634E-4,-5.7054735E-3,-1.3408608E-2,-1.8663118E-2,-1.0738397E-2,-4.975436E-3,-1.0515447E-2,-1.1466696E-2,5.57426E-3,-1.0756326E-2,-1.572862E-2,-2.0590438E-2,-3.032802E-2,4.6632085E-3,-1.4133974E-2,2.9890839E-2,2.92502E-3,3.2656334E-2,2.3588715E-2,4.646797E-2,3.0990912E-2,-6.435991E-2,2.3225956E-2,2.682254E-2,7.118795E-3,1.9180665E-2,-1.14130685E-2,1.7762588E-2,9.616963E-3,2.9232694E-2,1.508366E-2,2.0033253E-2,1.4895386E-2,2.2088697E-2,3.204724E-2,5.369823E-2,2.7492989E-2,-1.790387E-2,4.8988905E-2,1.7474959E-2,1.1925073E-2,1.9741744E-2,2.4781553E-2,2.231286E-2,7.893695E-3,1.0656405E-2,2.097161E-2],"split_indices":[14,4,18,13,13,10,9,10,16,1,18,19,1,19,15,7,7,7,16,15,8,16,16,9,6,26,19,9,10,0,2,1,16,19,23,19,0,18,7,16,18,9,10,0,9,19,7,19,19,19,2,19,16,6,16,19,19,9,26,9,16,6,9,0,0,0,0,0,0,0,0,0,0,0,0,0,0,0,0,0,0,0,0,0,0,0,0,0,0,0,0,0,0,0,0,0,0,0,0,0,0,0,0,0,0,0,0,0,0,0,0,0,0,0,0,0,0,0,0,0,0,0,0,0,0,0,0],"split_type":[0,0,0,0,0,0,0,0,0,0,0,0,0,0,0,0,0,0,0,0,0,0,0,0,0,0,0,0,0,0,0,0,0,0,0,0,0,0,0,0,0,0,0,0,0,0,0,0,0,0,0,0,0,0,0,0,0,0,0,0,0,0,0,0,0,0,0,0,0,0,0,0,0,0,0,0,0,0,0,0,0,0,0,0,0,0,0,0,0,0,0,0,0,0,0,0,0,0,0,0,0,0,0,0,0,0,0,0,0,0,0,0,0,0,0,0,0,0,0,0,0,0,0,0,0,0,0],"sum_hessian":[4.4906138E5,3.651342E5,8.39272E4,1.9015656E5,1.7497761E5,1.8349016E4,6.557819E4,1.2473831E5,6.5418258E4,1.2094699E5,5.403062E4,9.403399E3,8.945616E3,1.4104564E4,5.147362E4,6.329747E4,6.1440844E4,3.458429E4,3.0833969E4,7.367606E4,4.727093E4,4.3525125E4,1.0505498E4,8.002941E3,1.4004589E3,1.3764335E3,7.569183E3,1.3603706E4,5.008582E2,4.431788E4,7.155741E3,3.1797227E4,3.1500242E4,2.9240273E4,3.2200572E4,2.4353043E4,1.0231245E4,2.2096535E4,8.737433E3,6.36956E4,9.980463E3,2.214141E4,2.5129518E4,9.613249E3,3.3911875E4,6.9860835E3,3.5194148E3,3.0876592E3,4.9152817E3,1.0481152E3,3.523436E2,1.1618124E3,2.1462103E2,5.03954E3,2.5296433E3,9.535107E3,4.0685986E3,4.3307468E2,6.7783516E1,3.1242691E4,1.3075188E4,1.5159844E3,5.639757E3,2.4020734E4,7.7764927E3,2.3192379E4,8.307864E3,1.8815996E4,1.0424277E4,2.5748736E4,6.4518364E3,9.442966E3,1.4910077E4,1.7856646E3,8.44558E3,4.8495723E3,1.7246963E4,3.3343848E3,5.4030483E3,4.833468E4,1.5360924E4,3.3062603E3,6.6742026E3,9.507029E3,1.2634381E4,1.6746162E4,8.383355E3,3.5267075E3,6.086541E3,1.0993272E4,2.2918602E4,3.6606577E3,3.325426E3,2.87677E3,6.426446E2,2.9604895E3,1.2716977E2,4.6634616E2,4.4489355E3,4.2356464E2,6.245506E2,2.0798422E1,3.315452E2,1.0600875E3,1.01724846E2,1.8048575E2,3.413528E1,3.6381726E3,1.4013673E3,1.0342275E3,1.4954158E3,7.07979E3,2.4553171E3,3.3582646E3,7.1033417E2,1.7260799E2,2.6046667E2,4.8989555E1,1.8793959E1,2.2476486E4,8.766205E3,8.0695215E3,5.0056665E3,1.076895E3,4.390894E2,5.286848E3,3.529087E2],"tree_param":{"num_deleted":"0","num_feature":"28","num_nodes":"127","size_leaf_vector":"1"}},{"base_weights":[3.4566802E-10,-3.93255E-2,1.7558384E-1,1.7978334E-10,-8.431082E-2,1.5407813E-1,2.0323758E-1,1.627875E-2,-7.956852E-3,-6.09655E-2,-9.2690684E-2,1.6598767E-1,1.0443367E-1,2.3716651E-1,1.6762677E-1,-4.7252183E-3,8.267089E-2,-2.70875E-2,1.672015E-2,-4.702605E-2,-8.612469E-2,-8.323684E-2,-1.2710561E-1,1.898072E-1,1.5158844E-1,7.543846E-2,1.3675503E-1,2.1640907E-1,2.7408707E-1,2.1930626E-1,1.5603282E-1,-3.574081E-2,2.3625238E-2,1.6107744E-1,1.3788714E-2,-3.978996E-2,-3.4484933E-3,-5.491727E-3,1.0515118E-1,-6.3264756E-3,-5.9901863E-2,-1.5102687E-1,-6.2041752E-2,-1.5479977E-1,-7.692413E-2,-1.6946283E-1,-9.5676E-2,1.7886643E-1,2.6154697E-1,1.7504196E-1,1.2745169E-1,5.816951E-2,1.5412182E-1,1.5609613E-1,3.138019E-2,2.548169E-1,1.8310516E-1,1.9721992E-1,2.8858653E-1,1.5763855E-1,2.6026356E-1,2.083827E-1,1.5052569E-1,-6.2286938E-3,6.451085E-3,5.956925E-3,-9.994817E-4,1.13162575E-2,1.9301353E-2,-3.2360803E-3,1.795311E-2,-7.7869147E-3,-2.753949E-3,2.6960257E-3,-1.8370737E-3,1.7565379E-3,-2.188723E-3,9.251204E-3,1.5833711E-2,5.503857E-3,-4.662126E-3,-6.953367E-3,-2.6038843E-3,-1.8367356E-2,-8.152555E-3,-3.084366E-3,-8.261746E-3,-1.871516E-2,-1.200443E-2,-6.2796585E-3,-8.820265E-3,-1.5812423E-2,-4.1597705E-2,-8.041938E-3,-1.9147126E-2,1.8855736E-2,1.3323413E-2,1.7426552E-2,3.308783E-2,1.4433789E-2,2.0275004E-2,1.1257288E-2,1.7790062E-2,7.451899E-3,-3.1160421E-3,1.1667146E-2,3.3099614E-2,3.8668603E-2,1.5036099E-2,2.4891643E-2,-4.8923143E-3,2.3827894E-2,3.1830296E-2,1.2648036E-2,2.0442981E-2,1.5453652E-2,3.2550093E-2,3.134007E-2,2.3044048E-2,3.8566202E-2,1.4581287E-2,2.8678497E-2,1.1886931E-2,2.8797189E-2,1.2269739E-2,1.4314085E-2,1.9035561E-2],"categories":[],"categories_nodes":[],"categories_segments":[],"categories_sizes":[],"default_left":[0,0,0,0,0,0,0,0,0,0,0,0,0,0,0,0,0,0,0,0,0,0,0,0,0,0,0,0,0,0,0,0,0,0,0,0,0,0,0,0,0,0,0,0,0,0,0,0,0,0,0,0,0,0,0,0,0,0,0,0,0,0,0,0,0,0,0,0,0,0,0,0,0,0,0,0,0,0,0,0,0,0,0,0,0,0,0,0,0,0,0,0,0,0,0,0,0,0,0,0,0,0,0,0,0,0,0,0,0,0,0,0,0,0,0,0,0,0,0,0,0,0,0,0,0,0,0],"id":3,"left_children":[1,3,5,7,9,11,13,15,17,19,21,23,25,27,29,31,33,35,37,39,41,43,45,47,49,51,53,55,57,59,61,63,65,67,69,71,73,75,77,79,81,83,85,87,89,91,93,95,97,99,101,103,105,107,109,111,113,115,117,119,121,123,125,-1,-1,-1,-1,-1,-1,-1,-1,-1,-1,-1,-1,-1,-1,-1,-1,-1,-1,-1,-1,-1,-1,-1,-1,-1,-1,-1,-1,-1,-1,-1,-1,-1,-1,-1,-1,-1,-1,-1,-1,-1,-1,-1,-1,-1,-1,-1,-1,-1,-1,-1,-1,-1,-1,-1,-1,-1,-1,-1,-1,-1,-1,-1,-1],"loss_changes":[3.0356873E3,6.354372E2,4.7812256E1,2.4824574E1,3.2770264E1,2.67417E1,4.247876E1,8.774592E1,6.077319E1,1.5517029E1,4.010022E1,1.2490173E1,8.198738E0,1.3749451E1,1.0255341E1,4.2032864E1,8.167049E1,2.1774384E1,1.1042398E2,1.4924564E1,2.4650978E1,4.368152E1,3.5350586E1,1.0743805E1,1.2858337E1,6.2679577E0,8.434547E0,1.47127075E1,7.166168E0,7.9005737E0,4.0134277E0,6.075626E1,3.0180471E1,1.0799988E1,6.1588737E1,2.2001663E1,1.1502359E1,1.698638E1,7.5719757E0,1.6930283E1,7.0549316E0,9.671913E0,7.3853226E0,8.791946E0,1.4156555E1,3.1559998E1,2.2276398E1,5.251343E0,1.0937843E1,9.786194E0,8.399765E0,5.5372276E0,5.4645443E0,4.5684814E0,1.1252162E1,5.5477295E0,7.4407043E0,5.598362E0,7.791504E0,3.3343887E0,7.0453415E0,9.054089E0,3.7077332E0,0E0,0E0,0E0,0E0,0E0,0E0,0E0,0E0,0E0,0E0,0E0,0E0,0E0,0E0,0E0,0E0,0E0,0E0,0E0,0E0,0E0,0E0,0E0,0E0,0E0,0E0,0E0,0E0,0E0,0E0,0E0,0E0,0E0,0E0,0E0,0E0,0E0,0E0,0E0,0E0,0E0,0E0,0E0,0E0,0E0,0E0,0E0,0E0,0E0,0E0,0E0,0E0,0E0,0E0,0E0,0E0,0E0,0E0,0E0,0E0,0E0,0E0,0E0,0E0],"parents":[2147483647,0,0,1,1,2,2,3,3,4,4,5,5,6,6,7,7,8,8,9,9,10,10,11,11,12,12,13,13,14,14,15,15,16,16,17,17,18,18,19,19,20,20,21,21,22,22,23,23,24,24,25,25,26,26,27,27,28,28,29,29,30,30,31,31,32,32,33,33,34,34,35,35,36,36,37,37,38,38,39,39,40,40,41,41,42,42,43,43,44,44,45,45,46,46,47,47,48,48,49,49,50,50,51,51,52,52,53,53,54,54,55,55,56,56,57,57,58,58,59,59,60,60,61,61,62,62],"right_children":[2,4,6,8,10,12,14,16,18,20,22,24,26,28,30,32,34,36,38,40,42,44,46,48,50,52,54,56,58,60,62,64,66,68,70,72,74,76,78,80,82,84,86,88,90,92,94,96,98,100,102,104,106,108,110,112,114,116,118,120,122,124,126,-1,-1,-1,-1,-1,-1,-1,-1,-1,-1,-1,-1,-1,-1,-1,-1,-1,-1,-1,-1,-1,-1,-1,-1,-1,-1,-1,-1,-1,-1,-1,-1,-1,-1,-1,-1,-1,-1,-1,-1,-1,-1,-1,-1,-1,-1,-1,-1,-1,-1,-1,-1,-1,-1,-1,-1,-1,-1,-1,-1,-1,-1,-1,-1],"split_conditions":[1E0,1E0,2E0,2E0,2E0,6E2,1E0,1E0,3E0,3E0,1E0,3E2,1E0,3E0,2E0,1E0,1E0,1E0,1E0,4.1E0,4.1E0,5E-1,2E0,6.753438E0,6.2265368E0,6.7165947E0,2E1,4.133333E0,4E0,3E0,2E0,1E0,2E0,6.0958247E0,4.5E0,4.1E0,1.3E2,1E0,4.5E0,2E0,1E0,4E0,4.133333E0,6.2709885E0,3E0,7.2E2,1.4E3,6.543912E0,3E0,1E0,1E0,6.5496507E0,2E1,3.5553482E0,5.627621E0,6.6970344E0,5E-1,6.6240654E0,1E0,1E0,6.673298E0,3E0,6.753438E0,-6.2286938E-3,6.451085E-3,5.956925E-3,-9.994817E-4,1.13162575E-2,1.9301353E-2,-3.2360803E-3,1.795311E-2,-7.7869147E-3,-2.753949E-3,2.6960257E-3,-1.8370737E-3,1.7565379E-3,-2.188723E-3,9.251204E-3,1.5833711E-2,5.503857E-3,-4.662126E-3,-6.953367E-3,-2.6038843E-3,-1.8367356E-2,-8.152555E-3,-3.084366E-3,-8.261746E-3,-1.871516E-2,-1.200443E-2,-6.2796585E-3,-8.820265E-3,-1.5812423E-2,-4.1597705E-2,-8.041938E-3,-1.9147126E-2,1.8855736E-2,1.3323413E-2,1.7426552E-2,3.308783E-2,1.4433789E-2,2.0275004E-2,1.1257288E-2,1.7790062E-2,7.451899E-3,-3.1160421E-3,1.1667146E-2,3.3099614E-2,3.8668603E-2,1.5036099E-2,2.4891643E-2,-4.8923143E-3,2.3827894E-2,3.1830296E-2,1.2648036E-2,2.0442981E-2,1.5453652E-2,3.2550093E-2,3.134007E-2,2.3044048E-2,3.8566202E-2,1.4581287E-2,2.8678497E-2,1.1886931E-2,2.8797189E-2,1.2269739E-2,1.4314085E-2,1.9035561E-2],"split_indices":[14,4,20,16,1,9,10,13,16,16,10,9,11,16,1,15,7,15,11,0,0,8,20,19,19,19,2,0,2,16,2,7,20,19,0,0,9,7,0,16,11,16,0,19,1,9,9,19,26,13,7,19,2,19,19,19,8,19,24,2,19,16,19,0,0,0,0,0,0,0,0,0,0,0,0,0,0,0,0,0,0,0,0,0,0,0,0,0,0,0,0,0,0,0,0,0,0,0,0,0,0,0,0,0,0,0,0,0,0,0,0,0,0,0,0,0,0,0,0,0,0,0,0,0,0,0,0],"split_type":[0,0,0,0,0,0,0,0,0,0,0,0,0,0,0,0,0,0,0,0,0,0,0,0,0,0,0,0,0,0,0,0,0,0,0,0,0,0,0,0,0,0,0,0,0,0,0,0,0,0,0,0,0,0,0,0,0,0,0,0,0,0,0,0,0,0,0,0,0,0,0,0,0,0,0,0,0,0,0,0,0,0,0,0,0,0,0,0,0,0,0,0,0,0,0,0,0,0,0,0,0,0,0,0,0,0,0,0,0,0,0,0,0,0,0,0,0,0,0,0,0,0,0,0,0,0,0],"sum_hessian":[4.39639E5,3.5919166E5,8.044736E4,1.916527E5,1.6753895E5,4.5257867E4,3.5189492E4,6.2921645E4,1.28731055E5,4.425576E4,1.2328319E5,3.6499426E4,8.758442E3,1.8017389E4,1.7172102E4,4.7800348E4,1.5121297E4,7.251459E4,5.6216457E4,2.847954E4,1.5776224E4,9.671801E4,2.656518E4,1.374687E4,2.2752557E4,4.6185317E3,4.13991E3,1.1537594E4,6.479796E3,3.1432605E3,1.4028842E4,2.2827092E4,2.4973254E4,7.071116E3,8.0501807E3,4.716807E4,2.5346527E4,4.4931594E4,1.1284863E4,6.8448677E3,2.1634672E4,4.268252E3,1.1507973E4,7.8382E3,8.887981E4,1.1313609E4,1.525157E4,1.1930833E4,1.8160366E3,1.1536431E4,1.1216126E4,3.7887412E3,8.2979083E2,3.4974812E3,6.4242883E2,5.3551265E3,6.1824673E3,1.0306306E3,5.449165E3,1.2564001E3,1.8868602E3,1.331832E3,1.269701E4,1.8048357E4,4.7787334E3,1.2069108E4,1.2904146E4,2.8298838E3,4.241233E3,6.2975015E3,1.7526794E3,1.1479622E4,3.568845E4,8.343409E3,1.7003117E4,1.86724E4,2.6259193E4,9.120259E3,2.1646042E3,2.7129468E3,4.131921E3,1.6842914E4,4.7917563E3,2.902993E3,1.3652589E3,4.5744385E3,6.9335337E3,4.057204E3,3.7809963E3,3.945935E4,4.9420457E4,1.0817683E4,4.9592636E2,1.3157854E4,2.0937166E3,9.838335E3,2.0924988E3,8.055017E2,1.01053485E3,5.475307E3,6.0611235E3,8.664077E3,2.5520493E3,3.202732E3,5.860092E2,6.861657E2,1.4362517E2,8.326516E1,3.414216E3,1.7264517E2,4.6978366E2,4.2521934E3,1.1029329E3,1.6932345E3,4.489233E3,7.7497504E2,2.5565562E2,3.8161926E3,1.6329725E3,6.038775E1,1.1960123E3,1.5879745E3,2.9888577E2,6.8925415E2,6.425778E2,1.0714951E4,1.9820586E3],"tree_param":{"num_deleted":"0","num_feature":"28","num_nodes":"127","size_leaf_vector":"1"}},{"base_weights":[6.269217E-10,-3.6710177E-2,1.745908E-1,1.1493332E-10,-7.885657E-2,1.5493032E-1,2.0030573E-1,-4.575775E-3,5.119745E-2,-5.6418244E-2,-8.691899E-2,1.7528497E-1,1.4089371E-1,1.7460188E-1,2.4400944E-1,-2.0039838E-2,5.7267705E-3,1.1272324E-2,8.4315784E-2,-4.687337E-2,-9.3585394E-2,-1.4748254E-1,-8.181075E-2,1.8719146E-1,1.366187E-1,1.7437574E-1,1.24872506E-1,1.9752222E-1,1.5495406E-1,2.1363918E-1,2.778107E-1,-3.5474535E-2,4.8165698E-2,2.7063495E-2,-2.2444583E-2,2.534498E-2,-3.271867E-2,1.3540868E-1,5.2439116E-2,-2.43732E-2,-7.5481765E-2,-1.4814359E-1,-5.9906453E-2,-2.0828874E-1,-1.15526855E-1,-7.331082E-2,-1.1352675E-1,1.6331373E-1,2.1456343E-1,1.2358735E-1,3.0616435E-1,1.4724188E-1,2.2963762E-1,1.1412925E-1,1.6302253E-1,2.1799897E-1,1.6680934E-1,2.2831051E-1,1.4689286E-1,2.1538953E-1,-1.9201453E-1,1.8277748E-1,2.9742125E-1,-8.518151E-4,-4.7354857E-3,7.811082E-3,-3.3481385E-5,4.820106E-3,-3.6977062E-3,1.9150131E-3,-7.226488E-3,3.118817E-3,-4.709309E-3,-4.7947685E-3,1.1171426E-2,1.3952768E-2,-2.4613308E-2,9.711582E-3,3.405654E-3,-8.818901E-4,-4.0033143E-3,-5.4408177E-3,-1.134599E-2,-4.879871E-2,-1.363854E-2,-4.3877256E-3,-1.2251705E-2,-1.8826738E-2,-3.6928892E-2,-9.888778E-3,-2.1368435E-2,-6.92258E-3,-1.0900623E-2,-3.2180034E-2,-1.0670534E-2,1.8069528E-2,1.0809458E-2,2.3644004E-2,1.1811729E-2,7.439057E-3,1.7209314E-2,4.6744697E-2,2.6637928E-3,7.0474097E-3,1.6187504E-2,1.5549968E-2,2.8117243E-2,1.5632989E-2,1.01537695E-2,1.2146044E-2,1.9526301E-2,2.1065524E-2,3.4140445E-2,1.2989289E-2,2.165669E-2,2.7317433E-2,1.664732E-2,1.3722079E-2,2.002197E-2,1.8997645E-2,2.3898583E-2,3.7960544E-2,-4.714972E-2,1.37445135E-2,3.1345323E-2,3.2641858E-2,2.3136947E-2],"categories":[],"categories_nodes":[],"categories_segments":[],"categories_sizes":[],"default_left":[0,0,0,0,0,0,0,0,0,0,0,0,0,0,0,0,0,0,0,0,0,0,0,0,0,0,0,0,0,0,0,0,0,0,0,0,0,0,0,0,0,0,0,0,0,0,0,0,0,0,0,0,0,0,0,0,0,0,0,0,0,0,0,0,0,0,0,0,0,0,0,0,0,0,0,0,0,0,0,0,0,0,0,0,0,0,0,0,0,0,0,0,0,0,0,0,0,0,0,0,0,0,0,0,0,0,0,0,0,0,0,0,0,0,0,0,0,0,0,0,0,0,0,0,0,0,0],"id":4,"left_children":[1,3,5,7,9,11,13,15,17,19,21,23,25,27,29,31,33,35,37,39,41,43,45,47,49,51,53,55,57,59,61,63,65,67,69,71,73,75,77,79,81,83,85,87,89,91,93,95,97,99,101,103,105,107,109,111,113,115,117,119,121,123,125,-1,-1,-1,-1,-1,-1,-1,-1,-1,-1,-1,-1,-1,-1,-1,-1,-1,-1,-1,-1,-1,-1,-1,-1,-1,-1,-1,-1,-1,-1,-1,-1,-1,-1,-1,-1,-1,-1,-1,-1,-1,-1,-1,-1,-1,-1,-1,-1,-1,-1,-1,-1,-1,-1,-1,-1,-1,-1,-1,-1,-1,-1,-1,-1],"loss_changes":[2.7708376E3,5.5267523E2,3.7941162E1,4.4726322E1,3.0078491E1,1.2137756E1,3.651123E1,2.7921751E1,2.0710186E1,1.5590576E1,3.7834595E1,7.9714355E0,1.3496124E1,9.19812E0,1.2308655E1,7.377159E1,6.322399E1,4.398136E0,1.3936653E1,2.2514038E1,1.649424E1,1.8463364E1,3.0406128E1,8.64328E0,9.005859E0,1.2191681E1,6.9685364E0,5.909912E0,6.494171E0,4.5503845E0,1.0565887E1,1.8299973E1,1.8781553E1,8.1020874E1,9.3939896E1,2.279547E0,3.7929792E0,5.202671E0,4.3279076E0,4.7692575E0,1.2318085E1,1.3629257E1,5.5696487E0,1.0491684E1,1.0168694E1,1.2966858E1,3.3840576E1,6.7910767E0,1.3018127E1,9.061893E0,1.3128183E1,6.1345444E0,1.0207794E1,7.054184E0,4.992584E0,5.0661926E0,6.9270935E0,2.9816628E0,5.103836E0,3.746582E0,4.6222334E0,5.7467537E0,8.969116E0,0E0,0E0,0E0,0E0,0E0,0E0,0E0,0E0,0E0,0E0,0E0,0E0,0E0,0E0,0E0,0E0,0E0,0E0,0E0,0E0,0E0,0E0,0E0,0E0,0E0,0E0,0E0,0E0,0E0,0E0,0E0,0E0,0E0,0E0,0E0,0E0,0E0,0E0,0E0,0E0,0E0,0E0,0E0,0E0,0E0,0E0,0E0,0E0,0E0,0E0,0E0,0E0,0E0,0E0,0E0,0E0,0E0,0E0,0E0,0E0,0E0,0E0,0E0,0E0],"parents":[2147483647,0,0,1,1,2,2,3,3,4,4,5,5,6,6,7,7,8,8,9,9,10,10,11,11,12,12,13,13,14,14,15,15,16,16,17,17,18,18,19,19,20,20,21,21,22,22,23,23,24,24,25,25,26,26,27,27,28,28,29,29,30,30,31,31,32,32,33,33,34,34,35,35,36,36,37,37,38,38,39,39,40,40,41,41,42,42,43,43,44,44,45,45,46,46,47,47,48,48,49,49,50,50,51,51,52,52,53,53,54,54,55,55,56,56,57,57,58,58,59,59,60,60,61,61,62,62],"right_children":[2,4,6,8,10,12,14,16,18,20,22,24,26,28,30,32,34,36,38,40,42,44,46,48,50,52,54,56,58,60,62,64,66,68,70,72,74,76,78,80,82,84,86,88,90,92,94,96,98,100,102,104,106,108,110,112,114,116,118,120,122,124,126,-1,-1,-1,-1,-1,-1,-1,-1,-1,-1,-1,-1,-1,-1,-1,-1,-1,-1,-1,-1,-1,-1,-1,-1,-1,-1,-1,-1,-1,-1,-1,-1,-1,-1,-1,-1,-1,-1,-1,-1,-1,-1,-1,-1,-1,-1,-1,-1,-1,-1,-1,-1,-1,-1,-1,-1,-1,-1,-1,-1,-1,-1,-1,-1],"split_conditions":[1E0,1E0,2E0,4E0,2E0,5.9839363E0,1E0,2E0,1E0,1E0,5E-1,5.5E2,3E2,1E0,3E0,1E0,3E0,3E0,2E0,3E0,4.1E0,1E3,1E0,1E0,5.916202E0,6.673298E0,1E0,1.2E3,2E0,6.903747E0,4E0,5.916202E0,5E-1,1E0,1E0,3E0,3.7E2,6.895683E0,2E0,4.133333E0,1E0,3.8286414E0,1.9E1,3E0,4E0,1.4E3,1E0,4.1E0,1E0,1E0,7.2E2,6.1290503E0,3E0,6.240276E0,2E0,1.15E3,1.4E1,3E0,6.753438E0,6.188264E0,7E0,6.6240654E0,1E0,-8.518151E-4,-4.7354857E-3,7.811082E-3,-3.3481385E-5,4.820106E-3,-3.6977062E-3,1.9150131E-3,-7.226488E-3,3.118817E-3,-4.709309E-3,-4.7947685E-3,1.1171426E-2,1.3952768E-2,-2.4613308E-2,9.711582E-3,3.405654E-3,-8.818901E-4,-4.0033143E-3,-5.4408177E-3,-1.134599E-2,-4.879871E-2,-1.363854E-2,-4.3877256E-3,-1.2251705E-2,-1.8826738E-2,-3.6928892E-2,-9.888778E-3,-2.1368435E-2,-6.92258E-3,-1.0900623E-2,-3.2180034E-2,-1.0670534E-2,1.8069528E-2,1.0809458E-2,2.3644004E-2,1.1811729E-2,7.439057E-3,1.7209314E-2,4.6744697E-2,2.6637928E-3,7.0474097E-3,1.6187504E-2,1.5549968E-2,2.8117243E-2,1.5632989E-2,1.01537695E-2,1.2146044E-2,1.9526301E-2,2.1065524E-2,3.4140445E-2,1.2989289E-2,2.165669E-2,2.7317433E-2,1.664732E-2,1.3722079E-2,2.002197E-2,1.8997645E-2,2.3898583E-2,3.7960544E-2,-4.714972E-2,1.37445135E-2,3.1345323E-2,3.2641858E-2,2.3136947E-2],"split_indices":[14,4,20,16,1,19,11,16,7,12,8,9,9,15,16,11,16,18,20,16,0,9,10,13,19,19,7,9,2,19,2,19,8,10,11,1,9,19,26,0,11,19,2,1,16,9,15,0,6,11,9,19,26,19,16,9,2,16,19,19,2,19,24,0,0,0,0,0,0,0,0,0,0,0,0,0,0,0,0,0,0,0,0,0,0,0,0,0,0,0,0,0,0,0,0,0,0,0,0,0,0,0,0,0,0,0,0,0,0,0,0,0,0,0,0,0,0,0,0,0,0,0,0,0,0,0,0],"split_type":[0,0,0,0,0,0,0,0,0,0,0,0,0,0,0,0,0,0,0,0,0,0,0,0,0,0,0,0,0,0,0,0,0,0,0,0,0,0,0,0,0,0,0,0,0,0,0,0,0,0,0,0,0,0,0,0,0,0,0,0,0,0,0,0,0,0,0,0,0,0,0,0,0,0,0,0,0,0,0,0,0,0,0,0,0,0,0,0,0,0,0,0,0,0,0,0,0,0,0,0,0,0,0,0,0,0,0,0,0,0,0,0,0,0,0,0,0,0,0,0,0,0,0,0,0,0,0],"sum_hessian":[4.323159E5,3.5720856E5,7.510734E4,1.9091745E5,1.6629111E5,4.2568445E4,3.25389E4,1.7525494E5,1.5662511E4,4.3958664E4,1.22332445E5,1.736939E4,2.5199055E4,2.0491842E4,1.2047059E4,7.007373E4,1.0518121E5,7.102083E3,8.560428E3,3.497819E4,8.98047E3,9.513369E3,1.1281908E5,1.3277127E4,4.092264E3,8.1522153E3,1.7046838E4,9.454063E3,1.1037777E4,6.3494404E3,5.697618E3,5.7142938E4,1.2930786E4,5.9850805E4,4.533041E4,5.3811E3,1.7209824E3,3.287644E3,5.2727837E3,1.9580338E4,1.53978545E4,3.4264282E3,5.5540415E3,3.2753752E3,6.2379937E3,8.897655E4,2.3842531E4,7.0949062E3,6.18222E3,3.801786E3,2.9047803E2,5.470055E3,2.6821602E3,1.3304275E4,3.7425632E3,5.6686133E3,3.7854507E3,1.090152E3,9.947625E3,6.3226284E3,2.6812405E1,9.7637933E2,4.721239E3,1.7480807E4,3.9662133E4,7.994328E3,4.936458E3,4.499858E4,1.4852225E4,2.470497E4,2.062544E4,4.979963E3,4.0113733E2,1.5574346E3,1.6354793E2,3.2531584E3,3.44857E1,1.5358344E3,3.7369495E3,9.824089E3,9.75625E3,9.9044375E3,5.4934165E3,1.13231476E2,3.3131968E3,4.423312E3,1.1307295E3,2.9150415E3,3.6033386E2,5.335551E3,9.024429E2,7.984225E4,9.134302E3,7.546642E2,2.3087867E4,5.394566E3,1.7003406E3,5.038011E3,1.1442094E3,1.888707E3,1.913079E3,1.83772E2,1.0670602E2,8.7667957E2,4.5933755E3,1.1015248E3,1.5806354E3,3.0547764E3,1.0249499E4,1.6370118E3,2.1055513E3,5.3527817E3,3.1583157E2,2.175213E3,1.6102377E3,6.2980334E2,4.603486E2,8.423415E3,1.5242097E3,3.0484802E3,3.2741482E3,8.686942E0,1.8125462E1,7.264281E2,2.4995122E2,3.278156E3,1.4430826E3],"tree_param":{"num_deleted":"0","num_feature":"28","num_nodes":"127","size_leaf_vector":"1"}},{"base_weights":[-7.4846275E-11,-3.4433883E-2,1.7349002E-1,-2.9379157E-10,-7.37268E-2,1.5670449E-1,1.9537537E-1,9.248656E-3,-7.3495895E-2,-5.1206615E-2,-8.1892535E-2,1.7859986E-1,1.4017852E-1,1.7076801E-1,2.4041495E-1,1.9151991E-2,-2.9915817E-2,-1.40262E-1,-3.865022E-4,-5.253042E-2,2.8785534E-2,-1.0150524E-1,-6.826119E-2,1.922611E-1,1.4320584E-1,1.7258444E-1,1.2468748E-1,1.9062519E-1,1.5331413E-1,2.0760554E-1,2.768873E-1,-1.9127782E-2,2.6687419E-2,2.9595578E-2,-6.818841E-2,1.7792478E-2,-2.0755775E-1,-1.8111676E-2,4.4110198E-2,-4.967494E-2,-1.4171247E-1,7.090528E-2,-1.831348E-1,-8.152712E-2,-1.6241539E-1,-1.02064356E-1,-4.7602367E-2,1.639171E-1,2.2583662E-1,1.0224019E-1,1.7582794E-1,1.5092357E-1,2.3584992E-1,1.122986E-1,1.7021255E-1,1.970232E-1,1.2822005E-1,2.2252947E-1,1.4557068E-1,1.7789006E-1,2.3294912E-1,1.7041132E-1,2.9868245E-1,3.7684336E-3,-3.4409487E-3,5.9478176E-3,1.5939818E-3,4.6355003E-3,-6.08311E-3,-1.0424954E-2,6.2802654E-5,4.490632E-3,-2.2327758E-3,-2.5219426E-2,-1.6783852E-2,-4.7786133E-3,1.1667144E-3,1.104253E-3,6.7500644E-3,-5.2108583E-3,2.0493497E-3,-1.084456E-3,-2.0034328E-2,3.4993384E-3,1.5565472E-2,2.6744187E-2,-2.991478E-2,-7.265236E-3,-1.6992664E-2,-1.9240612E-2,-6.133024E-3,-4.340837E-3,-1.8366298E-2,-2.6771901E-3,-9.539516E-3,2.7300024E-2,1.574846E-2,2.5151331E-2,1.1790064E-2,2.3058E-2,8.109808E-3,4.9494603E-3,1.9615822E-2,1.3621389E-2,2.0549146E-2,1.1274824E-2,2.8321063E-2,1.4910082E-2,1.0283403E-2,1.1753062E-2,1.9650655E-2,1.9001873E-2,3.0911589E-2,2.204886E-2,3.090158E-3,2.5736997E-2,1.3617872E-2,1.3642952E-2,1.9525688E-2,1.8382385E-2,-3.4583192E-2,2.0198667E-2,3.1581424E-2,2.9484953E-3,2.2376722E-2,3.363739E-2,2.1978604E-2],"categories":[],"categories_nodes":[],"categories_segments":[],"categories_sizes":[],"default_left":[0,0,0,0,0,0,0,0,0,0,0,0,0,0,0,0,0,0,0,0,0,0,0,0,0,0,0,0,0,0,0,0,0,0,0,0,0,0,0,0,0,0,0,0,0,0,0,0,0,0,0,0,0,0,0,0,0,0,0,0,0,0,0,0,0,0,0,0,0,0,0,0,0,0,0,0,0,0,0,0,0,0,0,0,0,0,0,0,0,0,0,0,0,0,0,0,0,0,0,0,0,0,0,0,0,0,0,0,0,0,0,0,0,0,0,0,0,0,0,0,0,0,0,0,0,0,0],"id":5,"left_children":[1,3,5,7,9,11,13,15,17,19,21,23,25,27,29,31,33,35,37,39,41,43,45,47,49,51,53,55,57,59,61,63,65,67,69,71,73,75,77,79,81,83,85,87,89,91,93,95,97,99,101,103,105,107,109,111,113,115,117,119,121,123,125,-1,-1,-1,-1,-1,-1,-1,-1,-1,-1,-1,-1,-1,-1,-1,-1,-1,-1,-1,-1,-1,-1,-1,-1,-1,-1,-1,-1,-1,-1,-1,-1,-1,-1,-1,-1,-1,-1,-1,-1,-1,-1,-1,-1,-1,-1,-1,-1,-1,-1,-1,-1,-1,-1,-1,-1,-1,-1,-1,-1,-1,-1,-1,-1],"loss_changes":[2.5412793E3,4.802444E2,2.5849121E1,1.2858705E2,3.0481018E1,1.440332E1,3.3845337E1,6.517136E1,1.03210464E2,4.6732254E0,3.2518738E1,8.263672E0,1.1388123E1,6.824768E0,1.2866455E1,3.868653E1,7.7244644E1,1.1755319E2,7.9618545E0,1.1044868E1,6.42954E0,6.0688354E1,5.0120148E1,1.1734314E1,6.36895E0,1.0034393E1,8.655853E0,3.6667786E0,5.6112823E0,4.243347E0,1.1811371E1,1.9152645E1,3.9490326E1,2.012002E1,5.1220016E1,3.5921364E0,1.3700317E1,6.379812E0,2.2235155E0,7.1824417E0,1.0324953E1,1.8218572E0,6.3248E0,2.9458359E1,3.7335938E1,1.3030417E2,4.435166E1,4.6658173E0,1.565509E1,5.7365685E0,6.8201065E0,4.368149E0,1.08847275E1,4.197098E0,4.5319824E0,6.5248413E0,7.7400417E0,3.1467705E0,4.2760315E0,8.215401E0,7.8064117E0,6.541649E0,1.2539795E1,0E0,0E0,0E0,0E0,0E0,0E0,0E0,0E0,0E0,0E0,0E0,0E0,0E0,0E0,0E0,0E0,0E0,0E0,0E0,0E0,0E0,0E0,0E0,0E0,0E0,0E0,0E0,0E0,0E0,0E0,0E0,0E0,0E0,0E0,0E0,0E0,0E0,0E0,0E0,0E0,0E0,0E0,0E0,0E0,0E0,0E0,0E0,0E0,0E0,0E0,0E0,0E0,0E0,0E0,0E0,0E0,0E0,0E0,0E0,0E0,0E0,0E0,0E0,0E0],"parents":[2147483647,0,0,1,1,2,2,3,3,4,4,5,5,6,6,7,7,8,8,9,9,10,10,11,11,12,12,13,13,14,14,15,15,16,16,17,17,18,18,19,19,20,20,21,21,22,22,23,23,24,24,25,25,26,26,27,27,28,28,29,29,30,30,31,31,32,32,33,33,34,34,35,35,36,36,37,37,38,38,39,39,40,40,41,41,42,42,43,43,44,44,45,45,46,46,47,47,48,48,49,49,50,50,51,51,52,52,53,53,54,54,55,55,56,56,57,57,58,58,59,59,60,60,61,61,62,62],"right_children":[2,4,6,8,10,12,14,16,18,20,22,24,26,28,30,32,34,36,38,40,42,44,46,48,50,52,54,56,58,60,62,64,66,68,70,72,74,76,78,80,82,84,86,88,90,92,94,96,98,100,102,104,106,108,110,112,114,116,118,120,122,124,126,-1,-1,-1,-1,-1,-1,-1,-1,-1,-1,-1,-1,-1,-1,-1,-1,-1,-1,-1,-1,-1,-1,-1,-1,-1,-1,-1,-1,-1,-1,-1,-1,-1,-1,-1,-1,-1,-1,-1,-1,-1,-1,-1,-1,-1,-1,-1,-1,-1,-1,-1,-1,-1,-1,-1,-1,-1,-1,-1,-1,-1,-1,-1,-1],"split_conditions":[1E0,1E0,2E0,4E0,2E0,6.0234475E0,1E0,1E0,2E0,6.891626E0,2E0,1E0,3E2,1E0,3E0,0E0,2E0,1E0,5E0,6.859615E0,1E0,3E0,2E0,1E0,1E0,6.753438E0,1E0,6.8101425E0,2E0,6.188264E0,4E0,5.5373344E0,1.4E2,5E2,1E0,1.4E1,4.1E0,4.133333E0,1E0,6.827629E0,1E0,5E0,1E0,6E2,4E0,1E0,0E0,3.5553482E0,5.5E2,1E0,1E0,1E0,2E0,6.240276E0,6.419995E0,6.7487597E0,4.133333E0,1E0,6.753438E0,6.1800165E0,1E0,9E2,1E0,3.7684336E-3,-3.4409487E-3,5.9478176E-3,1.5939818E-3,4.6355003E-3,-6.08311E-3,-1.0424954E-2,6.2802654E-5,4.490632E-3,-2.2327758E-3,-2.5219426E-2,-1.6783852E-2,-4.7786133E-3,1.1667144E-3,1.104253E-3,6.7500644E-3,-5.2108583E-3,2.0493497E-3,-1.084456E-3,-2.0034328E-2,3.4993384E-3,1.5565472E-2,2.6744187E-2,-2.991478E-2,-7.265236E-3,-1.6992664E-2,-1.9240612E-2,-6.133024E-3,-4.340837E-3,-1.8366298E-2,-2.6771901E-3,-9.539516E-3,2.7300024E-2,1.574846E-2,2.5151331E-2,1.1790064E-2,2.3058E-2,8.109808E-3,4.9494603E-3,1.9615822E-2,1.3621389E-2,2.0549146E-2,1.1274824E-2,2.8321063E-2,1.4910082E-2,1.0283403E-2,1.1753062E-2,1.9650655E-2,1.9001873E-2,3.0911589E-2,2.204886E-2,3.090158E-3,2.5736997E-2,1.3617872E-2,1.3642952E-2,1.9525688E-2,1.8382385E-2,-3.4583192E-2,2.0198667E-2,3.1581424E-2,2.9484953E-3,2.2376722E-2,3.363739E-2,2.1978604E-2],"split_indices":[14,4,20,16,1,19,11,12,20,19,20,6,9,15,16,15,16,7,16,19,23,16,16,13,11,19,7,19,2,19,2,19,9,9,7,2,0,0,7,19,18,26,26,9,16,13,15,19,9,26,26,22,26,19,19,19,0,6,19,19,5,9,24,0,0,0,0,0,0,0,0,0,0,0,0,0,0,0,0,0,0,0,0,0,0,0,0,0,0,0,0,0,0,0,0,0,0,0,0,0,0,0,0,0,0,0,0,0,0,0,0,0,0,0,0,0,0,0,0,0,0,0,0,0,0,0,0],"split_type":[0,0,0,0,0,0,0,0,0,0,0,0,0,0,0,0,0,0,0,0,0,0,0,0,0,0,0,0,0,0,0,0,0,0,0,0,0,0,0,0,0,0,0,0,0,0,0,0,0,0,0,0,0,0,0,0,0,0,0,0,0,0,0,0,0,0,0,0,0,0,0,0,0,0,0,0,0,0,0,0,0,0,0,0,0,0,0,0,0,0,0,0,0,0,0,0,0,0,0,0,0,0,0,0,0,0,0,0,0,0,0,0,0,0,0,0,0,0,0,0,0,0,0,0,0,0,0],"sum_hessian":[4.2539256E5,3.5494478E5,7.044779E4,1.8916942E5,1.6577536E5,3.9873754E4,3.0574031E4,1.6802605E5,2.1143371E4,4.41159E4,1.2165946E5,1.7146453E4,2.27273E4,1.9774842E4,1.0799189E4,1.3411383E5,3.391222E4,1.1050627E4,1.0092745E4,4.3398043E4,7.1785864E2,4.9882434E4,7.177702E4,1.2368202E4,4.7782524E3,7.3472812E3,1.538002E4,9.245905E3,1.0528937E4,5.688594E3,5.1105947E3,2.2058037E4,1.1205579E5,1.3273309E4,2.0638908E4,3.30024E3,7.7503867E3,7.218044E3,2.874701E3,4.2053117E4,1.3449237E3,5.9939307E2,1.1846561E2,3.7564027E4,1.2318408E4,2.7225367E4,4.4551656E4,6.7097803E3,5.6584214E3,2.120074E3,2.6581785E3,5.4758433E3,1.871438E3,1.209267E4,3.287349E3,8.384172E3,8.61733E2,1.0566099E3,9.472326E3,2.6221414E3,3.0664531E3,8.698637E2,4.240731E3,4.675324E3,1.7382713E4,2.7660258E4,8.439553E4,1.119833E4,2.0749795E3,1.3542082E4,7.0968257E3,1.9692635E3,1.3309763E3,3.6467832E3,4.1036035E3,3.6150544E3,3.6029895E3,1.1915908E3,1.6831101E3,4.0643734E4,1.4093837E3,4.164853E2,9.284384E2,4.2199072E2,1.7740234E2,2.3989357E1,9.447626E1,3.413855E4,3.4254758E3,9.499207E3,2.8192014E3,1.5840318E4,1.1385049E4,3.102917E4,1.3522488E4,3.7132785E2,6.3384526E3,4.5699536E3,1.0884677E3,2.984535E2,1.8216205E3,3.689486E2,2.2892297E3,4.3159136E3,1.1599296E3,5.2089343E2,1.3505446E3,2.4707192E3,9.621951E3,1.0963002E3,2.191049E3,7.8936104E3,4.9056207E2,4.416935E2,4.2003946E2,7.514408E2,3.051691E2,8.0035884E3,1.4687378E3,2.593407E3,2.8734423E1,2.2348435E3,8.316094E2,2.3931778E2,6.305459E2,2.8675452E3,1.3731857E3],"tree_param":{"num_deleted":"0","num_feature":"28","num_nodes":"127","size_leaf_vector":"1"}},{"base_weights":[2.1606147E-10,-3.2159958E-2,1.7047302E-1,4.9690924E-10,-6.932605E-2,1.548701E-1,1.9081295E-1,-2.2450332E-2,1.0541445E-2,-8.249308E-2,-2.7896797E-2,1.6655883E-1,1.15541324E-1,1.6656008E-1,2.3690678E-1,-4.7762938E-2,-8.30842E-3,3.640355E-4,2.4100676E-2,-4.496467E-2,-9.5742196E-2,-4.398959E-2,3.6059357E-2,1.9287938E-1,1.4807518E-1,8.893856E-2,1.4217205E-1,1.8419276E-1,1.5100773E-1,2.0491545E-1,2.742839E-1,-7.055186E-2,2.511451E-2,-6.364086E-2,8.005572E-4,-9.955947E-3,4.0165808E-2,3.8753897E-2,1.679821E-2,-2.353096E-2,-5.260549E-2,-6.772412E-2,-1.0885774E-1,6.4086528E-3,-6.8022914E-2,5.0871007E-2,-8.1354156E-2,1.6222283E-1,2.3588564E-1,1.6970833E-1,1.3220228E-1,-4.7623312E-1,9.162429E-2,3.3684498E-1,1.3554631E-1,1.8818602E-1,8.059771E-2,2.1082684E-1,1.4417551E-1,1.7115027E-1,2.3380756E-1,1.6994335E-1,2.96139E-1,-3.792083E-3,-1.0388792E-2,6.2999832E-3,-1.6703965E-3,-9.070618E-3,-1.2257794E-3,1.7413637E-3,-2.7450735E-3,4.081468E-3,-2.1160438E-3,1.3439948E-3,6.848263E-3,1.195601E-3,6.609318E-3,2.056342E-3,-1.8953708E-3,-3.2957035E-4,-7.2384323E-3,-8.279976E-3,-5.0025512E-3,-1.0414873E-2,-3.6821158E-3,-1.3240299E-2,-6.5814615E-3,-6.568054E-3,8.114672E-3,-1.2694764E-2,-3.658893E-3,4.5295474E-3,2.8674945E-2,1.8044073E-2,-9.7555835E-3,1.3885166E-2,1.9519448E-2,2.6232759E-2,1.3578174E-2,1.427825E-2,2.1804264E-2,1.0178253E-2,1.5253832E-2,1.4815298E-2,-8.214264E-2,7.7471896E-3,1.4477323E-2,6.82283E-2,2.0415561E-2,1.4306677E-2,3.6603936E-3,1.5993193E-2,1.9938806E-2,-7.190879E-4,2.3500705E-2,2.6347924E-2,1.3379395E-2,1.3478674E-2,1.9520393E-2,2.2544514E-2,1.3570388E-2,1.992857E-2,3.281447E-2,1.1631995E-2,3.1594396E-2,3.3983465E-2,2.1099774E-2],"categories":[],"categories_nodes":[],"categories_segments":[],"categories_sizes":[],"default_left":[0,0,0,0,0,0,0,0,0,0,0,0,0,0,0,0,0,0,0,0,0,0,0,0,0,0,0,0,0,0,0,0,0,0,0,0,0,0,0,0,0,0,0,0,0,0,0,0,0,0,0,0,0,0,0,0,0,0,0,0,0,0,0,0,0,0,0,0,0,0,0,0,0,0,0,0,0,0,0,0,0,0,0,0,0,0,0,0,0,0,0,0,0,0,0,0,0,0,0,0,0,0,0,0,0,0,0,0,0,0,0,0,0,0,0,0,0,0,0,0,0,0,0,0,0,0,0],"id":6,"left_children":[1,3,5,7,9,11,13,15,17,19,21,23,25,27,29,31,33,35,37,39,41,43,45,47,49,51,53,55,57,59,61,63,65,67,69,71,73,75,77,79,81,83,85,87,89,91,93,95,97,99,101,103,105,107,109,111,113,115,117,119,121,123,125,-1,-1,-1,-1,-1,-1,-1,-1,-1,-1,-1,-1,-1,-1,-1,-1,-1,-1,-1,-1,-1,-1,-1,-1,-1,-1,-1,-1,-1,-1,-1,-1,-1,-1,-1,-1,-1,-1,-1,-1,-1,-1,-1,-1,-1,-1,-1,-1,-1,-1,-1,-1,-1,-1,-1,-1,-1,-1,-1,-1,-1,-1,-1,-1],"loss_changes":[2.3234214E3,4.2615225E2,2.131665E1,4.523559E1,9.022058E1,1.7480652E1,3.2596558E1,2.1861948E1,1.794926E1,6.2399353E1,4.1057564E1,1.4247253E1,6.1686707E0,5.218872E0,1.1976013E1,3.6357746E1,1.9749495E1,3.0519915E1,5.9668846E0,5.362175E0,3.407843E1,3.8603764E1,1.3951425E1,1.5917664E1,5.8983154E0,6.673069E0,5.5762787E0,3.6921997E0,4.1266327E0,5.253174E0,1.0525391E1,1.8136375E1,8.26379E0,7.701605E0,1.57919035E1,3.356558E1,1.1577007E1,1.3588123E1,5.0109653E0,8.509685E0,1.8765335E0,3.3290604E1,6.4021484E1,5.5455475E1,3.996704E1,9.353666E0,3.8297043E0,5.4200287E0,1.3290253E1,9.461151E0,6.1396484E0,4.60865E0,3.2590485E0,6.405607E0,3.132454E0,2.6990662E0,4.534337E0,4.1848717E0,4.3487396E0,4.7917175E0,9.448029E0,6.2697353E0,1.4188904E1,0E0,0E0,0E0,0E0,0E0,0E0,0E0,0E0,0E0,0E0,0E0,0E0,0E0,0E0,0E0,0E0,0E0,0E0,0E0,0E0,0E0,0E0,0E0,0E0,0E0,0E0,0E0,0E0,0E0,0E0,0E0,0E0,0E0,0E0,0E0,0E0,0E0,0E0,0E0,0E0,0E0,0E0,0E0,0E0,0E0,0E0,0E0,0E0,0E0,0E0,0E0,0E0,0E0,0E0,0E0,0E0,0E0,0E0,0E0,0E0,0E0,0E0,0E0,0E0],"parents":[2147483647,0,0,1,1,2,2,3,3,4,4,5,5,6,6,7,7,8,8,9,9,10,10,11,11,12,12,13,13,14,14,15,15,16,16,17,17,18,18,19,19,20,20,21,21,22,22,23,23,24,24,25,25,26,26,27,27,28,28,29,29,30,30,31,31,32,32,33,33,34,34,35,35,36,36,37,37,38,38,39,39,40,40,41,41,42,42,43,43,44,44,45,45,46,46,47,47,48,48,49,49,50,50,51,51,52,52,53,53,54,54,55,55,56,56,57,57,58,58,59,59,60,60,61,61,62,62],"right_children":[2,4,6,8,10,12,14,16,18,20,22,24,26,28,30,32,34,36,38,40,42,44,46,48,50,52,54,56,58,60,62,64,66,68,70,72,74,76,78,80,82,84,86,88,90,92,94,96,98,100,102,104,106,108,110,112,114,116,118,120,122,124,126,-1,-1,-1,-1,-1,-1,-1,-1,-1,-1,-1,-1,-1,-1,-1,-1,-1,-1,-1,-1,-1,-1,-1,-1,-1,-1,-1,-1,-1,-1,-1,-1,-1,-1,-1,-1,-1,-1,-1,-1,-1,-1,-1,-1,-1,-1,-1,-1,-1,-1,-1,-1,-1,-1,-1,-1,-1,-1,-1,-1,-1,-1,-1,-1],"split_conditions":[1E0,1E0,2E0,5.768321E0,1E0,5.7E2,1E0,2E0,1E0,2E0,1E0,5.9939613E0,1E0,1E0,3E0,1E0,0E0,3E0,1.7E2,1E0,2E0,2E0,1.15E3,1E0,3E2,2.7080503E0,3.912023E0,1.8E3,2E0,6.188264E0,4E0,1E0,1E0,5.26269E0,5.31812E0,0E0,1E0,6.504288E0,6.8394766E0,6.618739E0,2E0,2E0,0E0,5E-1,6E2,6.891626E0,1E0,3E0,1E0,6.673298E0,4.1E0,9E0,6.6970344E0,2E0,2.2E1,2E0,6.516193E0,3E0,6.753438E0,5.26269E0,1E0,6.6133842E0,1E0,-3.792083E-3,-1.0388792E-2,6.2999832E-3,-1.6703965E-3,-9.070618E-3,-1.2257794E-3,1.7413637E-3,-2.7450735E-3,4.081468E-3,-2.1160438E-3,1.3439948E-3,6.848263E-3,1.195601E-3,6.609318E-3,2.056342E-3,-1.8953708E-3,-3.2957035E-4,-7.2384323E-3,-8.279976E-3,-5.0025512E-3,-1.0414873E-2,-3.6821158E-3,-1.3240299E-2,-6.5814615E-3,-6.568054E-3,8.114672E-3,-1.2694764E-2,-3.658893E-3,4.5295474E-3,2.8674945E-2,1.8044073E-2,-9.7555835E-3,1.3885166E-2,1.9519448E-2,2.6232759E-2,1.3578174E-2,1.427825E-2,2.1804264E-2,1.0178253E-2,1.5253832E-2,1.4815298E-2,-8.214264E-2,7.7471896E-3,1.4477323E-2,6.82283E-2,2.0415561E-2,1.4306677E-2,3.6603936E-3,1.5993193E-2,1.9938806E-2,-7.190879E-4,2.3500705E-2,2.6347924E-2,1.3379395E-2,1.3478674E-2,1.9520393E-2,2.2544514E-2,1.3570388E-2,1.992857E-2,3.281447E-2,1.1631995E-2,3.1594396E-2,3.3983465E-2,2.1099774E-2],"split_indices":[14,4,20,19,13,9,11,16,15,1,7,19,11,15,16,13,15,16,9,18,16,16,9,13,9,19,19,9,2,19,2,7,7,19,19,15,11,19,19,19,2,20,15,8,9,19,2,1,6,19,0,2,19,26,2,26,19,16,19,19,5,19,24,0,0,0,0,0,0,0,0,0,0,0,0,0,0,0,0,0,0,0,0,0,0,0,0,0,0,0,0,0,0,0,0,0,0,0,0,0,0,0,0,0,0,0,0,0,0,0,0,0,0,0,0,0,0,0,0,0,0,0,0,0,0,0,0],"split_type":[0,0,0,0,0,0,0,0,0,0,0,0,0,0,0,0,0,0,0,0,0,0,0,0,0,0,0,0,0,0,0,0,0,0,0,0,0,0,0,0,0,0,0,0,0,0,0,0,0,0,0,0,0,0,0,0,0,0,0,0,0,0,0,0,0,0,0,0,0,0,0,0,0,0,0,0,0,0,0,0,0,0,0,0,0,0,0,0,0,0,0,0,0,0,0,0,0,0,0,0,0,0,0,0,0,0,0,0,0,0,0,0,0,0,0,0,0,0,0,0,0,0,0,0,0,0,0],"sum_hessian":[4.23794E5,3.565342E5,6.725982E4,1.9114056E5,1.6539362E5,3.806693E4,2.9192893E4,6.107236E4,1.30068195E5,1.2550475E5,3.988887E4,2.9342832E4,8.724099E3,1.913132E4,1.0061572E4,2.1889666E4,3.9182695E4,7.4300266E4,5.576793E4,3.274844E4,9.275631E4,3.1869986E4,8.018886E3,1.2101281E4,1.724155E4,4.366512E3,4.357586E3,8.960922E3,1.0170397E4,5.4248696E3,4.636703E3,1.66753E4,5.2143657E3,5.537739E3,3.3644957E4,5.9002566E4,1.5297701E4,1.8546996E4,3.7220934E4,8.607399E3,2.414104E4,2.9577525E4,6.3178785E4,1.0290785E4,2.1579201E4,7.121127E3,8.9775946E2,7.067829E3,5.0334526E3,7.2926772E3,9.948874E3,1.9817858E1,4.3466943E3,1.4178966E2,4.2157964E3,8.627542E3,3.3337994E2,1.0394735E3,9.130924E3,2.504673E3,2.9201963E3,8.0452405E2,3.832179E3,8.427841E3,8.247459E3,2.735574E3,2.4787915E3,3.6266738E3,1.9110651E3,2.1186617E4,1.2458338E4,1.0666606E4,4.833596E4,7.870693E3,7.4270083E3,9.366963E3,9.180033E3,3.3674887E4,3.546044E3,6.0871465E3,2.520253E3,1.8979269E3,2.2243113E4,1.3574825E4,1.60027E4,4.0837816E4,2.234097E4,5.2382812E3,5.0525044E3,7.505914E3,1.4073287E4,6.957854E3,1.63273E2,5.1730736E1,8.4602875E2,4.1391216E3,2.9287075E3,3.9804238E3,1.053029E3,4.6861147E3,2.6065627E3,3.9885645E3,5.9603096E3,7.25885E0,1.2559008E1,3.4345955E3,9.12099E2,3.819983E1,1.0358982E2,3.9175808E3,2.9821558E2,2.4537935E3,6.1737485E3,2.1314877E2,1.2023116E2,6.160083E2,4.2346524E2,7.7150625E3,1.4158615E3,9.8718945E2,1.5174836E3,2.140142E3,7.800542E2,5.897252E2,2.147988E2,2.5305007E3,1.3016783E3],"tree_param":{"num_deleted":"0","num_feature":"28","num_nodes":"127","size_leaf_vector":"1"}},{"base_weights":[-2.634697E-10,-3.0188166E-2,1.6581166E-1,-2.0906572E-10,-6.522088E-2,1.5063198E-1,1.859651E-1,8.166591E-3,-1.6793888E-2,-5.3437226E-2,-9.3246005E-2,1.6063952E-1,1.1646261E-1,1.6213308E-1,2.3314217E-1,2.0288879E-2,-1.5066593E-2,-3.2531567E-2,2.655615E-2,-4.6470612E-2,-8.4931746E-2,-1.5992496E-2,-1.1103477E-1,1.432359E-1,1.8691093E-1,9.4718225E-2,1.3767819E-1,1.7829546E-1,1.479337E-1,2.0067452E-1,2.716417E-1,4.1002903E-2,6.024426E-3,8.990239E-3,-3.490766E-2,-7.812273E-2,1.6368425E-3,7.408753E-2,-3.1056057E-3,-6.479159E-2,-3.172927E-2,-1.3309944E-1,-4.46467E-2,-8.2349524E-2,2.5363376E-3,-1.4882293E-1,-8.6303815E-2,1.3273706E-1,1.8722041E-1,2.333365E-1,1.5404172E-1,1.2601238E-1,6.4505905E-2,3.6422515E-1,1.3340142E-1,1.7279634E-1,2.3650454E-1,1.3940488E-1,1.9390644E-1,1.7006421E-1,2.2675346E-1,1.6218476E-1,2.947754E-1,-6.846381E-3,4.625248E-3,3.2176815E-3,-5.268841E-4,-3.4477909E-3,2.841839E-3,-6.7739687E-3,-1.8467534E-3,-4.702636E-3,-1.29332235E-2,2.1027196E-3,-2.125686E-3,3.2391568E-4,1.606757E-2,1.5155042E-3,-3.3557569E-3,-5.1304484E-3,-1.2952194E-2,-2.8977867E-3,-2.8206194E-2,-1.5623457E-2,-7.0831105E-3,-3.2520355E-3,-1.2054798E-2,-5.721086E-3,-2.1282045E-2,5.8028502E-3,-1.0695116E-3,-1.5981598E-2,1.2188473E-3,-1.2904598E-2,-6.3190022E-3,1.1880016E-2,1.6695261E-2,1.681406E-2,2.9369405E-2,2.666432E-2,1.2188089E-2,8.475038E-3,1.672454E-2,-2.0109261E-3,1.50893945E-2,3.604152E-3,1.627046E-2,4.089765E-2,-1.3625339E-2,1.3976701E-2,4.0884186E-3,1.3934624E-2,1.8557949E-2,2.5601167E-2,7.831584E-3,1.6007373E-2,1.12843E-2,3.5913315E-2,1.7037878E-2,2.2605058E-2,1.1888368E-2,1.9140597E-2,3.301965E-2,1.1116247E-2,3.0188069E-2,3.440346E-2,2.059951E-2],"categories":[],"categories_nodes":[],"categories_segments":[],"categories_sizes":[],"default_left":[0,0,0,0,0,0,0,0,0,0,0,0,0,0,0,0,0,0,0,0,0,0,0,0,0,0,0,0,0,0,0,0,0,0,0,0,0,0,0,0,0,0,0,0,0,0,0,0,0,0,0,0,0,0,0,0,0,0,0,0,0,0,0,0,0,0,0,0,0,0,0,0,0,0,0,0,0,0,0,0,0,0,0,0,0,0,0,0,0,0,0,0,0,0,0,0,0,0,0,0,0,0,0,0,0,0,0,0,0,0,0,0,0,0,0,0,0,0,0,0,0,0,0,0,0,0,0],"id":7,"left_children":[1,3,5,7,9,11,13,15,17,19,21,23,25,27,29,31,33,35,37,39,41,43,45,47,49,51,53,55,57,59,61,63,65,67,69,71,73,75,77,79,81,83,85,87,89,91,93,95,97,99,101,103,105,107,109,111,113,115,117,119,121,123,125,-1,-1,-1,-1,-1,-1,-1,-1,-1,-1,-1,-1,-1,-1,-1,-1,-1,-1,-1,-1,-1,-1,-1,-1,-1,-1,-1,-1,-1,-1,-1,-1,-1,-1,-1,-1,-1,-1,-1,-1,-1,-1,-1,-1,-1,-1,-1,-1,-1,-1,-1,-1,-1,-1,-1,-1,-1,-1,-1,-1,-1,-1,-1,-1],"loss_changes":[2.1063994E3,3.764946E2,1.980017E1,2.6226002E1,5.441095E1,1.2624695E1,3.1264404E1,3.6235588E1,4.268416E1,2.544867E1,6.702551E1,1.3047607E1,3.8526077E0,4.219391E0,1.1622589E1,2.4980892E1,2.105629E1,7.150405E1,2.3494553E1,2.5653671E1,4.0764984E1,1.1225745E1,3.7036804E1,7.920288E0,1.7347198E1,3.9074402E0,4.0586624E0,2.7270813E0,3.8367004E0,4.010071E0,1.0766998E1,1.9816185E1,1.4787758E1,1.6839859E1,1.3047628E1,3.1307076E1,1.1648149E1,3.9281616E1,5.706873E0,3.6969345E1,3.6249676E1,1.3773697E1,1.0528572E1,6.524353E0,5.241714E0,2.7757568E1,2.3667404E1,6.605255E0,6.680893E0,1.748944E1,6.0904694E0,7.3953094E0,5.889614E0,1.8019352E0,2.445488E0,3.3540955E0,2.2748413E0,4.5472107E0,5.9233932E0,6.6699753E0,9.939148E0,5.2936554E0,1.5343048E1,0E0,0E0,0E0,0E0,0E0,0E0,0E0,0E0,0E0,0E0,0E0,0E0,0E0,0E0,0E0,0E0,0E0,0E0,0E0,0E0,0E0,0E0,0E0,0E0,0E0,0E0,0E0,0E0,0E0,0E0,0E0,0E0,0E0,0E0,0E0,0E0,0E0,0E0,0E0,0E0,0E0,0E0,0E0,0E0,0E0,0E0,0E0,0E0,0E0,0E0,0E0,0E0,0E0,0E0,0E0,0E0,0E0,0E0,0E0,0E0,0E0,0E0,0E0,0E0],"parents":[2147483647,0,0,1,1,2,2,3,3,4,4,5,5,6,6,7,7,8,8,9,9,10,10,11,11,12,12,13,13,14,14,15,15,16,16,17,17,18,18,19,19,20,20,21,21,22,22,23,23,24,24,25,25,26,26,27,27,28,28,29,29,30,30,31,31,32,32,33,33,34,34,35,35,36,36,37,37,38,38,39,39,40,40,41,41,42,42,43,43,44,44,45,45,46,46,47,47,48,48,49,49,50,50,51,51,52,52,53,53,54,54,55,55,56,56,57,57,58,58,59,59,60,60,61,61,62,62],"right_children":[2,4,6,8,10,12,14,16,18,20,22,24,26,28,30,32,34,36,38,40,42,44,46,48,50,52,54,56,58,60,62,64,66,68,70,72,74,76,78,80,82,84,86,88,90,92,94,96,98,100,102,104,106,108,110,112,114,116,118,120,122,124,126,-1,-1,-1,-1,-1,-1,-1,-1,-1,-1,-1,-1,-1,-1,-1,-1,-1,-1,-1,-1,-1,-1,-1,-1,-1,-1,-1,-1,-1,-1,-1,-1,-1,-1,-1,-1,-1,-1,-1,-1,-1,-1,-1,-1,-1,-1,-1,-1,-1,-1,-1,-1,-1,-1,-1,-1,-1,-1,-1,-1,-1,-1,-1,-1],"split_conditions":[1E0,1E0,2E0,3E0,1E0,5.7E2,1E0,1E0,4E0,1E0,2E0,1E0,1E0,1E0,3E0,1E0,2E0,2E0,2E0,5E-1,7.5E2,4.1E0,8.5E2,7.5E-1,5.9939613E0,2E0,3.5553482E0,7.5E-1,6.7487597E0,6.188264E0,4E0,6E1,5.8493247E0,5.7300997E0,0E0,5E-1,6.3350544E0,1E0,5E2,2E0,1E0,4E0,6E0,6.744059E0,3.1E2,6.84375E0,2E0,5E0,6.753438E0,1E0,4E0,1E0,6.7019606E0,8E2,2.2E1,2E0,6.793466E0,6.1800165E0,6.7707896E0,5.3752785E0,1E0,6.6240654E0,1E0,-6.846381E-3,4.625248E-3,3.2176815E-3,-5.268841E-4,-3.4477909E-3,2.841839E-3,-6.7739687E-3,-1.8467534E-3,-4.702636E-3,-1.29332235E-2,2.1027196E-3,-2.125686E-3,3.2391568E-4,1.606757E-2,1.5155042E-3,-3.3557569E-3,-5.1304484E-3,-1.2952194E-2,-2.8977867E-3,-2.8206194E-2,-1.5623457E-2,-7.0831105E-3,-3.2520355E-3,-1.2054798E-2,-5.721086E-3,-2.1282045E-2,5.8028502E-3,-1.0695116E-3,-1.5981598E-2,1.2188473E-3,-1.2904598E-2,-6.3190022E-3,1.1880016E-2,1.6695261E-2,1.681406E-2,2.9369405E-2,2.666432E-2,1.2188089E-2,8.475038E-3,1.672454E-2,-2.0109261E-3,1.50893945E-2,3.604152E-3,1.627046E-2,4.089765E-2,-1.3625339E-2,1.3976701E-2,4.0884186E-3,1.3934624E-2,1.8557949E-2,2.5601167E-2,7.831584E-3,1.6007373E-2,1.12843E-2,3.5913315E-2,1.7037878E-2,2.2605058E-2,1.1888368E-2,1.9140597E-2,3.301965E-2,1.1116247E-2,3.0188069E-2,3.440346E-2,2.059951E-2],"split_indices":[14,4,20,16,13,9,11,13,16,15,1,13,11,15,16,15,20,20,20,8,9,0,9,8,19,16,19,8,19,19,2,9,19,19,15,8,19,7,9,1,10,16,26,19,9,19,16,26,19,6,2,26,19,9,2,26,19,19,19,19,5,19,24,0,0,0,0,0,0,0,0,0,0,0,0,0,0,0,0,0,0,0,0,0,0,0,0,0,0,0,0,0,0,0,0,0,0,0,0,0,0,0,0,0,0,0,0,0,0,0,0,0,0,0,0,0,0,0,0,0,0,0,0,0,0,0,0],"split_type":[0,0,0,0,0,0,0,0,0,0,0,0,0,0,0,0,0,0,0,0,0,0,0,0,0,0,0,0,0,0,0,0,0,0,0,0,0,0,0,0,0,0,0,0,0,0,0,0,0,0,0,0,0,0,0,0,0,0,0,0,0,0,0,0,0,0,0,0,0,0,0,0,0,0,0,0,0,0,0,0,0,0,0,0,0,0,0,0,0,0,0,0,0,0,0,0,0,0,0,0,0,0,0,0,0,0,0,0,0,0,0,0,0,0,0,0,0,0,0,0,0,0,0,0,0,0,0],"sum_hessian":[4.208108E5,3.5599762E5,6.481317E4,1.9122094E5,1.647767E5,3.697321E4,2.783996E4,1.2865745E5,6.2563484E4,1.16003805E5,4.877289E4,2.8594676E4,8.378535E3,1.8499281E4,9.340681E3,8.4544914E4,4.4112543E4,4.590024E4,1.6663248E4,9.499362E4,2.1010186E4,9.129027E3,3.9643863E4,1.720415E4,1.1390526E4,4.1403984E3,4.238136E3,8.64621E3,9.853071E3,5.0706694E3,4.2700107E3,3.4477207E4,5.0067707E4,1.993833E4,2.4174215E4,1.9662771E4,2.6237465E4,6.4023403E3,1.0260907E4,4.235286E4,5.264076E4,9.56786E3,1.1442324E4,1.9919266E3,7.1371006E3,1.5680112E4,2.3963752E4,1.3892185E4,3.3119653E3,4.7190645E3,6.6714614E3,2.0322285E3,2.10817E3,7.696598E1,4.1611704E3,7.903518E3,7.4269196E2,8.314588E3,1.5384825E3,2.3361365E3,2.734533E3,7.464054E2,3.5236052E3,1.5771725E3,3.290003E4,1.5099404E4,3.4968305E4,6.1585474E3,1.3779782E4,8.064917E3,1.6109297E4,1.2235081E4,7.42769E3,1.4205699E4,1.2031766E4,3.5217793E3,2.8805608E3,6.414767E3,3.84614E3,3.5051402E4,7.3014565E3,5.2069582E4,5.711802E2,6.9749014E3,2.5929592E3,9.867306E3,1.5750183E3,1.6713378E3,3.2058887E2,1.3734641E3,5.7636367E3,1.4677982E4,1.00213E3,8.409067E3,1.5554685E4,9.874508E3,4.0176768E3,2.8108477E3,5.0111774E2,3.6322366E3,1.0868278E3,1.0689829E3,5.6024785E3,2.9572406E2,1.7365045E3,1.635471E3,4.726991E2,7.08166E1,6.1493835E0,3.8928171E3,2.6835318E2,2.1885527E3,5.7149653E3,6.6061005E2,8.20819E1,4.6731772E3,3.641411E3,1.8998933E2,1.3484932E3,1.1140554E3,1.2220812E3,2.0402203E3,6.943127E2,5.4803705E2,1.9836835E2,2.264363E3,1.2592423E3],"tree_param":{"num_deleted":"0","num_feature":"28","num_nodes":"127","size_leaf_vector":"1"}},{"base_weights":[3.3887088E-10,-2.8335134E-2,1.6144232E-1,2.3567395E-10,-6.0704403E-2,1.4613777E-1,1.8221977E-1,3.4650378E-3,-3.0811414E-2,-7.644462E-2,-4.9584527E-2,1.6965649E-1,1.3067962E-1,1.5987867E-1,2.2705841E-1,-2.7885241E-3,2.4804572E-2,4.3588253E-3,-1.202083E-1,-1.0753989E-1,-5.662566E-2,-4.155899E-2,-8.377457E-2,1.8665206E-1,1.2902047E-1,1.5729758E-1,1.1740198E-1,1.8371312E-1,1.5228812E-1,1.9413607E-1,2.6808307E-1,7.169124E-3,-3.00849E-2,8.218721E-2,-2.2497708E-3,1.9561464E-2,-1.9520514E-2,-2.6084548E-2,-1.6170499E-1,-5.449075E-2,-1.2874614E-1,-4.834512E-2,-1.629162E-1,-5.3476218E-2,-1.2762622E-2,-1.1919306E-1,-6.2427115E-2,1.5113096E-1,2.3592067E-1,1.8422341E-1,1.0425614E-1,1.6998915E-1,5.8544684E-2,1.0631589E-1,1.5916786E-1,1.5444678E-1,2.2201051E-1,2.0619369E-1,1.4637041E-1,1.7753555E-1,2.4518979E-1,1.4767542E-1,2.9427236E-1,3.924965E-3,-1.2541063E-4,-4.834314E-3,3.9288034E-3,5.7652257E-3,1.3210862E-2,-1.7452168E-3,3.0910824E-3,3.269116E-3,-2.9563354E-3,1.6246649E-3,-5.5709514E-3,3.507594E-3,-5.6316154E-3,-1.02141015E-2,-2.4510454E-2,-1.1824516E-3,-7.2270855E-3,-1.4895394E-2,-8.997989E-3,-3.2665867E-3,-7.409563E-3,2.0062352E-2,-1.6931929E-2,-6.9419774E-3,-2.7766384E-3,1.9527E-3,-6.257323E-3,-1.009478E-2,-1.9517692E-2,-7.5024166E-3,-5.179516E-4,2.8076638E-2,1.4448359E-2,2.6506696E-2,1.2569054E-2,2.1619355E-2,-1.7925395E-3,9.34744E-3,3.517221E-2,1.4361128E-2,2.17403E-2,-5.9070837E-2,7.378044E-3,1.42439725E-2,9.592884E-3,1.0932345E-2,1.8273054E-2,7.113339E-3,1.8931007E-2,1.8262101E-2,3.1814314E-2,2.4481375E-2,1.4017412E-2,1.1579864E-2,1.5551415E-2,1.8796427E-2,5.95358E-3,1.4697148E-2,3.3041157E-2,1.8118502E-4,1.982182E-2,3.4662653E-2,2.042579E-2],"categories":[],"categories_nodes":[],"categories_segments":[],"categories_sizes":[],"default_left":[0,0,0,0,0,0,0,0,0,0,0,0,0,0,0,0,0,0,0,0,0,0,0,0,0,0,0,0,0,0,0,0,0,0,0,0,0,0,0,0,0,0,0,0,0,0,0,0,0,0,0,0,0,0,0,0,0,0,0,0,0,0,0,0,0,0,0,0,0,0,0,0,0,0,0,0,0,0,0,0,0,0,0,0,0,0,0,0,0,0,0,0,0,0,0,0,0,0,0,0,0,0,0,0,0,0,0,0,0,0,0,0,0,0,0,0,0,0,0,0,0,0,0,0,0,0,0],"id":8,"left_children":[1,3,5,7,9,11,13,15,17,19,21,23,25,27,29,31,33,35,37,39,41,43,45,47,49,51,53,55,57,59,61,63,65,67,69,71,73,75,77,79,81,83,85,87,89,91,93,95,97,99,101,103,105,107,109,111,113,115,117,119,121,123,125,-1,-1,-1,-1,-1,-1,-1,-1,-1,-1,-1,-1,-1,-1,-1,-1,-1,-1,-1,-1,-1,-1,-1,-1,-1,-1,-1,-1,-1,-1,-1,-1,-1,-1,-1,-1,-1,-1,-1,-1,-1,-1,-1,-1,-1,-1,-1,-1,-1,-1,-1,-1,-1,-1,-1,-1,-1,-1,-1,-1,-1,-1,-1,-1],"loss_changes":[1.9201195E3,3.2750394E2,1.99021E1,2.0328026E1,2.9168762E1,1.30998535E1,2.6588562E1,2.2840473E1,6.0518646E1,4.251645E1,2.6797623E1,9.859772E0,7.6802673E0,3.1819458E0,1.1882782E1,3.5978516E1,6.0219673E1,5.0154657E0,2.1222115E1,3.0207123E1,3.708365E1,2.714685E1,1.4031479E1,1.7620178E1,5.754776E0,9.072601E0,6.714264E0,4.7638397E0,4.264557E0,4.11438E0,1.23541565E1,2.6208084E1,4.4815903E1,1.5215263E1,1.3290319E1,5.445543E0,6.957247E0,3.0787387E0,1.8710312E1,5.819113E0,1.501712E1,1.5783417E1,7.122986E0,2.2932983E1,3.7245743E1,9.659035E0,8.355732E0,5.013489E0,1.3539673E1,8.448555E0,7.752573E0,7.9992676E0,8.222176E0,4.2980347E0,3.5590057E0,7.044159E0,6.954872E0,3.3550377E0,3.3741455E0,4.5491257E0,1.0005615E1,5.1924763E0,1.5142273E1,0E0,0E0,0E0,0E0,0E0,0E0,0E0,0E0,0E0,0E0,0E0,0E0,0E0,0E0,0E0,0E0,0E0,0E0,0E0,0E0,0E0,0E0,0E0,0E0,0E0,0E0,0E0,0E0,0E0,0E0,0E0,0E0,0E0,0E0,0E0,0E0,0E0,0E0,0E0,0E0,0E0,0E0,0E0,0E0,0E0,0E0,0E0,0E0,0E0,0E0,0E0,0E0,0E0,0E0,0E0,0E0,0E0,0E0,0E0,0E0,0E0,0E0,0E0,0E0],"parents":[2147483647,0,0,1,1,2,2,3,3,4,4,5,5,6,6,7,7,8,8,9,9,10,10,11,11,12,12,13,13,14,14,15,15,16,16,17,17,18,18,19,19,20,20,21,21,22,22,23,23,24,24,25,25,26,26,27,27,28,28,29,29,30,30,31,31,32,32,33,33,34,34,35,35,36,36,37,37,38,38,39,39,40,40,41,41,42,42,43,43,44,44,45,45,46,46,47,47,48,48,49,49,50,50,51,51,52,52,53,53,54,54,55,55,56,56,57,57,58,58,59,59,60,60,61,61,62,62],"right_children":[2,4,6,8,10,12,14,16,18,20,22,24,26,28,30,32,34,36,38,40,42,44,46,48,50,52,54,56,58,60,62,64,66,68,70,72,74,76,78,80,82,84,86,88,90,92,94,96,98,100,102,104,106,108,110,112,114,116,118,120,122,124,126,-1,-1,-1,-1,-1,-1,-1,-1,-1,-1,-1,-1,-1,-1,-1,-1,-1,-1,-1,-1,-1,-1,-1,-1,-1,-1,-1,-1,-1,-1,-1,-1,-1,-1,-1,-1,-1,-1,-1,-1,-1,-1,-1,-1,-1,-1,-1,-1,-1,-1,-1,-1,-1,-1,-1,-1,-1,-1,-1,-1,-1,-1,-1,-1],"split_conditions":[1E0,1E0,2E0,4E0,2E0,5.9839363E0,1E0,3E0,3E0,2E0,1.2E3,1E0,3E2,1E0,3E0,1E0,2E0,6.4504704E0,1E0,2E0,6E2,1E0,2E0,1E0,7E0,1E0,1E0,1.4E1,2E0,1E0,4E0,1E0,4.5E0,5E-1,1E0,1.9E1,2E0,7E0,2.3E2,7E0,1E0,0E0,3.1354942E0,0E0,3E0,1E0,1E0,3.4339871E0,5.5E2,6E0,5.9454207E0,6.673298E0,6.0234475E0,6.240276E0,6.419995E0,5E-1,5E0,1.1E3,2E0,6.818924E0,6.1944056E0,9E2,1E0,3.924965E-3,-1.2541063E-4,-4.834314E-3,3.9288034E-3,5.7652257E-3,1.3210862E-2,-1.7452168E-3,3.0910824E-3,3.269116E-3,-2.9563354E-3,1.6246649E-3,-5.5709514E-3,3.507594E-3,-5.6316154E-3,-1.02141015E-2,-2.4510454E-2,-1.1824516E-3,-7.2270855E-3,-1.4895394E-2,-8.997989E-3,-3.2665867E-3,-7.409563E-3,2.0062352E-2,-1.6931929E-2,-6.9419774E-3,-2.7766384E-3,1.9527E-3,-6.257323E-3,-1.009478E-2,-1.9517692E-2,-7.5024166E-3,-5.179516E-4,2.8076638E-2,1.4448359E-2,2.6506696E-2,1.2569054E-2,2.1619355E-2,-1.7925395E-3,9.34744E-3,3.517221E-2,1.4361128E-2,2.17403E-2,-5.9070837E-2,7.378044E-3,1.42439725E-2,9.592884E-3,1.0932345E-2,1.8273054E-2,7.113339E-3,1.8931007E-2,1.8262101E-2,3.1814314E-2,2.4481375E-2,1.4017412E-2,1.1579864E-2,1.5551415E-2,1.8796427E-2,5.95358E-3,1.4697148E-2,3.3041157E-2,1.8118502E-4,1.982182E-2,3.4662653E-2,2.042579E-2],"split_indices":[14,4,20,16,20,19,11,16,18,16,9,6,9,10,16,11,20,19,7,1,9,13,16,13,2,10,7,2,2,5,2,18,0,8,15,2,1,2,9,2,12,15,19,15,1,6,6,19,9,26,19,19,19,19,19,8,26,9,16,19,19,9,24,0,0,0,0,0,0,0,0,0,0,0,0,0,0,0,0,0,0,0,0,0,0,0,0,0,0,0,0,0,0,0,0,0,0,0,0,0,0,0,0,0,0,0,0,0,0,0,0,0,0,0,0,0,0,0,0,0,0,0,0,0,0,0,0],"split_type":[0,0,0,0,0,0,0,0,0,0,0,0,0,0,0,0,0,0,0,0,0,0,0,0,0,0,0,0,0,0,0,0,0,0,0,0,0,0,0,0,0,0,0,0,0,0,0,0,0,0,0,0,0,0,0,0,0,0,0,0,0,0,0,0,0,0,0,0,0,0,0,0,0,0,0,0,0,0,0,0,0,0,0,0,0,0,0,0,0,0,0,0,0,0,0,0,0,0,0,0,0,0,0,0,0,0,0,0,0,0,0,0,0,0,0,0,0,0,0,0,0,0,0,0,0,0,0],"sum_hessian":[4.1974306E5,3.5707312E5,6.2669945E4,1.9040181E5,1.6667131E5,3.6092477E4,2.657747E4,1.7115472E5,1.9247094E4,6.899823E4,9.767308E4,1.4310253E4,2.1782223E4,1.7741984E4,8.835485E3,1.3236573E5,3.878898E4,1.3813558E4,5.4335347E3,2.6856645E4,4.2141586E4,7.91064E4,1.8566682E4,1.0087619E4,4.222633E3,7.2457227E3,1.45365E4,4.279876E3,1.3462109E4,4.9049707E3,3.9305144E3,9.6986164E4,3.537957E4,1.2427673E4,2.6361307E4,8.440283E3,5.373275E3,1.663033E3,3.770502E3,7.67088E3,1.9185764E4,3.909718E4,3.0444038E3,5.595065E4,2.3155748E4,6.980478E3,1.1586204E4,5.863959E3,4.2236606E3,1.3056744E3,2.9169585E3,6.419923E3,8.2580005E2,1.1490163E4,3.0463362E3,2.4288306E3,1.8510452E3,1.3283247E3,1.2133784E4,3.7048022E3,1.2001683E3,7.0336646E2,3.227148E3,2.0168648E4,7.6817516E4,2.8008361E4,7.371207E3,8.333934E3,4.0937388E3,1.8075232E4,8.286074E3,6.6604614E3,1.7798215E3,2.7026648E3,2.67061E3,5.500619E2,1.112971E3,2.200867E3,1.569635E3,2.2568557E3,5.414024E3,1.260978E4,6.575984E3,2.4302117E4,1.4795064E4,5.216851E1,2.9922354E3,3.4533523E4,2.1417125E4,1.4049074E4,9.106674E3,5.630749E3,1.349729E3,9.496284E3,2.0899202E3,2.8401154E2,5.5799473E3,3.339301E3,8.8435956E2,1.127318E3,1.7835655E2,2.7964968E3,1.2046173E2,4.127621E3,2.2923018E3,1.8068354E1,8.077317E2,2.5632031E3,8.926961E3,9.796425E2,2.0666938E3,7.1742566E2,1.711405E3,1.315096E3,5.359493E2,8.363623E2,4.919624E2,2.79672E3,9.337064E3,3.4034177E3,3.013845E2,5.5883453E2,6.4133386E2,1.8126935E2,5.220971E2,2.0386052E3,1.1885427E3],"tree_param":{"num_deleted":"0","num_feature":"28","num_nodes":"127","size_leaf_vector":"1"}},{"base_weights":[-3.9236175E-10,-2.713142E-2,1.5888539E-1,-7.410273E-11,-5.883271E-2,1.4352982E-1,1.7966601E-1,8.714209E-3,-1.8062863E-2,-7.33465E-2,-4.8461672E-2,1.6551878E-1,1.2815626E-1,1.5774293E-1,2.2499885E-1,2.657424E-2,-8.040089E-3,-5.9646595E-2,1.5549324E-2,-6.760188E-2,-1.5184635E-1,-2.616583E-2,-8.392072E-2,1.4459002E-1,1.9610812E-1,1.5827432E-1,1.13084294E-1,1.6181484E-1,1.097727E-1,1.9074143E-1,2.6799703E-1,1.6952107E-2,5.981722E-2,7.067141E-3,-5.146629E-2,-8.943866E-2,2.4870848E-2,-5.7348353E-3,2.9546529E-2,-3.5043165E-2,-8.336266E-2,-1.2326768E-1,-2.513943E-1,-5.7348954E-3,-8.138176E-2,-9.671736E-2,-5.6572065E-2,2.7035835E-1,1.3832691E-1,2.2930236E-1,1.069548E-1,1.6753255E-1,8.019137E-2,1.0142473E-1,1.564764E-1,1.5628865E-1,1.9208676E-1,4.7681373E-2,1.7120793E-1,1.725696E-1,2.4928673E-1,1.6320528E-1,2.906516E-1,2.434395E-3,-2.5715283E-3,1.2685883E-2,4.656204E-3,2.281249E-3,-7.2533934E-4,9.249106E-4,-8.580334E-3,-1.384284E-3,-1.1264261E-2,6.8860495E-4,7.2997357E-3,5.2528875E-4,-6.0955505E-3,1.4244145E-3,4.7570704E-3,-2.6602705E-3,-1.355309E-2,-4.771545E-3,-9.854003E-3,2.4212014E-2,-1.2809229E-2,-3.179219E-2,-9.551032E-3,1.8072202E-3,-3.3911676E-3,-9.761162E-3,-2.697114E-3,-1.2448174E-2,-7.991346E-3,-9.494582E-3,-7.1670185E-4,2.022853E-2,3.2682996E-2,8.600586E-3,1.518201E-2,2.6080942E-2,1.2000539E-2,8.544765E-3,2.985247E-2,3.9348914E-3,1.7633645E-2,5.1060703E-4,1.5639255E-2,1.1492856E-2,8.330513E-3,1.1849598E-2,1.840885E-2,1.7527254E-2,1.39272455E-2,3.2152332E-2,1.6658595E-2,5.238579E-3,-5.773064E-2,4.7283433E-2,1.486273E-2,1.8175138E-2,3.779995E-3,1.5964188E-2,3.2652553E-2,1.1741163E-2,2.8706778E-2,3.4228314E-2,2.0466408E-2],"categories":[],"categories_nodes":[],"categories_segments":[],"categories_sizes":[],"default_left":[0,0,0,0,0,0,0,0,0,0,0,0,0,0,0,0,0,0,0,0,0,0,0,0,0,0,0,0,0,0,0,0,0,0,0,0,0,0,0,0,0,0,0,0,0,0,0,0,0,0,0,0,0,0,0,0,0,0,0,0,0,0,0,0,0,0,0,0,0,0,0,0,0,0,0,0,0,0,0,0,0,0,0,0,0,0,0,0,0,0,0,0,0,0,0,0,0,0,0,0,0,0,0,0,0,0,0,0,0,0,0,0,0,0,0,0,0,0,0,0,0,0,0,0,0,0,0],"id":9,"left_children":[1,3,5,7,9,11,13,15,17,19,21,23,25,27,29,31,33,35,37,39,41,43,45,47,49,51,53,55,57,59,61,63,65,67,69,71,73,75,77,79,81,83,85,87,89,91,93,95,97,99,101,103,105,107,109,111,113,115,117,119,121,123,125,-1,-1,-1,-1,-1,-1,-1,-1,-1,-1,-1,-1,-1,-1,-1,-1,-1,-1,-1,-1,-1,-1,-1,-1,-1,-1,-1,-1,-1,-1,-1,-1,-1,-1,-1,-1,-1,-1,-1,-1,-1,-1,-1,-1,-1,-1,-1,-1,-1,-1,-1,-1,-1,-1,-1,-1,-1,-1,-1,-1,-1,-1,-1,-1],"loss_changes":[1.8029166E3,3.07256E2,1.943982E1,3.0298988E1,2.4793884E1,1.183905E1,2.5722412E1,3.885508E1,8.755951E1,3.0950378E1,7.596309E1,9.211548E0,9.357178E0,3.3952026E0,1.23897705E1,2.010289E1,4.3955032E1,7.050902E1,1.0321017E1,3.282657E1,1.3285812E1,6.6552246E1,1.2976044E1,6.7158966E0,1.7318619E1,4.9643097E0,6.9498444E0,2.6638794E0,5.2186947E0,4.96167E0,8.837799E0,1.5373896E1,1.2531113E1,1.1208352E1,3.6051506E1,3.6315674E1,6.316905E0,8.34E0,5.763624E0,1.7697063E1,2.3318024E1,6.445587E0,1.0787224E1,2.8887136E1,1.406778E1,1.1778854E1,2.2420044E1,1.4932728E0,5.7539215E0,1.4671402E1,6.53318E0,6.9389343E0,4.1862965E0,2.6464539E0,3.0343018E0,4.3763123E0,8.137398E0,2.03799E0,4.618124E0,4.43943E0,7.6476364E0,3.752861E0,1.3586945E1,0E0,0E0,0E0,0E0,0E0,0E0,0E0,0E0,0E0,0E0,0E0,0E0,0E0,0E0,0E0,0E0,0E0,0E0,0E0,0E0,0E0,0E0,0E0,0E0,0E0,0E0,0E0,0E0,0E0,0E0,0E0,0E0,0E0,0E0,0E0,0E0,0E0,0E0,0E0,0E0,0E0,0E0,0E0,0E0,0E0,0E0,0E0,0E0,0E0,0E0,0E0,0E0,0E0,0E0,0E0,0E0,0E0,0E0,0E0,0E0,0E0,0E0,0E0,0E0],"parents":[2147483647,0,0,1,1,2,2,3,3,4,4,5,5,6,6,7,7,8,8,9,9,10,10,11,11,12,12,13,13,14,14,15,15,16,16,17,17,18,18,19,19,20,20,21,21,22,22,23,23,24,24,25,25,26,26,27,27,28,28,29,29,30,30,31,31,32,32,33,33,34,34,35,35,36,36,37,37,38,38,39,39,40,40,41,41,42,42,43,43,44,44,45,45,46,46,47,47,48,48,49,49,50,50,51,51,52,52,53,53,54,54,55,55,56,56,57,57,58,58,59,59,60,60,61,61,62,62],"right_children":[2,4,6,8,10,12,14,16,18,20,22,24,26,28,30,32,34,36,38,40,42,44,46,48,50,52,54,56,58,60,62,64,66,68,70,72,74,76,78,80,82,84,86,88,90,92,94,96,98,100,102,104,106,108,110,112,114,116,118,120,122,124,126,-1,-1,-1,-1,-1,-1,-1,-1,-1,-1,-1,-1,-1,-1,-1,-1,-1,-1,-1,-1,-1,-1,-1,-1,-1,-1,-1,-1,-1,-1,-1,-1,-1,-1,-1,-1,-1,-1,-1,-1,-1,-1,-1,-1,-1,-1,-1,-1,-1,-1,-1,-1,-1,-1,-1,-1,-1,-1,-1,-1,-1,-1,-1,-1],"split_conditions":[1E0,1E0,2E0,3E0,2E0,6.0234475E0,1E0,2E0,2E0,6E2,1E0,1E0,3E2,4E0,3E0,1E0,1E0,4E0,5.976351E0,2E0,1E0,1.15E3,1.1E3,3.4339871E0,5.5E2,1E0,1E0,6.744059E0,6.2025356E0,1E0,4E0,6.7661915E0,8E1,2E0,4.133333E0,5.7930136E0,2E2,5.817111E0,4.133333E0,1E0,2E0,2.944439E0,4E0,0E0,3E0,2E0,1E0,3E0,4.7184987E0,1E0,5.9454207E0,6.1290503E0,1E0,6.618739E0,2E0,5.9939613E0,6.7707896E0,6.1944056E0,6.25575E0,6.8351846E0,6.1944056E0,6.6240654E0,1E0,2.434395E-3,-2.5715283E-3,1.2685883E-2,4.656204E-3,2.281249E-3,-7.2533934E-4,9.249106E-4,-8.580334E-3,-1.384284E-3,-1.1264261E-2,6.8860495E-4,7.2997357E-3,5.2528875E-4,-6.0955505E-3,1.4244145E-3,4.7570704E-3,-2.6602705E-3,-1.355309E-2,-4.771545E-3,-9.854003E-3,2.4212014E-2,-1.2809229E-2,-3.179219E-2,-9.551032E-3,1.8072202E-3,-3.3911676E-3,-9.761162E-3,-2.697114E-3,-1.2448174E-2,-7.991346E-3,-9.494582E-3,-7.1670185E-4,2.022853E-2,3.2682996E-2,8.600586E-3,1.518201E-2,2.6080942E-2,1.2000539E-2,8.544765E-3,2.985247E-2,3.9348914E-3,1.7633645E-2,5.1060703E-4,1.5639255E-2,1.1492856E-2,8.330513E-3,1.1849598E-2,1.840885E-2,1.7527254E-2,1.39272455E-2,3.2152332E-2,1.6658595E-2,5.238579E-3,-5.773064E-2,4.7283433E-2,1.486273E-2,1.8175138E-2,3.779995E-3,1.5964188E-2,3.2652553E-2,1.1741163E-2,2.8706778E-2,3.4228314E-2,2.0466408E-2],"split_indices":[14,4,20,16,20,19,11,20,20,9,13,13,9,16,16,11,12,16,19,16,10,9,9,19,9,10,7,19,19,5,2,19,9,16,0,19,9,19,0,15,1,19,16,15,16,16,5,26,19,6,19,19,5,19,16,19,19,19,19,19,19,19,24,0,0,0,0,0,0,0,0,0,0,0,0,0,0,0,0,0,0,0,0,0,0,0,0,0,0,0,0,0,0,0,0,0,0,0,0,0,0,0,0,0,0,0,0,0,0,0,0,0,0,0,0,0,0,0,0,0,0,0,0,0,0,0,0],"split_type":[0,0,0,0,0,0,0,0,0,0,0,0,0,0,0,0,0,0,0,0,0,0,0,0,0,0,0,0,0,0,0,0,0,0,0,0,0,0,0,0,0,0,0,0,0,0,0,0,0,0,0,0,0,0,0,0,0,0,0,0,0,0,0,0,0,0,0,0,0,0,0,0,0,0,0,0,0,0,0,0,0,0,0,0,0,0,0,0,0,0,0,0,0,0,0,0,0,0,0,0,0,0,0,0,0,0,0,0,0,0,0,0,0,0,0,0,0,0,0,0,0,0,0,0,0,0,0],"sum_hessian":[4.1823184E5,3.5723147E5,6.1000355E4,1.9249038E5,1.6474111E5,3.508364E4,2.5916713E4,1.2984752E5,6.264285E4,6.86552E4,9.608591E4,1.4431856E4,2.0651783E4,1.747179E4,8.444924E3,6.2849535E4,6.699799E4,2.8000684E4,3.4642168E4,6.397534E4,4.679858E3,5.8993723E4,3.709218E4,8.572448E3,5.859408E3,6.884697E3,1.3767087E4,1.6102563E4,1.3692261E3,4.7032197E3,3.7417039E3,4.8742574E4,1.4106958E4,4.970672E4,1.7291275E4,2.0702928E4,7.2977573E3,1.374385E4,2.0898318E4,2.0868432E4,4.310691E4,3.6377537E3,1.042104E3,4.3061324E4,1.5932398E4,2.5267014E4,1.1825168E4,4.046461E2,8.1678022E3,4.2685405E3,1.590868E3,6.1538906E3,7.308065E2,1.0853944E4,2.913143E3,1.3622009E4,2.4805552E3,6.8186017E2,6.873659E2,3.5921897E3,1.1110302E3,6.665755E2,3.0751284E3,4.1545516E4,7.197058E3,2.3273245E3,1.1779634E4,2.3675281E4,2.6031436E4,6.2466187E3,1.1044657E4,4.8626304E3,1.5840296E4,5.313321E3,1.9844365E3,1.1463721E4,2.2801284E3,1.1303513E4,9.594806E3,1.9252578E4,1.6158539E3,1.2873934E4,3.0232977E4,4.6766148E1,3.5909875E3,7.2966205E2,3.1244193E2,2.3340691E4,1.9720635E4,1.2271271E4,3.6611274E3,9.524191E3,1.5742822E4,6.6551084E3,5.1700596E3,1.85554E2,2.1909207E2,1.6760665E3,6.491736E3,3.312313E3,9.562273E2,1.4315923E3,1.5927579E2,3.9584894E2,5.7580415E3,3.686359E2,3.6217062E2,6.216035E3,4.637909E3,1.228557E3,1.6845862E3,6.434335E3,7.1876733E3,4.0635858E2,2.0741965E3,6.7767535E2,4.184827E0,4.6485435E1,6.408805E2,3.36274E3,2.294499E2,5.156379E2,5.953923E2,4.8807532E2,1.785002E2,1.9195477E3,1.1555806E3],"tree_param":{"num_deleted":"0","num_feature":"28","num_nodes":"127","size_leaf_vector":"1"}},{"base_weights":[2.3606253E-10,-2.5655152E-2,1.5543048E-1,6.7175765E-11,-5.519321E-2,1.4090453E-1,1.753796E-1,-6.3116695E-3,1.4799551E-2,-6.640555E-2,-2.065937E-2,1.5019256E-1,1.0154563E-1,1.5461093E-1,2.1850818E-1,4.1514602E-3,-3.494169E-2,-1.2586694E-3,7.272044E-2,-3.957717E-2,-7.63553E-2,8.010892E-4,-8.887487E-2,1.3295922E-1,1.7537524E-1,7.305706E-2,1.2606454E-1,2.01693E-1,1.517258E-1,1.8642993E-1,2.6012346E-1,-3.9495626E-3,2.9954594E-2,1.4584149E-2,-4.539691E-2,1.9144794E-2,-3.733533E-2,1.0826122E-2,9.962833E-2,-4.227478E-2,-8.122236E-3,-8.422457E-2,-4.805558E-2,-2.8180363E-2,4.6975765E-2,-7.113907E-2,-1.3669212E-1,1.20191924E-1,1.6263136E-1,1.9902644E-1,1.2371852E-1,6.1570644E-2,1.9576731E-1,3.6210072E-1,1.2197765E-1,3.0141702E-1,1.7658305E-1,1.7083898E-1,1.4544155E-1,1.8846227E-1,-3.5764372E-1,1.5273133E-1,2.8435978E-1,1.0570225E-3,-1.8036206E-3,5.944968E-3,7.7038095E-4,-1.1042511E-2,3.0275045E-3,-6.3049616E-3,-1.4116903E-3,-1.4592785E-3,2.7719722E-3,-6.0532E-3,5.081871E-4,6.688421E-3,-2.3175823E-3,1.0585397E-2,-3.930472E-3,-3.2768592E-3,-5.728628E-3,-3.5135585E-3,6.72771E-3,-7.379118E-3,-1.2607607E-2,-8.7808035E-3,-1.9434778E-3,-3.9534303E-3,5.6067365E-3,6.5526306E-3,-2.0433937E-3,-7.7460147E-3,7.780338E-3,-1.549113E-2,4.114918E-3,1.3835614E-2,9.939604E-3,1.7205777E-2,6.6978335E-3,2.274832E-2,1.3296619E-2,9.291905E-3,2.3521421E-2,1.0461843E-2,2.935382E-3,2.7836217E-2,2.6595455E-3,4.282706E-2,-2.0085625E-2,1.27871055E-2,1.5731826E-3,1.4803077E-2,3.742371E-2,2.2122223E-2,1.2581038E-2,1.1573443E-2,1.9260198E-2,1.7760163E-2,1.3844489E-2,1.6976323E-2,2.4940496E-2,2.4110828E-2,-6.902378E-2,1.0465236E-2,2.7789518E-2,3.396484E-2,1.9552005E-2],"categories":[],"categories_nodes":[],"categories_segments":[],"categories_sizes":[],"default_left":[0,0,0,0,0,0,0,0,0,0,0,0,0,0,0,0,0,0,0,0,0,0,0,0,0,0,0,0,0,0,0,0,0,0,0,0,0,0,0,0,0,0,0,0,0,0,0,0,0,0,0,0,0,0,0,0,0,0,0,0,0,0,0,0,0,0,0,0,0,0,0,0,0,0,0,0,0,0,0,0,0,0,0,0,0,0,0,0,0,0,0,0,0,0,0,0,0,0,0,0,0,0,0,0,0,0,0,0,0,0,0,0,0,0,0,0,0,0,0,0,0,0,0,0,0,0,0],"id":10,"left_children":[1,3,5,7,9,11,13,15,17,19,21,23,25,27,29,31,33,35,37,39,41,43,45,47,49,51,53,55,57,59,61,63,65,67,69,71,73,75,77,79,81,83,85,87,89,91,93,95,97,99,101,103,105,107,109,111,113,115,117,119,121,123,125,-1,-1,-1,-1,-1,-1,-1,-1,-1,-1,-1,-1,-1,-1,-1,-1,-1,-1,-1,-1,-1,-1,-1,-1,-1,-1,-1,-1,-1,-1,-1,-1,-1,-1,-1,-1,-1,-1,-1,-1,-1,-1,-1,-1,-1,-1,-1,-1,-1,-1,-1,-1,-1,-1,-1,-1,-1,-1,-1,-1,-1,-1,-1,-1],"loss_changes":[1.660595E3,2.7087048E2,1.7072021E1,1.7868937E1,6.433185E1,1.246698E1,2.222931E1,4.017223E1,5.3194923E1,3.3477234E1,5.96175E1,1.1964905E1,4.546669E0,2.2486877E0,1.0732819E1,2.052962E1,1.858591E1,3.296189E1,2.0674423E1,2.8790321E0,2.0370972E1,4.145815E1,8.255409E0,6.195038E0,1.3683563E1,4.243658E0,3.3359756E0,2.3652725E0,1.8746948E0,5.114273E0,9.100143E0,1.5288462E1,1.5400585E1,1.2276745E1,1.6363602E1,8.275203E0,1.59171715E1,7.173763E0,7.4881973E0,4.4580193E0,5.464136E0,3.1248322E1,2.264875E1,1.8208885E1,1.4940304E1,6.7009125E0,8.546318E0,4.320175E0,4.435684E0,1.4434723E1,1.2088009E1,3.827897E0,3.597211E0,2.288659E0,2.155613E0,2.0987587E0,1.7263355E0,4.663666E0,2.6549683E0,5.1403046E0,3.6177313E0,3.8764105E0,1.4005951E1,0E0,0E0,0E0,0E0,0E0,0E0,0E0,0E0,0E0,0E0,0E0,0E0,0E0,0E0,0E0,0E0,0E0,0E0,0E0,0E0,0E0,0E0,0E0,0E0,0E0,0E0,0E0,0E0,0E0,0E0,0E0,0E0,0E0,0E0,0E0,0E0,0E0,0E0,0E0,0E0,0E0,0E0,0E0,0E0,0E0,0E0,0E0,0E0,0E0,0E0,0E0,0E0,0E0,0E0,0E0,0E0,0E0,0E0,0E0,0E0,0E0,0E0,0E0,0E0],"parents":[2147483647,0,0,1,1,2,2,3,3,4,4,5,5,6,6,7,7,8,8,9,9,10,10,11,11,12,12,13,13,14,14,15,15,16,16,17,17,18,18,19,19,20,20,21,21,22,22,23,23,24,24,25,25,26,26,27,27,28,28,29,29,30,30,31,31,32,32,33,33,34,34,35,35,36,36,37,37,38,38,39,39,40,40,41,41,42,42,43,43,44,44,45,45,46,46,47,47,48,48,49,49,50,50,51,51,52,52,53,53,54,54,55,55,56,56,57,57,58,58,59,59,60,60,61,61,62,62],"right_children":[2,4,6,8,10,12,14,16,18,20,22,24,26,28,30,32,34,36,38,40,42,44,46,48,50,52,54,56,58,60,62,64,66,68,70,72,74,76,78,80,82,84,86,88,90,92,94,96,98,100,102,104,106,108,110,112,114,116,118,120,122,124,126,-1,-1,-1,-1,-1,-1,-1,-1,-1,-1,-1,-1,-1,-1,-1,-1,-1,-1,-1,-1,-1,-1,-1,-1,-1,-1,-1,-1,-1,-1,-1,-1,-1,-1,-1,-1,-1,-1,-1,-1,-1,-1,-1,-1,-1,-1,-1,-1,-1,-1,-1,-1,-1,-1,-1,-1,-1,-1,-1,-1,-1,-1,-1,-1],"split_conditions":[1E0,1E0,2E0,3E0,1E0,6E2,1E0,1E0,1E0,2E0,1.15E3,1E0,1E0,4.189655E0,3E0,4.5E0,1E0,4.5E0,1E0,6.8308744E0,1E0,8E2,6.6133842E0,1E0,6.527958E0,6.827629E0,3.5553482E0,2E0,1E0,6.903747E0,4E0,2E0,1E0,4.787492E0,1E0,5.31812E0,1E0,2.6E2,6.5E2,1E0,1E0,0E0,7.5E2,7.5E-1,1.1E3,6.5778613E0,1E0,6.2709885E0,1E0,1E0,1.9E1,6.0234475E0,6.879356E0,8E2,6.8554087E0,3.295837E0,4.133333E0,5E-1,2E0,1E0,7E0,6.6133842E0,1E0,1.0570225E-3,-1.8036206E-3,5.944968E-3,7.7038095E-4,-1.1042511E-2,3.0275045E-3,-6.3049616E-3,-1.4116903E-3,-1.4592785E-3,2.7719722E-3,-6.0532E-3,5.081871E-4,6.688421E-3,-2.3175823E-3,1.0585397E-2,-3.930472E-3,-3.2768592E-3,-5.728628E-3,-3.5135585E-3,6.72771E-3,-7.379118E-3,-1.2607607E-2,-8.7808035E-3,-1.9434778E-3,-3.9534303E-3,5.6067365E-3,6.5526306E-3,-2.0433937E-3,-7.7460147E-3,7.780338E-3,-1.549113E-2,4.114918E-3,1.3835614E-2,9.939604E-3,1.7205777E-2,6.6978335E-3,2.274832E-2,1.3296619E-2,9.291905E-3,2.3521421E-2,1.0461843E-2,2.935382E-3,2.7836217E-2,2.6595455E-3,4.282706E-2,-2.0085625E-2,1.27871055E-2,1.5731826E-3,1.4803077E-2,3.742371E-2,2.2122223E-2,1.2581038E-2,1.1573443E-2,1.9260198E-2,1.7760163E-2,1.3844489E-2,1.6976323E-2,2.4940496E-2,2.4110828E-2,-6.902378E-2,1.0465236E-2,2.7789518E-2,3.396484E-2,1.9552005E-2],"split_indices":[14,4,20,16,13,9,11,11,11,1,9,13,11,19,16,0,18,0,18,19,15,9,19,7,19,19,19,1,10,19,2,16,7,19,7,19,6,9,9,11,24,15,9,8,9,19,7,19,10,6,2,19,19,9,19,19,0,8,1,5,2,19,24,0,0,0,0,0,0,0,0,0,0,0,0,0,0,0,0,0,0,0,0,0,0,0,0,0,0,0,0,0,0,0,0,0,0,0,0,0,0,0,0,0,0,0,0,0,0,0,0,0,0,0,0,0,0,0,0,0,0,0,0,0,0,0,0],"split_type":[0,0,0,0,0,0,0,0,0,0,0,0,0,0,0,0,0,0,0,0,0,0,0,0,0,0,0,0,0,0,0,0,0,0,0,0,0,0,0,0,0,0,0,0,0,0,0,0,0,0,0,0,0,0,0,0,0,0,0,0,0,0,0,0,0,0,0,0,0,0,0,0,0,0,0,0,0,0,0,0,0,0,0,0,0,0,0,0,0,0,0,0,0,0,0,0,0,0,0,0,0,0,0,0,0,0,0,0,0,0,0,0,0,0,0,0,0,0,0,0,0,0,0,0,0,0,0],"sum_hessian":[4.1643847E5,3.5744062E5,5.8997848E4,1.9129402E5,1.661466E5,3.4143973E4,2.4853875E4,1.3410281E5,5.7191203E4,1.2542353E5,4.0723066E4,2.7622678E4,6.521296E3,1.6778658E4,8.075216E3,9.8211336E4,3.5891473E4,4.4777805E4,1.24134E4,3.393272E4,9.149081E4,3.0978334E4,9.744733E3,1.64035E4,1.1219177E4,3.018303E3,3.5029932E3,9.648307E2,1.5813828E4,4.5632275E3,3.5119883E3,7.474547E4,2.3465867E4,6.2561274E3,2.9635346E4,2.8602107E4,1.6175696E4,3.7617998E3,8.651601E3,3.1252158E4,2.6805608E3,7.158365E4,1.9907166E4,1.9032812E4,1.1945521E4,7.110048E3,2.634686E3,1.1472275E4,4.9312246E3,7.693726E3,3.5254512E3,2.761328E3,2.5697516E2,5.8129967E1,3.444863E3,1.9185907E2,7.729716E2,3.906437E3,1.1907391E4,4.5468965E3,1.6330952E1,6.4799554E2,2.8639927E3,3.6806977E4,3.7938492E4,1.0089631E4,1.3376236E4,6.9701074E2,5.559117E3,1.8943605E4,1.069174E4,5.7962764E3,2.2805832E4,1.0456777E4,5.7189185E3,1.4198931E3,2.3419067E3,8.280774E3,3.7082617E2,1.9136775E4,1.2115382E4,1.9739036E3,7.066573E2,5.730142E4,1.4282228E4,8.332204E3,1.1574962E4,1.6772887E4,2.2599255E3,9.367654E3,2.5778665E3,6.8210444E3,2.8900336E2,2.3899714E3,2.4471463E2,6.1205854E3,5.35169E3,4.48813E3,4.430944E2,5.375626E3,2.3181E3,2.7638115E3,7.616397E2,1.1810176E3,1.5803103E3,1.7223793E2,8.4737236E1,5.2230095E1,5.8998685E0,3.2636277E3,1.8123535E2,6.2739353E1,1.291197E2,4.0954443E2,3.6342722E2,1.1077926E3,2.7986445E3,2.123296E3,9.784095E3,3.4822292E3,1.0646671E3,5.930195E0,1.0400758E1,4.6948807E2,1.7850745E2,1.7636052E3,1.1003875E3],"tree_param":{"num_deleted":"0","num_feature":"28","num_nodes":"127","size_leaf_vector":"1"}},{"base_weights":[-2.3098311E-10,-2.455092E-2,1.5212198E-1,1.4157285E-10,-5.3275783E-2,1.3920788E-1,1.6960216E-1,7.1404977E-3,-1.4520008E-2,-4.2253725E-2,-7.948335E-2,1.4916179E-1,1.06019735E-1,1.9692719E-1,1.436378E-1,-1.3263576E-2,3.1559043E-2,5.0483732E-3,-5.745243E-2,-3.1736813E-2,-6.4502135E-2,-2.542237E-2,-9.389564E-2,1.632974E-1,1.1522761E-1,1.0372614E-1,2.4450734E-1,1.7560565E-1,2.510365E-1,1.7646861E-1,1.3589923E-1,-2.353679E-3,-3.461637E-2,4.9900975E-2,1.18827745E-2,2.0342095E-2,-1.5429325E-2,-8.856214E-2,-3.223122E-3,-4.0908072E-2,1.4920687E-2,-4.9712587E-2,-9.051062E-2,-5.435148E-2,-6.6465135E-3,-4.3084353E-2,-1.1362514E-1,1.4014505E-1,1.9528602E-1,9.547706E-2,1.5008101E-1,1.0644854E-1,-1.2091038E-1,3.7442982E-1,-1.9021201E-1,1.6094351E-1,2.1073939E-1,1.3854802E-1,2.769987E-1,1.9800518E-1,1.0462725E-1,-2.283814E-1,1.3741012E-1,2.0854503E-3,-1.797165E-3,-6.503635E-3,3.1737846E-3,5.674537E-4,6.43737E-3,2.883423E-3,-2.5738138E-3,-1.7146411E-3,4.2006965E-3,-4.5681945E-3,1.6627469E-3,-7.5414293E-3,-1.53107345E-2,-4.1886526E-3,3.777759E-3,-7.650363E-3,-2.8534688E-3,1.4800786E-2,-6.4864196E-4,-9.1850135E-4,-5.621342E-3,-4.5282408E-3,-1.12891225E-2,-7.988197E-3,1.0543547E-3,-1.0430611E-3,1.501014E-2,-1.9791167E-2,4.679761E-4,-1.5034094E-2,-6.0652206E-3,2.41248E-2,1.3572623E-2,2.586334E-2,1.5418492E-2,1.0449551E-2,-7.237216E-3,1.236315E-2,2.3888417E-2,8.90185E-3,1.2307945E-2,1.4235993E-2,-2.2849752E-2,-3.804791E-2,4.080034E-2,2.2571845E-2,-6.500908E-2,1.4076014E-2,1.8732173E-2,1.5945235E-2,2.6019806E-2,2.4396382E-2,9.091794E-3,3.3272237E-2,1.902805E-2,2.1219622E-2,6.0711023E-3,8.203668E-3,2.3308545E-2,-4.0930014E-2,2.7369032E-2,1.670318E-2,1.31036015E-2],"categories":[],"categories_nodes":[],"categories_segments":[],"categories_sizes":[],"default_left":[0,0,0,0,0,0,0,0,0,0,0,0,0,0,0,0,0,0,0,0,0,0,0,0,0,0,0,0,0,0,0,0,0,0,0,0,0,0,0,0,0,0,0,0,0,0,0,0,0,0,0,0,0,0,0,0,0,0,0,0,0,0,0,0,0,0,0,0,0,0,0,0,0,0,0,0,0,0,0,0,0,0,0,0,0,0,0,0,0,0,0,0,0,0,0,0,0,0,0,0,0,0,0,0,0,0,0,0,0,0,0,0,0,0,0,0,0,0,0,0,0,0,0,0,0,0,0],"id":11,"left_children":[1,3,5,7,9,11,13,15,17,19,21,23,25,27,29,31,33,35,37,39,41,43,45,47,49,51,53,55,57,59,61,63,65,67,69,71,73,75,77,79,81,83,85,87,89,91,93,95,97,99,101,103,105,107,109,111,113,115,117,119,121,123,125,-1,-1,-1,-1,-1,-1,-1,-1,-1,-1,-1,-1,-1,-1,-1,-1,-1,-1,-1,-1,-1,-1,-1,-1,-1,-1,-1,-1,-1,-1,-1,-1,-1,-1,-1,-1,-1,-1,-1,-1,-1,-1,-1,-1,-1,-1,-1,-1,-1,-1,-1,-1,-1,-1,-1,-1,-1,-1,-1,-1,-1,-1,-1,-1],"loss_changes":[1.5492074E3,2.5188223E2,1.298877E1,1.99664E1,4.7541046E1,1.0937683E1,1.7344788E1,6.4319435E1,5.3334347E1,2.7108795E1,3.7963226E1,1.2215088E1,2.4056854E0,1.3717529E1,3.1670227E0,1.6383354E1,2.1208027E1,1.3657701E1,3.3532166E1,3.3667397E1,1.4300507E1,5.571218E0,3.8561462E1,1.3305237E1,5.150772E0,4.618202E0,7.0721374E0,4.37558E0,9.8016205E0,3.6809158E0,5.6279755E0,1.68721E1,4.800589E1,1.9466843E1,1.8082245E1,2.0276608E1,1.8082764E1,1.0707077E1,1.1489394E1,2.8957962E1,3.682581E1,6.246231E0,1.3639969E1,6.6894407E0,3.691839E0,7.958435E1,5.3886017E1,4.634506E0,1.9633514E1,7.2615356E0,6.341007E0,2.146019E0,2.5998535E0,2.5825186E0,5.72911E0,3.1912994E0,6.343582E0,3.1602087E0,1.3160339E1,3.5711517E0,1.5882955E0,3.9612217E0,1.8902283E0,0E0,0E0,0E0,0E0,0E0,0E0,0E0,0E0,0E0,0E0,0E0,0E0,0E0,0E0,0E0,0E0,0E0,0E0,0E0,0E0,0E0,0E0,0E0,0E0,0E0,0E0,0E0,0E0,0E0,0E0,0E0,0E0,0E0,0E0,0E0,0E0,0E0,0E0,0E0,0E0,0E0,0E0,0E0,0E0,0E0,0E0,0E0,0E0,0E0,0E0,0E0,0E0,0E0,0E0,0E0,0E0,0E0,0E0,0E0,0E0,0E0,0E0,0E0,0E0],"parents":[2147483647,0,0,1,1,2,2,3,3,4,4,5,5,6,6,7,7,8,8,9,9,10,10,11,11,12,12,13,13,14,14,15,15,16,16,17,17,18,18,19,19,20,20,21,21,22,22,23,23,24,24,25,25,26,26,27,27,28,28,29,29,30,30,31,31,32,32,33,33,34,34,35,35,36,36,37,37,38,38,39,39,40,40,41,41,42,42,43,43,44,44,45,45,46,46,47,47,48,48,49,49,50,50,51,51,52,52,53,53,54,54,55,55,56,56,57,57,58,58,59,59,60,60,61,61,62,62],"right_children":[2,4,6,8,10,12,14,16,18,20,22,24,26,28,30,32,34,36,38,40,42,44,46,48,50,52,54,56,58,60,62,64,66,68,70,72,74,76,78,80,82,84,86,88,90,92,94,96,98,100,102,104,106,108,110,112,114,116,118,120,122,124,126,-1,-1,-1,-1,-1,-1,-1,-1,-1,-1,-1,-1,-1,-1,-1,-1,-1,-1,-1,-1,-1,-1,-1,-1,-1,-1,-1,-1,-1,-1,-1,-1,-1,-1,-1,-1,-1,-1,-1,-1,-1,-1,-1,-1,-1,-1,-1,-1,-1,-1,-1,-1,-1,-1,-1,-1,-1,-1,-1,-1,-1,-1,-1,-1],"split_conditions":[1E0,1E0,2E0,3E0,1E0,5.7E2,1E0,2E0,1E0,1E0,2E0,1E0,6.891626E0,3E0,5.2832036E0,1E0,1E0,4E0,1E0,3E0,3E0,3.1E2,2E0,1E0,7.5E-1,6.879356E0,7.5E2,1E0,4E0,1E0,5.2983174E0,1E0,1E0,1E0,1E0,1E0,2.5E2,5E-1,2E0,4.1E0,4.1E0,2.1E2,1E0,6.5496507E0,6.895683E0,4.1E0,1E3,3.988984E0,6.0137153E0,6.859615E0,6.673298E0,1E0,2E0,3E0,4E0,1.4E1,6.1944056E0,2E0,1E0,4E0,2E1,5E0,2E0,2.0854503E-3,-1.797165E-3,-6.503635E-3,3.1737846E-3,5.674537E-4,6.43737E-3,2.883423E-3,-2.5738138E-3,-1.7146411E-3,4.2006965E-3,-4.5681945E-3,1.6627469E-3,-7.5414293E-3,-1.53107345E-2,-4.1886526E-3,3.777759E-3,-7.650363E-3,-2.8534688E-3,1.4800786E-2,-6.4864196E-4,-9.1850135E-4,-5.621342E-3,-4.5282408E-3,-1.12891225E-2,-7.988197E-3,1.0543547E-3,-1.0430611E-3,1.501014E-2,-1.9791167E-2,4.679761E-4,-1.5034094E-2,-6.0652206E-3,2.41248E-2,1.3572623E-2,2.586334E-2,1.5418492E-2,1.0449551E-2,-7.237216E-3,1.236315E-2,2.3888417E-2,8.90185E-3,1.2307945E-2,1.4235993E-2,-2.2849752E-2,-3.804791E-2,4.080034E-2,2.2571845E-2,-6.500908E-2,1.4076014E-2,1.8732173E-2,1.5945235E-2,2.6019806E-2,2.4396382E-2,9.091794E-3,3.3272237E-2,1.902805E-2,2.1219622E-2,6.0711023E-3,8.203668E-3,2.3308545E-2,-4.0930014E-2,2.7369032E-2,1.670318E-2,1.31036015E-2],"split_indices":[14,4,20,16,13,9,10,16,11,10,1,6,19,16,19,13,7,16,7,16,1,9,16,13,8,19,9,5,2,6,19,15,7,18,13,18,9,8,20,0,0,9,18,19,19,0,9,19,19,19,19,11,26,2,26,2,19,26,24,16,2,26,1,0,0,0,0,0,0,0,0,0,0,0,0,0,0,0,0,0,0,0,0,0,0,0,0,0,0,0,0,0,0,0,0,0,0,0,0,0,0,0,0,0,0,0,0,0,0,0,0,0,0,0,0,0,0,0,0,0,0,0,0,0,0,0,0],"split_type":[0,0,0,0,0,0,0,0,0,0,0,0,0,0,0,0,0,0,0,0,0,0,0,0,0,0,0,0,0,0,0,0,0,0,0,0,0,0,0,0,0,0,0,0,0,0,0,0,0,0,0,0,0,0,0,0,0,0,0,0,0,0,0,0,0,0,0,0,0,0,0,0,0,0,0,0,0,0,0,0,0,0,0,0,0,0,0,0,0,0,0,0,0,0,0,0,0,0,0,0,0,0,0,0,0,0,0,0,0,0,0,0,0,0,0,0,0,0,0,0,0,0,0,0,0,0,0],"sum_hessian":[4.1480856E5,3.571664E5,5.7642145E4,1.9257502E5,1.645914E5,3.3155973E4,2.4486174E4,1.2909201E5,6.3483008E4,1.1586495E5,4.872645E4,2.5503404E4,7.6525664E3,1.1927263E4,1.2558912E4,7.032722E4,5.876479E4,4.3607715E4,1.9875293E4,7.8676625E4,3.7188324E4,1.0256546E4,3.8469902E4,1.800107E4,7.502335E3,7.5296123E3,1.2295432E2,8.558907E3,3.368355E3,2.3914421E3,1.016747E4,4.6546223E4,2.3780998E4,3.0412842E4,2.835195E4,2.4963666E4,1.8644049E4,1.26295E4,7.2457935E3,6.575214E4,1.2924484E4,2.3709176E4,1.347915E4,4.036055E3,6.220491E3,1.0760513E4,2.770939E4,1.044598E4,7.55509E3,4.7910864E3,2.7112488E3,7.4399727E3,8.963974E1,9.476966E1,2.8184666E1,6.0427173E3,2.51619E3,6.3282074E2,2.7355344E3,1.8385316E3,5.529105E2,4.137613E1,1.0126094E4,1.8723264E4,2.7822957E4,1.6305698E4,7.4753013E3,7.4988633E3,2.2913979E4,1.954533E4,8.806618E3,9.142996E3,1.582067E4,9.591726E3,9.052323E3,1.0494036E4,2.135464E3,3.7291797E3,3.5166138E3,1.6959148E4,4.8792996E4,1.7900288E3,1.1134455E4,3.2777012E3,2.0431475E4,4.4630146E3,9.016136E3,2.8963606E3,1.1396942E3,6.074772E3,1.457194E2,2.536219E3,8.224294E3,1.6364936E4,1.1344456E4,4.351909E2,1.0010789E4,2.9708894E3,4.5842007E3,4.547148E3,2.4393842E2,2.090883E3,6.203658E2,3.6358108E3,3.8041619E3,2.591106E1,6.372868E1,3.5953238E0,9.117433E1,1.5066854E1,1.3117811E1,3.4269292E3,2.6157883E3,1.237336E3,1.2788539E3,1.9566008E2,4.3716068E2,1.6636584E3,1.071876E3,1.6658048E3,1.727269E2,4.7161182E2,8.129871E1,3.0551752E1,1.0824376E1,1.788658E3,8.337436E3],"tree_param":{"num_deleted":"0","num_feature":"28","num_nodes":"127","size_leaf_vector":"1"}},{"base_weights":[8.939778E-11,-2.3291877E-2,1.4810747E-1,1.7786373E-11,-5.0522342E-2,1.3512169E-1,1.660239E-1,1.826458E-2,-8.852589E-3,-3.9216645E-2,-7.496469E-2,1.4661564E-1,1.0970276E-1,1.4935632E-1,2.0127563E-1,1.3638886E-3,6.453675E-2,-2.7014412E-2,1.4029189E-2,-3.4735024E-2,-7.244229E-2,-1.01117335E-1,-5.1223624E-2,1.751568E-1,1.2811841E-1,9.179713E-2,1.3762182E-1,1.7632942E-1,1.428789E-1,1.6970797E-1,2.4478614E-1,1.7985877E-2,-2.578053E-2,8.9363284E-2,8.948315E-3,-4.316705E-2,-3.442634E-3,-3.7855695E-3,7.699176E-2,-1.7975675E-2,-4.1756872E-2,-9.0633616E-2,-5.3296264E-2,-5.2720767E-2,-1.1977038E-1,-2.6084881E-2,-9.6790045E-2,1.4354962E-1,2.2083695E-1,1.2314731E-1,2.1068873E-1,1.1470088E-1,6.0643528E-2,1.17810175E-1,2.0628867E-1,1.61829E-1,2.2739299E-1,1.6688171E-1,1.3511693E-1,1.6387853E-1,3.064186E-1,1.3210753E-1,2.7149197E-1,9.684167E-3,1.4901956E-3,-9.646401E-3,4.015238E-4,-4.2457525E-3,1.00229075E-2,9.125463E-3,-3.7912994E-3,-5.7949256E-3,1.3516195E-3,2.6825925E-3,-2.6405896E-3,2.1560104E-3,-1.1203936E-3,1.0653361E-2,4.8577366E-3,-4.9188393E-3,-6.441042E-5,-4.898498E-3,-2.1873214E-3,-7.7991732E-3,-1.668377E-2,-2.4776075E-3,-8.359096E-3,-6.7580873E-3,-1.6101974E-3,-1.4356956E-2,-8.475494E-3,-1.6630983E-3,-1.2430985E-2,-4.214172E-3,-1.5262521E-2,2.5871683E-2,1.3777809E-2,2.5400652E-2,1.1368967E-2,1.2616632E-2,2.2300414E-3,3.7648417E-2,1.7627485E-2,1.0374501E-2,3.7514497E-2,9.8295715E-3,1.513272E-3,1.3964024E-2,2.1452073E-3,4.1906387E-2,1.6602347E-2,1.6779311E-2,-4.113498E-3,2.082757E-2,4.3791622E-2,9.381791E-3,1.8272765E-2,1.666349E-3,1.3703878E-2,1.4584347E-2,2.2020424E-2,7.5509585E-2,2.6729314E-2,4.6063894E-3,1.8782454E-2,3.2874323E-2,1.8528393E-2],"categories":[],"categories_nodes":[],"categories_segments":[],"categories_sizes":[],"default_left":[0,0,0,0,0,0,0,0,0,0,0,0,0,0,0,0,0,0,0,0,0,0,0,0,0,0,0,0,0,0,0,0,0,0,0,0,0,0,0,0,0,0,0,0,0,0,0,0,0,0,0,0,0,0,0,0,0,0,0,0,0,0,0,0,0,0,0,0,0,0,0,0,0,0,0,0,0,0,0,0,0,0,0,0,0,0,0,0,0,0,0,0,0,0,0,0,0,0,0,0,0,0,0,0,0,0,0,0,0,0,0,0,0,0,0,0,0,0,0,0,0,0,0,0,0,0,0],"id":12,"left_children":[1,3,5,7,9,11,13,15,17,19,21,23,25,27,29,31,33,35,37,39,41,43,45,47,49,51,53,55,57,59,61,63,65,67,69,71,73,75,77,79,81,83,85,87,89,91,93,95,97,99,101,103,105,107,109,111,113,115,117,119,121,123,125,-1,-1,-1,-1,-1,-1,-1,-1,-1,-1,-1,-1,-1,-1,-1,-1,-1,-1,-1,-1,-1,-1,-1,-1,-1,-1,-1,-1,-1,-1,-1,-1,-1,-1,-1,-1,-1,-1,-1,-1,-1,-1,-1,-1,-1,-1,-1,-1,-1,-1,-1,-1,-1,-1,-1,-1,-1,-1,-1,-1,-1,-1,-1,-1],"loss_changes":[1.4311295E3,2.2736565E2,1.3093872E1,3.1240746E1,4.5666534E1,9.535034E0,1.3886902E1,4.9327713E1,5.4082764E1,1.682399E1,3.2446564E1,1.1860626E1,5.0780716E0,2.7852783E0,1.0398621E1,2.08468E1,2.3287682E1,2.7624012E1,6.4593666E1,1.1717155E1,4.672615E0,2.2444046E1,3.138179E1,1.27438965E1,5.5814514E0,4.4221306E0,5.386055E0,2.2664719E0,2.39505E0,3.4629745E0,9.574509E0,6.9672537E0,3.6956898E1,1.671244E1,2.0101793E1,3.607366E1,2.0506678E1,8.440192E0,1.0655724E1,1.590575E1,1.0084045E1,6.6198463E0,5.653368E0,3.7646484E0,1.4946045E1,1.639569E1,2.9716034E1,3.4424667E0,1.2825302E1,3.9209595E0,4.351803E0,1.0165241E1,4.508816E0,6.4944E0,7.5484543E0,2.9437523E0,2.6676636E0,3.6490402E0,2.2311249E0,4.265068E0,2.9428558E0,2.9342127E0,1.2676819E1,0E0,0E0,0E0,0E0,0E0,0E0,0E0,0E0,0E0,0E0,0E0,0E0,0E0,0E0,0E0,0E0,0E0,0E0,0E0,0E0,0E0,0E0,0E0,0E0,0E0,0E0,0E0,0E0,0E0,0E0,0E0,0E0,0E0,0E0,0E0,0E0,0E0,0E0,0E0,0E0,0E0,0E0,0E0,0E0,0E0,0E0,0E0,0E0,0E0,0E0,0E0,0E0,0E0,0E0,0E0,0E0,0E0,0E0,0E0,0E0,0E0,0E0,0E0,0E0],"parents":[2147483647,0,0,1,1,2,2,3,3,4,4,5,5,6,6,7,7,8,8,9,9,10,10,11,11,12,12,13,13,14,14,15,15,16,16,17,17,18,18,19,19,20,20,21,21,22,22,23,23,24,24,25,25,26,26,27,27,28,28,29,29,30,30,31,31,32,32,33,33,34,34,35,35,36,36,37,37,38,38,39,39,40,40,41,41,42,42,43,43,44,44,45,45,46,46,47,47,48,48,49,49,50,50,51,51,52,52,53,53,54,54,55,55,56,56,57,57,58,58,59,59,60,60,61,61,62,62],"right_children":[2,4,6,8,10,12,14,16,18,20,22,24,26,28,30,32,34,36,38,40,42,44,46,48,50,52,54,56,58,60,62,64,66,68,70,72,74,76,78,80,82,84,86,88,90,92,94,96,98,100,102,104,106,108,110,112,114,116,118,120,122,124,126,-1,-1,-1,-1,-1,-1,-1,-1,-1,-1,-1,-1,-1,-1,-1,-1,-1,-1,-1,-1,-1,-1,-1,-1,-1,-1,-1,-1,-1,-1,-1,-1,-1,-1,-1,-1,-1,-1,-1,-1,-1,-1,-1,-1,-1,-1,-1,-1,-1,-1,-1,-1,-1,-1,-1,-1,-1,-1,-1,-1,-1,-1,-1,-1],"split_conditions":[1E0,1E0,2E0,2E0,1E0,1E0,1E0,1E0,3E0,1.2E3,2E0,5.9839363E0,7.5E-1,5.2832036E0,3E0,1E0,4.5E0,1E0,1E0,1E0,6.2785215E0,2E0,3E0,1E0,6.872128E0,6.3279366E0,6.673298E0,5.043425E0,1E0,1.8E3,4E0,6E1,1.1E2,6E1,1E0,1E0,1E0,2E2,1E0,2E0,1E0,6.1202974E0,6.6333184E0,5E0,1E0,1.45E3,1E0,3.4339871E0,5.5E2,6.8554087E0,2.1E2,6.285998E0,2E0,6.475433E0,6.7165947E0,5.0172796E0,2.2E1,5.8377304E0,5.3565865E0,1E0,1E0,6.0776424E0,1E0,9.684167E-3,1.4901956E-3,-9.646401E-3,4.015238E-4,-4.2457525E-3,1.00229075E-2,9.125463E-3,-3.7912994E-3,-5.7949256E-3,1.3516195E-3,2.6825925E-3,-2.6405896E-3,2.1560104E-3,-1.1203936E-3,1.0653361E-2,4.8577366E-3,-4.9188393E-3,-6.441042E-5,-4.898498E-3,-2.1873214E-3,-7.7991732E-3,-1.668377E-2,-2.4776075E-3,-8.359096E-3,-6.7580873E-3,-1.6101974E-3,-1.4356956E-2,-8.475494E-3,-1.6630983E-3,-1.2430985E-2,-4.214172E-3,-1.5262521E-2,2.5871683E-2,1.3777809E-2,2.5400652E-2,1.1368967E-2,1.2616632E-2,2.2300414E-3,3.7648417E-2,1.7627485E-2,1.0374501E-2,3.7514497E-2,9.8295715E-3,1.513272E-3,1.3964024E-2,2.1452073E-3,4.1906387E-2,1.6602347E-2,1.6779311E-2,-4.113498E-3,2.082757E-2,4.3791622E-2,9.381791E-3,1.8272765E-2,1.666349E-3,1.3703878E-2,1.4584347E-2,2.2020424E-2,7.5509585E-2,2.6729314E-2,4.6063894E-3,1.8782454E-2,3.2874323E-2,1.8528393E-2],"split_indices":[14,4,20,16,11,6,11,13,16,9,20,19,8,19,16,11,0,7,11,18,19,1,16,13,19,19,19,19,10,9,2,9,9,9,7,15,15,9,7,16,7,19,19,26,6,9,7,19,9,19,9,19,16,19,19,19,2,19,19,5,2,19,24,0,0,0,0,0,0,0,0,0,0,0,0,0,0,0,0,0,0,0,0,0,0,0,0,0,0,0,0,0,0,0,0,0,0,0,0,0,0,0,0,0,0,0,0,0,0,0,0,0,0,0,0,0,0,0,0,0,0,0,0,0,0,0,0],"split_type":[0,0,0,0,0,0,0,0,0,0,0,0,0,0,0,0,0,0,0,0,0,0,0,0,0,0,0,0,0,0,0,0,0,0,0,0,0,0,0,0,0,0,0,0,0,0,0,0,0,0,0,0,0,0,0,0,0,0,0,0,0,0,0,0,0,0,0,0,0,0,0,0,0,0,0,0,0,0,0,0,0,0,0,0,0,0,0,0,0,0,0,0,0,0,0,0,0,0,0,0,0,0,0,0,0,0,0,0,0,0,0,0,0,0,0,0,0,0,0,0,0,0,0,0,0,0,0],"sum_hessian":[4.1485412E5,3.5847928E5,5.6374816E4,1.9321323E5,1.6526606E5,3.2689844E4,2.3684973E4,6.307546E4,1.3013777E5,1.1300071E5,5.2265355E4,2.2507572E4,1.0182271E4,1.6084978E4,7.599994E3,4.620158E4,1.6873879E4,7.255162E4,5.7586156E4,9.957204E4,1.342867E4,2.4868018E4,2.7397338E4,8.84748E3,1.3660092E4,6.2062427E3,3.9760286E3,3.1096465E3,1.2975331E4,4.4073115E3,3.1926826E3,2.865495E4,1.7546629E4,1.1663982E4,5.209897E3,4.305037E4,2.9501242E4,4.488675E4,1.2699408E4,2.9401582E4,7.017046E4,6.884103E3,6.544567E3,6.9192866E3,1.794873E4,1.7657412E4,9.739926E3,5.231691E3,3.6157896E3,1.2886744E4,7.7334735E2,3.5751514E3,2.6310916E3,3.0878445E3,8.88184E2,2.42515E3,6.8449646E2,3.1656125E3,9.809719E3,4.2291753E3,1.781364E2,6.128521E2,2.5798306E3,1.0773263E3,2.7577623E4,5.202553E3,1.2344076E4,8.880076E2,1.0775976E4,1.8897787E3,3.3201184E3,3.414564E4,8.904731E3,1.2726239E4,1.6775004E4,1.0162734E4,3.4724016E4,6.224832E3,6.474576E3,1.0496471E4,1.8905111E4,